-3.272295370697975159e-02,4.735948052257299423e-03,-1.488427165895700455e-02,-2.937173843383789062e-02,3.255339106544852257e-03,9.994352236390113831e-03,-2.594412490725517273e-02,8.669937029480934143e-03,-1.258149184286594391e-02,-2.819654345512390137e-02,-2.968468144536018372e-02,-1.228834595531225204e-02,2.926201559603214264e-02,-1.786087825894355774e-02,-2.019857615232467651e-02,3.150950651615858078e-03,2.589156664907932281e-02,-1.775284484028816223e-02,-1.289454568177461624e-02,7.026973180472850800e-03,1.260672137141227722e-02,2.077443338930606842e-02,3.682428970932960510e-02,7.698171772062778473e-03,3.135682642459869385e-02,-2.103655785322189331e-02,1.803378341719508171e-03,-1.314765214920043945e-02,8.866683579981327057e-03,3.667549043893814087e-02,-1.703170128166675568e-02,3.068283572793006897e-02,-2.176457270979881287e-02,1.990682631731033325e-02,-1.613189280033111572e-02,9.863229468464851379e-03,-1.984888315200805664e-02,-3.056772053241729736e-02,2.815070562064647675e-02,-1.328958012163639069e-02,2.261858992278575897e-02,3.213677182793617249e-02,1.067690271884202957e-02,-4.802708048373460770e-03,3.874861076474189758e-02,-2.070722728967666626e-02,8.681400679051876068e-03,3.265099972486495972e-02,2.815974503755569458e-02,2.287988737225532532e-02,-3.898364026099443436e-03,2.851122431457042694e-02,-1.125732553191483021e-03,-2.168046869337558746e-02,3.841194882988929749e-02,-1.060279272496700287e-02,-2.851207740604877472e-02,-2.136788144707679749e-02,-2.039079368114471436e-02,-1.066708844155073166e-02,3.501263633370399475e-02,3.389225155115127563e-02,-3.262025862932205200e-02,-3.290364518761634827e-02,-1.742709986865520477e-02,1.256939023733139038e-02,-2.231890335679054260e-02,-1.787701062858104706e-02,-1.561773754656314850e-02,2.612268179655075073e-02,-2.955996617674827576e-02,-1.907031517475843430e-03,3.741357848048210144e-02,-2.985376119613647461e-02,3.780198842287063599e-02,-7.472447119653224945e-03,2.940746583044528961e-02,-2.062431164085865021e-02,-1.398161984980106354e-02,2.747739665210247040e-02,-3.565667197108268738e-02,3.028312139213085175e-02,-1.229445263743400574e-02,1.088546309620141983e-02,3.377929329872131348e-02,-1.826247945427894592e-02,2.630422450602054596e-02,2.096563391387462616e-02,2.833837084472179413e-02,2.359973452985286713e-02,1.619611494243144989e-02,6.248531863093376160e-04,-3.394764661788940430e-02,-3.054189682006835938e-02,3.681313246488571167e-02,-1.755662728101015091e-03,-1.219210401177406311e-02,5.848742555826902390e-03,-1.975557953119277954e-02,-3.139652684330940247e-02,2.743573114275932312e-02,-9.356253780424594879e-03,-2.578790485858917236e-02,-8.508110418915748596e-03,1.075712125748395920e-02,1.487259659916162491e-02,2.298204042017459869e-02,2.709182724356651306e-02,-1.904848776757717133e-02,-2.498528733849525452e-02,2.784793078899383545e-02,3.412107005715370178e-02,3.696609754115343094e-03,2.248998731374740601e-03,-5.754069890826940536e-03,-6.564591079950332642e-03,-1.249721087515354156e-02,-3.197317477315664291e-03,2.462149225175380707e-02,1.393335964530706406e-02,2.057100087404251099e-02,-1.348664518445730209e-04,-2.836338430643081665e-02,-1.382083166390657425e-02,1.617318019270896912e-02,3.712338954210281372e-02,2.726967819035053253e-02,-1.044579874724149704e-02
