1.771661080420017242e-02,-7.391042541712522507e-03,4.981241188943386078e-03,2.292197570204734802e-02,-4.094401840120553970e-03,1.397058367729187012e-02,-2.352155931293964386e-02,2.338513918220996857e-02,3.550770878791809082e-02,1.737062446773052216e-02,-1.863431558012962341e-02,-2.056685648858547211e-02,-2.347436547279357910e-02,1.230485853739082813e-03,-2.195278368890285492e-02,3.413742780685424805e-02,-1.937669888138771057e-02,3.065487835556268692e-03,2.699775435030460358e-02,3.773714601993560791e-02,1.626981981098651886e-02,3.796651959419250488e-02,-1.406745985150337219e-03,-2.452688291668891907e-02,-2.163456939160823822e-02,-8.111839182674884796e-03,1.928013749420642853e-02,2.958964370191097260e-02,1.146200858056545258e-02,-3.003382682800292969e-02,-9.739902801811695099e-03,1.355301681905984879e-02,-9.936147369444370270e-03,-1.836391538381576538e-02,3.077863901853561401e-02,2.180339023470878601e-02,1.355233369395136833e-03,-2.500154823064804077e-02,3.387095779180526733e-02,-1.132338657043874264e-04,-8.312005549669265747e-03,2.492214739322662354e-02,-5.739578045904636383e-03,2.260280400514602661e-02,1.753425039350986481e-02,2.678283490240573883e-02,-5.202336236834526062e-03,7.202511653304100037e-03,3.882790729403495789e-02,-1.096488349139690399e-02,-4.266116302460432053e-03,4.052322357892990112e-03,2.185934409499168396e-02,2.983451588079333305e-03,-2.895025536417961121e-03,4.062617570161819458e-02,-2.124375477433204651e-02,1.628775149583816528e-02,-3.013549372553825378e-02,-2.026281319558620453e-02,1.636589504778385162e-02,8.331634104251861572e-03,-2.236486226320266724e-02,3.876611124724149704e-03,-3.299782797694206238e-02,-7.168661337345838547e-03,1.469916477799415588e-02,-2.531596645712852478e-02,-8.112224750220775604e-03,-1.753761246800422668e-02,1.864038780331611633e-02,6.528176367282867432e-03,3.365938318893313408e-03,2.330549061298370361e-02,-2.573030255734920502e-02,-5.183584056794643402e-03,-3.611130267381668091e-02,-3.257825970649719238e-02,-5.429600831121206284e-03,-1.594898290932178497e-02,9.882714366540312767e-04,2.474902011454105377e-02,-3.648018697276711464e-03,-1.202110480517148972e-02,1.717735826969146729e-02,-8.874738123267889023e-04,9.512134827673435211e-03,-3.030161000788211823e-02,1.675248518586158752e-02,2.133931033313274384e-02,2.532471530139446259e-02,-7.570084184408187866e-03,3.120603598654270172e-02,-1.140098553150892258e-02,-5.520514678210020065e-03,1.257570181041955948e-02,1.596347242593765259e-02,3.644854575395584106e-02,-1.767011173069477081e-02,-6.912181852385401726e-04,5.949458107352256775e-03,-3.190926834940910339e-02,-1.244247239083051682e-02,2.904996462166309357e-02,1.870641112327575684e-02,2.587004192173480988e-02,6.907760165631771088e-03,2.526075765490531921e-02,-3.261632472276687622e-02,1.921223662793636322e-02,3.096483275294303894e-02,6.552550941705703735e-03,2.204054594039916992e-02,3.969737887382507324e-02,-2.201423607766628265e-02,-1.043414697051048279e-02,3.339711576700210571e-02,-6.971499416977167130e-03,5.995151586830615997e-03,1.471914444118738174e-02,1.154573634266853333e-02,-2.059794589877128601e-02,-2.161453664302825928e-02,-3.169775009155273438e-02,-1.106563769280910492e-02,-4.182005068287253380e-05,3.558037802577018738e-02,-2.915041707456111908e-02
