-1.376607269048690796e-02,-2.588754519820213318e-02,2.891787514090538025e-02,-3.380378708243370056e-02,-5.230137612670660019e-03,-2.032349072396755219e-02,8.289325051009654999e-03,-1.503222808241844177e-02,-2.449946943670511246e-03,-1.261670701205730438e-02,2.944470383226871490e-02,-2.475664950907230377e-02,2.824054285883903503e-02,5.652707535773515701e-03,1.091594435274600983e-02,3.475169092416763306e-02,-3.484681993722915649e-02,8.746070787310600281e-03,-3.175641875714063644e-03,-1.153827179223299026e-02,1.466812007129192352e-02,3.343237191438674927e-02,2.244454249739646912e-02,2.356218919157981873e-02,3.307449445128440857e-02,1.465550507418811321e-03,9.677580557763576508e-03,-8.645394816994667053e-03,-2.882698364555835724e-02,-1.680355891585350037e-02,8.356660604476928711e-03,-1.435886602848768234e-02,-1.611074432730674744e-03,-3.007790772244334221e-03,2.367963083088397980e-02,1.673532184213399887e-03,2.530092187225818634e-02,3.729538619518280029e-02,-6.923364475369453430e-03,-2.940411679446697235e-02,3.925712406635284424e-02,3.707718104124069214e-02,9.322880767285823822e-03,2.842592447996139526e-02,2.094218693673610687e-02,2.676097676157951355e-02,3.138925135135650635e-02,-1.775928959250450134e-02,1.074742525815963745e-03,3.527231141924858093e-02,2.200505882501602173e-02,-1.793789304792881012e-02,-2.620852924883365631e-02,-2.276041731238365173e-02,-1.385091524571180344e-02,2.571608871221542358e-02,1.048025116324424744e-02,-1.312228664755821228e-02,-2.182390168309211731e-02,-3.456261940300464630e-03,2.218571119010448456e-02,2.797321788966655731e-02,-5.202220752835273743e-03,6.514068692922592163e-03,2.999232383444905281e-03,-1.192139647901058197e-02,3.206893056631088257e-02,-1.027727685868740082e-02,1.160939224064350128e-02,4.886017646640539169e-03,8.301155641674995422e-03,3.745751827955245972e-02,-1.381675899028778076e-02,3.954263776540756226e-02,-1.342806499451398849e-02,2.643140964210033417e-02,-3.039743192493915558e-02,3.257490321993827820e-02,2.677876502275466919e-02,7.586400955915451050e-03,1.146333850920200348e-02,4.483362659811973572e-03,3.252680227160453796e-02,-3.440793976187705994e-02,-9.723646799102425575e-04,1.467849593609571457e-03,2.456482965499162674e-03,3.893429785966873169e-02,-1.661495305597782135e-02,3.882227465510368347e-02,2.296465449035167694e-02,2.114531956613063812e-02,3.947558999061584473e-02,5.550872068852186203e-03,-1.593032479286193848e-02,1.443437766283750534e-02,3.891424834728240967e-02,1.642502471804618835e-02,2.208216860890388489e-02,-9.827345609664916992e-03,9.348883293569087982e-03,-1.915315166115760803e-02,2.174800820648670197e-02,-1.156515441834926605e-02,-2.928205393254756927e-02,-2.186066098511219025e-02,3.862713463604450226e-03,2.809476293623447418e-02,3.309569507837295532e-02,3.962710499763488770e-02,1.307721249759197235e-02,3.072421997785568237e-02,-6.221022340469062328e-04,-9.237080812454223633e-03,-2.081199549138545990e-02,-3.263965016230940819e-03,8.140096440911293030e-03,4.067493602633476257e-02,-1.605454459786415100e-02,-1.582101546227931976e-02,-3.293244866654276848e-03,-2.600213512778282166e-02,-1.657139696180820465e-02,-1.271688006818294525e-02,2.042009728029370308e-03,3.940268978476524353e-02,3.017543442547321320e-02,-7.990242913365364075e-03,2.520571835339069366e-02,3.020095080137252808e-02,2.569085732102394104e-02,3.470988199114799500e-02,5.846080835908651352e-03,1.342620048671960831e-02,-2.690223604440689087e-02,6.708944216370582581e-03,-1.457909401506185532e-02,-3.707893937826156616e-02,-3.823182359337806702e-02,-1.413511857390403748e-02,-3.471605852246284485e-02,-1.096473447978496552e-02,-3.385162446647882462e-03,1.953709870576858521e-02,-1.196229178458452225e-02,1.749148964881896973e-02,2.583407983183860779e-02,1.302958838641643524e-02,3.052932769060134888e-02,3.334368765354156494e-02,-2.438274584710597992e-02,-1.720033958554267883e-02,-1.447003614157438278e-02,-1.157390605658292770e-02,1.051201950758695602e-02,-1.410632859915494919e-02,-1.494211796671152115e-02,-2.474209293723106384e-02,-3.441336005926132202e-02,-3.046430181711912155e-03,2.678961306810379028e-02,1.106876228004693985e-02,-3.065043874084949493e-02,-1.166267041116952896e-02,-9.219634346663951874e-03,-2.252898551523685455e-02,-3.865716233849525452e-02,-5.557927768677473068e-03,7.420284673571586609e-03,-3.553078323602676392e-02,-3.378434106707572937e-03,-5.534527357667684555e-03,2.488845773041248322e-02,8.428364992141723633e-03,-2.258065715432167053e-02,1.005671359598636627e-02,2.078117989003658295e-02,-3.013565577566623688e-02,-1.967809721827507019e-02,3.062702156603336334e-02,1.250447984784841537e-02,2.508169505745172501e-03,-7.578779943287372589e-03,-7.998747751116752625e-03,-3.379840031266212463e-02,2.067517116665840149e-02,2.613117918372154236e-02,2.250178530812263489e-02,2.376995049417018890e-02,-2.762093394994735718e-02,-1.860708184540271759e-02,-3.092421405017375946e-02,-8.662178181111812592e-03,-1.941815204918384552e-02,-1.774708367884159088e-02,-1.672460138797760010e-02,2.672030404210090637e-02,-5.176038946956396103e-03,-1.342983823269605637e-02,2.329869754612445831e-02,2.253569662570953369e-02,2.537103928625583649e-02,3.031677566468715668e-02,1.871128380298614502e-02,-1.970840618014335632e-03,6.623935420066118240e-03,-1.786536537110805511e-02,1.628618687391281128e-02,-1.982082612812519073e-02,-5.634535569697618484e-03,-4.931722301989793777e-03,-2.950473874807357788e-02,-1.910791546106338501e-02,-3.012415021657943726e-02,-9.563427418470382690e-03,-2.759542129933834076e-02,-3.396661952137947083e-02,9.895584546029567719e-03,1.429776754230260849e-02,3.068001754581928253e-02,1.600697077810764313e-02,-1.915247738361358643e-02,2.737467922270298004e-02,1.181241869926452637e-02,3.595520928502082825e-02,3.071857430040836334e-02,-2.958918921649456024e-03,-1.981770433485507965e-02,4.017576202750205994e-02,3.597122430801391602e-02,-2.914623916149139404e-02,-2.020867168903350830e-02,-2.941426448523998260e-02,-1.084785256534814835e-02,-3.523585200309753418e-02,-4.169709864072501659e-04,3.120213747024536133e-02,-1.959874667227268219e-02,-2.585722878575325012e-02,-7.235268130898475647e-03,1.698670908808708191e-02,1.791324093937873840e-02,-3.905879100784659386e-03,-1.755194365978240967e-02,3.150922805070877075e-02,-2.480330504477024078e-02,-7.479445077478885651e-03,4.246280062943696976e-03,-3.660763427615165710e-02,-1.413771603256464005e-02,-2.933779358863830566e-02,2.713635563850402832e-02,1.861885422840714455e-03,3.575777262449264526e-02,3.964654356241226196e-02,1.632354408502578735e-02,1.345434039831161499e-02,-3.477951511740684509e-03,3.311879187822341919e-02,1.501047611236572266e-02,2.224739827215671539e-02,2.358679659664630890e-02,-6.470889784395694733e-03,2.295261994004249573e-02,2.858855575323104858e-02,-2.916368423029780388e-03,2.757545933127403259e-02,2.806777879595756531e-02,3.866060823202133179e-02,-6.198434624820947647e-03,-1.599128171801567078e-02,-2.355047687888145447e-02,-3.416522592306137085e-02,9.577767923474311829e-03,-1.864423626102507114e-03,-3.292541205883026123e-02,-1.710877940058708191e-02,-3.921670839190483093e-02,-3.209254518151283264e-02,-3.003410995006561279e-02,-1.944916695356369019e-02,3.317109122872352600e-02,1.822979934513568878e-02,6.771568208932876587e-03,8.062178269028663635e-03,-4.025654867291450500e-03,2.021970041096210480e-02,2.925788983702659607e-02,-3.123644273728132248e-04,-1.534960418939590454e-02,-3.581416979432106018e-02,2.003023773431777954e-02,-4.936092067509889603e-03,1.509463042020797729e-02,-2.822016365826129913e-02,-2.153208106756210327e-02,1.904853992164134979e-02,1.131653971970081329e-02,1.050166320055723190e-02,-8.086255751550197601e-03,2.293197903782129288e-03,3.059509675949811935e-03,1.241665892302989960e-02,9.099927730858325958e-03,4.857120104134082794e-03,-1.516653690487146378e-03,-3.342967107892036438e-02,9.320336394011974335e-03,-2.952124923467636108e-02,-2.126267738640308380e-02,2.501310221850872040e-02,3.478807955980300903e-02,-2.752354554831981659e-02,-1.024952274747192860e-03,1.859016716480255127e-02,-2.629306912422180176e-02,-1.595113612711429596e-02,2.297293394804000854e-02,-8.230971172451972961e-03,3.108903393149375916e-02,5.321965552866458893e-03,-7.290595094673335552e-04,4.042229056358337402e-02,1.283335313200950623e-02,2.195031195878982544e-02,-2.587674185633659363e-02,-2.229227125644683838e-02,9.230246767401695251e-03,4.249085206538438797e-03,1.914858445525169373e-02,3.105698898434638977e-02,6.227572914212942123e-03,-1.267956383526325226e-02,-2.552855014801025391e-02,1.152388565242290497e-02,-1.446635834872722626e-02,-7.649057079106569290e-03,3.610918298363685608e-02,1.099294330924749374e-02,3.103852458298206329e-02,-2.790284156799316406e-02,-5.463889800012111664e-03,-7.858726195991039276e-03,2.007229439914226532e-02,2.234376408159732819e-02,-3.751644492149353027e-02,-1.743964152410626411e-03,-3.928305115550756454e-03,-1.225639041513204575e-02,3.072319552302360535e-02,-7.093376480042934418e-04,1.166407763957977295e-02,2.391892485320568085e-02,-7.885605096817016602e-03,2.977075614035129547e-02,-1.260854490101337433e-02,3.152441605925559998e-02,4.431814420968294144e-03,1.408027112483978271e-02,1.879662647843360901e-02,-1.932379230856895447e-02,-4.512545652687549591e-03,-6.345618749037384987e-05,2.459016442298889160e-02,2.723230980336666107e-02,9.591020643711090088e-03,2.635283209383487701e-02,2.470269240438938141e-02,-2.585452422499656677e-02,4.883767105638980865e-03,-2.331638894975185394e-02,2.301545627415180206e-02,9.969945065677165985e-03,1.583965867757797241e-02,-1.784697733819484711e-02,4.416340496391057968e-03,9.970879182219505310e-03,-3.796265926212072372e-03,7.166326511651277542e-03,-3.274429962038993835e-02,5.314236506819725037e-03,-1.020058616995811462e-02,1.957028731703758240e-02,3.550755977630615234e-02,2.898060530424118042e-02,-2.576705999672412872e-03,3.776482120156288147e-02,3.623174270614981651e-04,-2.903868630528450012e-02,6.900343112647533417e-03,-4.457147442735731602e-04,-2.482744120061397552e-02,-1.475482806563377380e-02,3.228307887911796570e-02,-6.549577694386243820e-03,3.400930017232894897e-02,-5.239091347903013229e-03,1.790459640324115753e-02,-3.137378767132759094e-02,-3.101032227277755737e-02,2.517608366906642914e-02,-1.774483360350131989e-02,-1.238643564283847809e-02,-3.521209955215454102e-02,6.251730956137180328e-03,-1.677289605140686035e-02,3.139889612793922424e-02,3.235976397991180420e-02,-8.486954495310783386e-03,2.277524955570697784e-02,2.812516503036022186e-02,2.700694650411605835e-02,8.440697565674781799e-03,-1.956313662230968475e-02,-3.031647764146327972e-03,-2.131843566894531250e-02,-1.891374588012695312e-03,-1.750826835632324219e-02,-3.871127590537071228e-02,-6.150775880087167025e-05,-2.697467431426048279e-02,1.480863709002733231e-02,-1.028007268905639648e-02,1.527186390012502670e-02,1.543603558093309402e-02,1.500916201621294022e-02,-3.022591583430767059e-02,1.397253386676311493e-02,2.816257253289222717e-02,-1.698298752307891846e-02,-3.059172071516513824e-03,-2.228168211877346039e-02,1.835604943335056305e-02,2.793702669441699982e-02,3.313169581815600395e-03,1.306553557515144348e-02,-2.889486402273178101e-02,-2.088539116084575653e-02,-3.597082942724227905e-02,-1.786247827112674713e-02,1.389259286224842072e-02,-1.411399571225047112e-03,2.235904149711132050e-02,2.540116198360919952e-02,3.310211002826690674e-02,2.831925451755523682e-02,2.746359631419181824e-02,1.726880297064781189e-02,2.657096087932586670e-02,2.353370934724807739e-02,3.959843306802213192e-04,-3.591957688331604004e-02,-1.358317956328392029e-02,-4.759753588587045670e-03,-1.759659498929977417e-02,8.782094344496726990e-03,7.400082889944314957e-03,-7.229922804981470108e-03,-1.013066433370113373e-02,1.839405484497547150e-02,-8.923443965613842010e-03,-1.963305519893765450e-03,-3.562746569514274597e-02,6.691092625260353088e-03,-2.898900024592876434e-02,1.053063757717609406e-02,-1.686475798487663269e-02,3.659294173121452332e-02,2.632389776408672333e-02,4.808475263416767120e-03,-6.820914801210165024e-03,-2.983381599187850952e-02,-3.883034922182559967e-03,-1.355275977402925491e-02,-9.573672898113727570e-03,-1.489397720433771610e-03,1.993447169661521912e-02,-1.770311268046498299e-03,1.130307652056217194e-02,1.609981618821620941e-02,-1.646519452333450317e-02,-3.784549236297607422e-02,-3.726893663406372070e-02,-2.353210002183914185e-04,-8.707743138074874878e-03,-3.194726887159049511e-04,-4.126387648284435272e-03,1.074178330600261688e-02,2.032430469989776611e-02,9.289031848311424255e-03,5.025973077863454819e-03,2.427788637578487396e-02,-3.010050021111965179e-02,2.583015151321887970e-02,6.664652377367019653e-03,-2.598026953637599945e-02,2.135798335075378418e-02,-2.830443158745765686e-02,2.201535925269126892e-02,-2.517923153936862946e-02,-3.640083130449056625e-03,2.923700958490371704e-02,1.028180960565805435e-02,-3.177794395014643669e-03,3.834607824683189392e-02,-1.108933798968791962e-02,-1.375211169943213463e-03,2.495936583727598190e-03,-1.081133261322975159e-02,2.152450382709503174e-02,8.614666759967803955e-03,9.275978431105613708e-03,-5.625889170914888382e-03,-1.717731356620788574e-02,-2.969996305182576180e-03,-2.468857169151306152e-02,1.728199049830436707e-02,2.300731092691421509e-02,-3.640992566943168640e-02,-1.941099390387535095e-02,-3.103808686137199402e-02,2.509094215929508209e-02,-2.238547429442405701e-02,1.056942250579595566e-02,-3.061097115278244019e-02,9.354786947369575500e-03,2.153630740940570831e-02,8.705945219844579697e-05,-6.288539618253707886e-03,1.401920057833194733e-02,-1.953539997339248657e-02,-3.106925636529922485e-02,-1.336265169084072113e-02,2.983318641781806946e-03,-2.661249600350856781e-02,-2.967762388288974762e-02,3.584743663668632507e-02,-6.873140810057520866e-04,-3.258706536144018173e-03,-1.631012931466102600e-02,-1.081019360572099686e-02,-1.356911659240722656e-02,1.395119447261095047e-02,3.055562078952789307e-02,-2.310909563675522804e-03,3.485898673534393311e-02,2.797892130911350250e-02,-1.806416176259517670e-02,7.075872272253036499e-03,5.212669726461172104e-03,-2.992104925215244293e-02,-2.778367325663566589e-02,3.737124055624008179e-02,-2.532787621021270752e-02,1.026413962244987488e-02,1.553519070148468018e-02,1.303291600197553635e-02,-8.425817824900150299e-03,-2.500233054161071777e-02,9.112631902098655701e-03,-2.871164306998252869e-02,1.639342866837978363e-02,-1.113142166286706924e-02,1.380089204758405685e-02,-4.419659264385700226e-03,-2.364435605704784393e-02,-2.137354202568531036e-02,-1.507845800369977951e-02,-3.722451394423842430e-03,-3.083780407905578613e-02,1.374380383640527725e-02,3.370418772101402283e-02,1.939751952886581421e-02,8.369743824005126953e-03,2.924033254384994507e-02,2.033577859401702881e-02,1.104372180998325348e-02,-2.349977195262908936e-02,1.902940683066844940e-02,-3.142252936959266663e-02,1.729406416416168213e-02,-2.316350862383842468e-02,-1.625190116465091705e-02,2.493165060877799988e-02,-3.513976186513900757e-02,-1.715095713734626770e-02,-1.337558496743440628e-02,-3.318927437067031860e-02,3.575896844267845154e-02,1.848965138196945190e-02,1.452440209686756134e-02,2.921283058822154999e-02,-1.277679949998855591e-02,-1.343282591551542282e-02,-1.419234275817871094e-02,-2.734061889350414276e-02,-2.084672078490257263e-02,-1.585608348250389099e-02,1.483020489104092121e-03,-3.024257905781269073e-02,-1.266665477305650711e-02,-2.959660068154335022e-02,-4.417456220835447311e-03,-2.750341221690177917e-02,2.325798384845256805e-02,-3.399676457047462463e-02,2.328878454864025116e-02,-1.046109851449728012e-02,-6.397723685950040817e-03,2.449231036007404327e-02,2.715420164167881012e-02,-3.822397673502564430e-03,-5.979508161544799805e-03,1.718612015247344971e-02,9.558225050568580627e-03,-2.046924456954002380e-02,-3.988834796473383904e-04,-1.353813335299491882e-03,3.401843085885047913e-02,-3.078375593759119511e-04,-2.264656312763690948e-02,-2.947007305920124054e-02,-2.698370628058910370e-02,2.023302763700485229e-02,9.429645724594593048e-03,-6.452080793678760529e-03,1.060487516224384308e-02,-2.508626086637377739e-03,1.304051000624895096e-02,2.128612063825130463e-02,-3.033342771232128143e-02,-1.470972597599029541e-02,-2.748794294893741608e-02,2.085218438878655434e-03,-5.085969343781471252e-03,-8.585550822317600250e-04,-6.970666814595460892e-03,-2.418382093310356140e-02,-1.665420271456241608e-02,-3.895189240574836731e-02,1.682898029685020447e-02,-3.107298165559768677e-02,-9.295707568526268005e-03,2.028274163603782654e-02,-1.533214189112186432e-02,3.082949854433536530e-02,8.385778404772281647e-03,2.190579660236835480e-02,2.208411321043968201e-02,-2.524424158036708832e-02,-2.181185781955718994e-02,-3.073456138372421265e-02,-1.446485752239823341e-03,1.252041198313236237e-02,2.813196927309036255e-02,-2.967833355069160461e-02,-1.783644035458564758e-02,2.574376203119754791e-02,-1.245148363523185253e-03,-2.567677013576030731e-02,1.969848759472370148e-03,3.872654400765895844e-03,2.899607270956039429e-02,2.973097562789916992e-02,-2.992518991231918335e-02,2.618247270584106445e-02,2.339568361639976501e-02,2.344422973692417145e-02,2.538627944886684418e-02,-3.937441855669021606e-02,-1.307629141956567764e-02,2.026424370706081390e-02,1.787397824227809906e-02,2.519969455897808075e-02,2.536388859152793884e-02,-2.221988700330257416e-02,-4.372747149318456650e-03,4.175273701548576355e-03,1.912917941808700562e-02,6.095042917877435684e-03,2.844859473407268524e-02,-3.246454149484634399e-02,1.529824803583323956e-03,2.472926303744316101e-02,-1.015957794152200222e-03,-1.273132394999265671e-02,2.920515462756156921e-02,-3.800185630097985268e-03,-1.438570674508810043e-02,3.853672184050083160e-03,2.760911174118518829e-02,1.986931078135967255e-03,2.202332578599452972e-02,1.747047528624534607e-02,1.936837472021579742e-02,1.560768671333789825e-02,-4.598421044647693634e-03,3.101705759763717651e-02,1.787979342043399811e-02,-1.274194102734327316e-03,5.786942783743143082e-03,-1.003805268555879593e-02,6.138466298580169678e-03,-2.157550118863582611e-02,3.658500313758850098e-02,3.740853164345026016e-03,-1.751540414988994598e-02,2.010620385408401489e-02,1.952532120048999786e-02,2.873659832403063774e-03,-1.769636757671833038e-03,2.551232278347015381e-02,1.244223583489656448e-02,-2.915142104029655457e-02,-1.661518961191177368e-02,3.605875000357627869e-02,9.411825798451900482e-03,1.114885695278644562e-02,8.929206524044275284e-04,6.553679239004850388e-03,-2.660918049514293671e-02,-1.936392299830913544e-02,1.994444802403450012e-02,-1.991987414658069611e-02,-1.860545389354228973e-02,-1.003005914390087128e-02,3.221887722611427307e-02,2.710552513599395752e-02,-2.602547034621238708e-02,2.273786626756191254e-02,-1.245997659862041473e-02,1.917244307696819305e-02,-2.378412708640098572e-02,-3.891255473718047142e-03,2.447251975536346436e-02,1.755262166261672974e-02,-2.112942002713680267e-02,-2.540695294737815857e-02,2.803998440504074097e-02,6.416589021682739258e-03,1.659513451159000397e-03,-1.080112345516681671e-02,3.209200501441955566e-02,-2.288636378943920135e-02,3.347650170326232910e-02,3.972559422254562378e-02,1.361751276999711990e-02,1.122047938406467438e-02,-7.719776593148708344e-03,-3.263638541102409363e-02,1.948022842407226562e-02,-5.341001320630311966e-03,-3.246663883328437805e-02,8.651538752019405365e-03,-9.243062697350978851e-03,-1.114336587488651276e-02,-1.802192069590091705e-02,3.361347317695617676e-02,-2.638786286115646362e-02,2.661622501909732819e-02,-2.614900236949324608e-03,-2.207830362021923065e-02,2.906295098364353180e-02,2.353612147271633148e-02,-1.921987347304821014e-02,4.004903137683868408e-02,3.569569066166877747e-02,1.246071886271238327e-02,-2.947146072983741760e-02,3.688643872737884521e-02,-2.144519984722137451e-02,-2.095939032733440399e-02,-1.110532321035861969e-02,2.015220187604427338e-02,4.068739339709281921e-02,-2.705965936183929443e-02,3.962719812989234924e-02,3.450538218021392822e-02,-1.432819012552499771e-02,2.936947904527187347e-02,1.828507147729396820e-02,-3.563978523015975952e-02,2.958956547081470490e-02,8.144315332174301147e-03
1.126112323254346848e-02,-2.059252373874187469e-02,-2.980991452932357788e-02,-1.279682852327823639e-02,-2.243074961006641388e-02,-1.352106779813766479e-02,-1.961848698556423187e-03,-1.078881602734327316e-02,-1.639782264828681946e-02,-3.615834983065724373e-03,9.428944322280585766e-04,3.282874822616577148e-02,-2.129087410867214203e-02,-1.158541440963745117e-02,3.244816511869430542e-02,6.400370504707098007e-03,-3.111438453197479248e-02,1.580538600683212280e-02,-2.848860807716846466e-02,8.797356858849525452e-03,1.036369800567626953e-02,-1.097149588167667389e-02,-1.767951250076293945e-02,9.175999090075492859e-03,2.831498719751834869e-02,3.140997141599655151e-02,-1.202723826281726360e-03,5.615026224404573441e-03,-2.837105840444564819e-02,1.555653195828199387e-02,-3.360954672098159790e-02,3.353660181164741516e-02,1.156825572252273560e-02,-2.116306871175765991e-02,4.014775156974792480e-03,2.480648644268512726e-02,2.735276520252227783e-02,-1.750259660184383392e-02,5.154924467206001282e-03,7.138076703995466232e-03,9.046932682394981384e-03,2.022862806916236877e-02,1.074258983135223389e-02,3.467729315161705017e-03,-4.560275003314018250e-03,-1.217002701014280319e-02,-2.797773852944374084e-02,-2.951677702367305756e-02,4.027667269110679626e-02,1.321752369403839111e-02,1.558809308335185051e-04,-1.235920237377285957e-03,-7.533495314419269562e-03,2.878099866211414337e-02,3.566275537014007568e-02,-2.527495473623275757e-02,4.275228362530469894e-03,-1.492608059197664261e-02,-3.127437829971313477e-02,-9.927052073180675507e-03,3.353313356637954712e-02,3.760875016450881958e-02,2.634015679359436035e-02,3.527017310261726379e-02,1.568236388266086578e-02,2.817204967141151428e-02,1.621714048087596893e-02,-9.633313864469528198e-03,2.891810797154903412e-02,-2.516184933483600616e-02,1.164188701659440994e-02,1.388159394264221191e-02,3.035814315080642700e-02,1.595089025795459747e-02,-1.071804389357566833e-02,-2.216547168791294098e-02,-5.789446178823709488e-03,-2.213117666542530060e-02,-1.243105996400117874e-02,-1.137308217585086823e-02,1.956455409526824951e-03,-2.208364196121692657e-03,5.443373229354619980e-03,6.952635012567043304e-03,1.728278398513793945e-02,-2.229120954871177673e-02,-9.378226473927497864e-03,7.070698775351047516e-03,-2.242073416709899902e-02,4.829910583794116974e-03,1.173469587229192257e-03,-6.654839497059583664e-03,2.652142196893692017e-02,3.745812550187110901e-02,-1.237707771360874176e-02,-9.447247721254825592e-03,-2.039502561092376709e-02,1.170017174445092678e-03,-1.308080367743968964e-02,-9.913510642945766449e-03,1.092814025469124317e-03,-2.864875458180904388e-02,-2.162828110158443451e-03,-2.979839779436588287e-02,4.016217589378356934e-02,2.854088693857192993e-02,1.914005354046821594e-02,-2.995963580906391144e-02,1.447450555860996246e-02,2.082896791398525238e-02,-5.238582380115985870e-03,2.317289821803569794e-02,-1.148552168160676956e-02,2.477836795151233673e-02,-1.150370016694068909e-02,1.602079533040523529e-02,-2.872429415583610535e-02,-1.905246078968048096e-02,3.667916357517242432e-02,-1.431638933718204498e-02,-1.058559678494930267e-02,-6.025396287441253662e-03,-2.622716873884201050e-02,-2.266471832990646362e-02,-1.901176990941166878e-03,2.701876498758792877e-02,-3.840657416731119156e-03,4.932778887450695038e-03,3.776343911886215210e-02,6.288796663284301758e-03,-2.028283104300498962e-02,-2.614761330187320709e-02,1.471542287617921829e-02,1.734283380210399628e-02,-2.136774733662605286e-02,2.683880925178527832e-02,3.671975061297416687e-02,1.176277548074722290e-02,-6.144754588603973389e-03,1.224857289344072342e-03,3.806288819760084152e-03,1.912837848067283630e-02,2.648401446640491486e-02,6.186906248331069946e-03,3.675310686230659485e-02,-1.603578450158238411e-03,-1.457433961331844330e-02,-1.628674566745758057e-03,1.157467998564243317e-02,-5.466191563755273819e-03,-5.318224895745515823e-03,6.280711386352777481e-03,-1.939387433230876923e-02,2.222146838903427124e-02,8.065229281783103943e-03,-2.577925845980644226e-02,-1.583004370331764221e-03,-1.307136006653308868e-02,-1.314514037221670151e-02,1.314631011337041855e-02,1.153412461280822754e-02,1.007889863103628159e-03,2.211929671466350555e-02,-7.530500879511237144e-04,-1.100007630884647369e-02,-6.331900134682655334e-03,-1.393673755228519440e-02,2.831666730344295502e-02,1.601556502282619476e-02,-1.415655296295881271e-02,3.281055390834808350e-02,-2.871633693575859070e-02,8.158303797245025635e-03,2.442043274641036987e-02,3.307460620999336243e-02,1.247637066990137100e-02,-1.743456907570362091e-02,5.372137762606143951e-03,1.987041346728801727e-02,-1.321557257324457169e-02,2.949643880128860474e-03,-1.921424083411693573e-02,-5.226129433140158653e-04,1.966299861669540405e-02,-4.206871381029486656e-04,-2.807655371725559235e-02,-2.668288350105285645e-02,2.106634527444839478e-02,-2.892716787755489349e-02,3.195592761039733887e-02,4.061084240674972534e-03,-2.961980737745761871e-02,3.281249850988388062e-02,1.848932914435863495e-02,2.053954638540744781e-02,-3.317949594929814339e-03,1.905387639999389648e-02,1.488526631146669388e-02,9.428838966414332390e-04,3.370742313563823700e-03,-2.948017208836972713e-04,3.999051079154014587e-02,2.742340229451656342e-02,3.774584457278251648e-02,-4.549002740532159805e-03,-1.050004735589027405e-02,2.878662385046482086e-02,1.066935248672962189e-02,1.292859436944127083e-03,2.077229134738445282e-02,-1.919100526720285416e-03,1.333019882440567017e-02,1.811158284544944763e-02,4.593208432197570801e-03,3.167477622628211975e-02,-2.628614939749240875e-02,2.900302782654762268e-02,-2.407198026776313782e-02,-2.755867876112461090e-02,3.064093366265296936e-02,-1.314490009099245071e-02,5.448889918625354767e-03,-2.686043828725814819e-02,3.716348856687545776e-02,3.030081652104854584e-02,-2.523005381226539612e-02,-3.982295840978622437e-02,2.253834530711174011e-02,1.971797086298465729e-02,1.380200032144784927e-02,3.320936486124992371e-02,-2.072517946362495422e-02,3.334372863173484802e-02,1.951446570456027985e-02,-1.758482865989208221e-02,1.960239559412002563e-02,-7.878793403506278992e-03,1.136092003434896469e-03,4.394209943711757660e-03,-3.110971488058567047e-02,-8.672461844980716705e-03,1.347597804851830006e-03,-2.649390697479248047e-02,1.580839790403842926e-02,-3.662818670272827148e-02,-1.139813940972089767e-02,-6.712284870445728302e-03,-9.491648524999618530e-03,-1.253713574260473251e-02,2.781751565635204315e-02,2.059846930205821991e-02,2.929040044546127319e-02,-6.294616032391786575e-03,-6.051748525351285934e-03,-3.632454201579093933e-02,-2.643864601850509644e-02,-3.713351488113403320e-02,-1.101868785917758942e-02,-1.900883391499519348e-02,-1.431843545287847519e-02,2.542987279593944550e-02,9.063684381544589996e-03,2.561809495091438293e-02,2.862381935119628906e-02,3.377944603562355042e-02,-3.051871433854103088e-03,-3.696768358349800110e-02,-1.721166633069515228e-02,-3.271533548831939697e-02,-3.330547362565994263e-02,-3.876623138785362244e-02,2.768179774284362793e-02,5.294550675898790359e-03,-3.046126849949359894e-02,-1.215110532939434052e-02,1.983353309333324432e-02,3.636368736624717712e-02,3.419940173625946045e-02,-1.550178788602352142e-02,2.221440523862838745e-02,-2.692465856671333313e-02,-3.222964331507682800e-02,2.335370518267154694e-04,-9.724825504235923290e-04,-1.128154247999191284e-02,1.091492176055908203e-02,2.326132170855998993e-02,-2.264625206589698792e-02,-8.909438736736774445e-03,-2.995818108320236206e-02,-1.423445250838994980e-02,2.517438679933547974e-02,2.705676108598709106e-02,-2.779946662485599518e-02,1.108636241406202316e-02,-6.252983119338750839e-03,2.601427771151065826e-02,3.103595040738582611e-02,1.519966404885053635e-02,1.899529993534088135e-02,-3.250843659043312073e-02,-1.462815143167972565e-02,2.177500724792480469e-02,-4.520236980170011520e-03,2.670464292168617249e-02,2.045709406957030296e-03,1.089489646255970001e-02,-2.336685173213481903e-02,1.599307358264923096e-02,2.372931456193327904e-03,-5.194398690946400166e-04,-5.951493047177791595e-03,-6.559560075402259827e-03,1.989359967410564423e-03,-1.889265328645706177e-02,-1.365686021745204926e-02,6.672169081866741180e-03,-1.663051731884479523e-02,-3.347628936171531677e-02,2.834762819111347198e-02,-1.425603497773408890e-02,2.883153222501277924e-02,1.149259787052869797e-02,3.475431818515062332e-03,3.005154244601726532e-02,-3.600276261568069458e-02,-4.806159413419663906e-04,-5.627156235277652740e-03,1.547506731003522873e-02,9.054751135408878326e-03,2.120585739612579346e-02,2.470384724438190460e-02,-2.359858714044094086e-02,8.131786249577999115e-03,1.379341445863246918e-02,-1.690802164375782013e-02,2.887248992919921875e-04,2.069365978240966797e-02,3.528470406308770180e-03,-2.893242612481117249e-02,-1.623282395303249359e-02,1.504865381866693497e-02,-3.456173464655876160e-02,1.004956662654876709e-02,-2.385533973574638367e-02,-6.670906674116849899e-03,1.028146035969257355e-02,-1.203784812241792679e-02,-1.851429697126150131e-04,2.134615182876586914e-02,-2.966424264013767242e-02,5.222498904913663864e-03,-3.023723140358924866e-02,-2.286088652908802032e-03,1.390143204480409622e-02,-7.829437963664531708e-04,1.169253978878259659e-02,-1.625763066112995148e-02,1.172980666160583496e-02,1.303996052592992783e-02,-2.390403673052787781e-02,3.866878151893615723e-02,-2.486094273626804352e-02,8.074088022112846375e-03,-2.989120408892631531e-02,-2.790053188800811768e-02,1.072020735591650009e-03,1.120402663946151733e-02,-2.606590650975704193e-02,2.960781939327716827e-02,-3.150883316993713379e-02,-1.660778932273387909e-02,-3.025928884744644165e-02,-4.151131957769393921e-03,1.101953443139791489e-02,-2.612728066742420197e-02,1.478764601051807404e-02,-2.635711058974266052e-02,-2.844896167516708374e-02,-4.021392669528722763e-03,9.116539731621742249e-03,1.309293904341757298e-03,-4.916989244520664215e-03,4.557720385491847992e-03,-1.185093261301517487e-02,-2.139715291559696198e-02,2.876865863800048828e-02,2.599209547042846680e-02,-3.604918718338012695e-02,2.657140791416168213e-02,3.605919331312179565e-02,8.691436611115932465e-03,-1.562727801501750946e-02,1.924177748151123524e-03,2.577040158212184906e-02,-8.398817852139472961e-03,2.444144897162914276e-02,-2.957878820598125458e-02,-2.639967389404773712e-02,-7.403416093438863754e-03,3.033660585060715675e-03,7.935672998428344727e-03,-1.589426398277282715e-02,-1.181939500384032726e-03,1.873640716075897217e-02,-2.383994869887828827e-02,3.422544524073600769e-02,2.101704105734825134e-02,-1.735181920230388641e-02,-2.039529010653495789e-02,-1.393793430179357529e-02,-9.479103609919548035e-04,-1.824584417045116425e-02,9.666150435805320740e-03,3.050483996048569679e-03,-3.235307708382606506e-02,-3.937424719333648682e-02,1.503348164260387421e-02,-1.966305077075958252e-02,-1.419193856418132782e-02,2.344492636620998383e-02,1.062568183988332748e-02,2.227186411619186401e-02,-2.132579311728477478e-02,1.200731378048658371e-03,-2.191435173153877258e-02,1.172010321170091629e-02,2.114005945622920990e-02,1.359088253229856491e-02,-1.787501014769077301e-02,2.679243125021457672e-02,1.888611540198326111e-02,-7.826008833944797516e-03,-1.907517551444470882e-03,3.109572827816009521e-02,2.131648920476436615e-02,6.862195208668708801e-03,-2.560478169471025467e-03,-5.338586401194334030e-03,9.391080588102340698e-03,1.793451979756355286e-02,1.147980708628892899e-02,-3.605185821652412415e-02,-2.304757200181484222e-02,-3.126646205782890320e-02,2.889071963727474213e-02,1.865846104919910431e-03,2.083369530737400055e-02,2.289258316159248352e-02,-2.560287155210971832e-02,2.370172366499900818e-02,-1.425732951611280441e-02,4.666733439080417156e-04,2.127786166965961456e-02,-3.882768005132675171e-02,2.276812493801116943e-02,-1.996638253331184387e-02,-3.333966061472892761e-02,1.965859904885292053e-02,-1.467773225158452988e-02,3.073630854487419128e-02,3.088440559804439545e-02,8.839287795126438141e-03,-1.439439505338668823e-02,-1.854609511792659760e-02,2.932232990860939026e-02,2.404239587485790253e-02,-2.204792946577072144e-02,-2.439389564096927643e-02,3.744161128997802734e-02,5.357586778700351715e-03,1.743503287434577942e-02,-2.987854555249214172e-02,6.489553488790988922e-03,1.208891742862761021e-03,1.656438969075679779e-02,2.121365256607532501e-02,-2.612194418907165527e-02,-2.801952883601188660e-02,5.148631054908037186e-03,2.521726861596107483e-02,-3.555737435817718506e-02,2.957144752144813538e-02,-2.355808578431606293e-02,-8.256314322352409363e-04,4.145846702158451080e-03,1.975746452808380127e-02,-6.754887290298938751e-03,3.743219375610351562e-02,1.014011818915605545e-02,1.709490641951560974e-02,-2.193943131715059280e-03,-7.566372863948345184e-03,-4.132405389100313187e-03,3.789742290973663330e-02,3.148898109793663025e-02,9.514517150819301605e-04,-2.994641847908496857e-02,-2.577132172882556915e-02,4.011468589305877686e-02,-7.136608473956584930e-03,-8.942078799009323120e-03,-5.189122632145881653e-03,-5.318730138242244720e-03,-3.512039780616760254e-02,-1.027430314570665359e-02,-1.842229277826845646e-03,-1.778470911085605621e-02,-2.549815364181995392e-02,-1.697674393653869629e-03,-1.090238336473703384e-02,2.647240273654460907e-02,3.908298537135124207e-02,-2.316937036812305450e-02,-2.595659904181957245e-02,-2.764501236379146576e-02,-8.759668096899986267e-03,-1.959976367652416229e-02,1.000647619366645813e-02,-5.070960149168968201e-03,-5.451254080981016159e-03,-2.135954238474369049e-02,-1.441560126841068268e-02,3.544934839010238647e-02,-2.650163695216178894e-02,8.532991632819175720e-03,3.215464204549789429e-02,-2.337888441979885101e-02,-2.112054452300071716e-02,7.509729359298944473e-03,-3.306581638753414154e-03,3.465761244297027588e-02,-2.477398142218589783e-02,1.658172719180583954e-02,9.279174730181694031e-03,-1.873635128140449524e-02,3.614933043718338013e-02,-7.083149626851081848e-03,1.477570459246635437e-02,-1.060476619750261307e-02,4.070625081658363342e-02,2.585961483418941498e-02,-4.990755580365657806e-03,3.499235585331916809e-02,1.675946870818734169e-03,3.166871517896652222e-02,-7.658730726689100266e-03,-2.099280990660190582e-02,-2.770994976162910461e-02,-2.098672650754451752e-02,-6.133805960416793823e-03,2.545923180878162384e-02,-6.348318886011838913e-03,-1.890022074803709984e-03,3.180288150906562805e-02,3.944792225956916809e-02,1.153978798538446426e-02,-2.826884761452674866e-02,-1.906914263963699341e-02,-3.163557127118110657e-02,3.570249304175376892e-02,-3.865715488791465759e-02,1.942366547882556915e-02,1.177497673779726028e-02,1.987440139055252075e-02,-9.896239265799522400e-03,2.640365809202194214e-02,-2.157295681536197662e-02,-2.239687927067279816e-02,1.473698392510414124e-02,2.003216557204723358e-02,1.022381428629159927e-02,-2.953334525227546692e-02,2.353033609688282013e-02,2.908166497945785522e-02,3.550242260098457336e-02,-2.210220694541931152e-02,1.619632355868816376e-02,-2.904179319739341736e-02,-1.497229211963713169e-03,3.013025596737861633e-02,-1.661169156432151794e-02,2.939357608556747437e-02,-8.501280099153518677e-03,-2.544182911515235901e-02,2.445672079920768738e-02,3.871394693851470947e-02,1.059745531529188156e-02,-2.340460009872913361e-02,1.236227247864007950e-02,-1.742178387939929962e-02,-2.581643871963024139e-02,-7.205474190413951874e-03,4.015142098069190979e-02,-3.058453090488910675e-02,3.271896392107009888e-02,-2.336574718356132507e-02,-1.362500153481960297e-02,1.328270137310028076e-02,-5.275037139654159546e-03,3.770740702748298645e-02,-2.424842119216918945e-02,1.363619137555360794e-02,2.126792445778846741e-02,3.500130027532577515e-02,8.484574034810066223e-03,1.249323133379220963e-02,3.619847819209098816e-02,9.691631421446800232e-03,-4.863295704126358032e-03,1.158446911722421646e-02,2.572347968816757202e-02,3.390587493777275085e-02,3.167869988828897476e-03,3.081756457686424255e-02,1.073490362614393234e-02,1.462591346353292465e-02,-3.813839331269264221e-02,3.610671311616897583e-02,-9.824815206229686737e-03,3.536903113126754761e-02,-1.314760744571685791e-02,-9.784137830138206482e-03,3.653037548065185547e-02,3.045334666967391968e-02,1.366312894970178604e-02,4.606011789292097092e-04,1.083275210112333298e-02,6.897418294101953506e-03,3.047082014381885529e-02,-3.078308701515197754e-02,-4.027519607916474342e-04,2.062561362981796265e-02,2.282600291073322296e-02,3.943964093923568726e-02,-4.240739159286022186e-03,2.492839656770229340e-02,-1.634194399230182171e-03,3.014753945171833038e-02,-2.325733006000518799e-02,-2.488297782838344574e-02,2.009044960141181946e-02,5.664086434990167618e-03,2.965278364717960358e-02,2.969832718372344971e-02,-7.390844170004129410e-03,3.507452085614204407e-02,2.258276753127574921e-02,1.234219316393136978e-02,-1.180334389209747314e-02,-8.741041645407676697e-03,2.566863037645816803e-02,3.373772278428077698e-02,1.249122247099876404e-02,-3.004880808293819427e-02,1.627889834344387054e-02,-2.385408058762550354e-02,2.175050787627696991e-02,-1.985462382435798645e-02,-3.332220762968063354e-02,1.178236119449138641e-02,-2.634457126259803772e-02,-2.458610944449901581e-02,-2.146097458899021149e-02,2.145683765411376953e-02,-2.206875570118427277e-02,1.945335604250431061e-02,1.487119216471910477e-02,-2.522663027048110962e-02,2.354437485337257385e-02,1.549204438924789429e-02,-2.290193550288677216e-02,5.063146352767944336e-03,-1.363540161401033401e-02,-6.739072035998106003e-03,3.730517625808715820e-02,6.646295543760061264e-03,2.379094064235687256e-02,3.003110177814960480e-02,-1.215406320989131927e-02,-8.150147274136543274e-03,-5.287953186780214310e-03,-2.581987157464027405e-02,2.125950530171394348e-02,1.172374002635478973e-03,1.905540376901626587e-02,1.278826966881752014e-02,-1.420837640762329102e-02,2.308729849755764008e-02,2.900075400248169899e-03,-1.277926843613386154e-02,2.635022625327110291e-02,-3.272105753421783447e-02,1.223666314035654068e-02,1.210696063935756683e-02,-3.491115197539329529e-02,-9.191837161779403687e-03,5.049839615821838379e-03,-3.480662591755390167e-03,-9.868699125945568085e-03,3.256585076451301575e-02,5.234892945736646652e-03,3.001010417938232422e-02,2.474850602447986603e-02,-1.598584838211536407e-02,-6.468551699072122574e-03,-2.173469588160514832e-02,6.150423549115657806e-03,1.798862777650356293e-02,-3.056883066892623901e-02,-3.094767220318317413e-02,2.984256297349929810e-02,1.223187195137143135e-03,-9.327168576419353485e-03,-2.315209247171878815e-02,-3.790331259369850159e-02,-3.600789606571197510e-02,-3.289679810404777527e-02,-2.248272486031055450e-02,2.956688962876796722e-02,1.360726635903120041e-02,-2.036287449300289154e-02,-3.119466826319694519e-02,-2.243890799582004547e-02,-3.799234703183174133e-02,2.468502707779407501e-02,-2.086902409791946411e-02,2.907701581716537476e-02,2.022345177829265594e-02,3.461825102567672729e-02,9.017608128488063812e-03,2.804597280919551849e-02,-2.863380685448646545e-02,-3.706295415759086609e-02,-3.330418094992637634e-02,-2.840466424822807312e-02,-6.798452232033014297e-04,2.364377304911613464e-02,1.254851184785366058e-02,-3.018022980540990829e-03,2.165081724524497986e-02,-2.637776732444763184e-02,-3.126302734017372131e-02,3.308996558189392090e-03,2.654051966965198517e-02,-8.791994303464889526e-03,9.858889505267143250e-03,1.002822909504175186e-02,1.894597522914409637e-02,-1.671433262526988983e-02,3.578395349904894829e-03,2.101946808397769928e-02,-1.497487165033817291e-02,2.324133738875389099e-02,1.150694116950035095e-02,2.303296886384487152e-02,1.817241311073303223e-02,1.336367242038249969e-02,-7.466814480721950531e-03,9.956526570022106171e-03,1.869585737586021423e-02,-5.275937728583812714e-03,-3.400483354926109314e-02,2.214701473712921143e-02,-3.385544568300247192e-02,-1.585787395015358925e-03,-3.548065200448036194e-02,1.372539065778255463e-02,6.471341475844383240e-03,1.802725158631801605e-02,2.315414883196353912e-02,9.078138507902622223e-03,2.950699254870414734e-02,-2.620367147028446198e-02,1.411651913076639175e-02,3.329616505652666092e-03,8.031591773033142090e-03,-2.540926821529865265e-02,6.373865529894828796e-03,-2.704627439379692078e-02,-3.070570528507232666e-02,2.470273710787296295e-02,-2.320966683328151703e-03,3.445153310894966125e-02
1.413031667470932007e-02,2.561697037890553474e-03,2.653925865888595581e-02,-2.501006796956062317e-02,-3.561750799417495728e-02,8.792153676040470600e-04,2.692255564033985138e-02,-1.876044832170009613e-02,-6.041782442480325699e-03,2.397315017879009247e-02,2.603287808597087860e-02,-2.513532293960452080e-03,3.204216063022613525e-02,3.388993442058563232e-02,-1.144682150334119797e-02,-1.065986137837171555e-02,-2.308907732367515564e-02,-2.096405811607837677e-02,-1.440416090190410614e-02,-1.507357694208621979e-02,-2.419077605009078979e-02,1.866986230015754700e-02,3.361793607473373413e-02,-2.486486546695232391e-02,1.368916500359773636e-02,3.551586344838142395e-02,1.783346012234687805e-02,-2.426680549979209900e-02,2.371407113969326019e-02,2.494824491441249847e-02,1.854081265628337860e-02,-3.436047583818435669e-02,3.571680560708045959e-02,-3.437207487877458334e-04,3.413405641913414001e-02,5.857231444679200649e-04,3.760784864425659180e-02,-2.124011516571044922e-02,-1.186880376189947128e-02,3.412263467907905579e-02,1.979686878621578217e-02,2.693068981170654297e-02,-1.804336346685886383e-02,2.697329968214035034e-02,3.717184066772460938e-02,1.758404262363910675e-02,1.697926037013530731e-02,-2.057214453816413879e-02,-1.230482198297977448e-02,1.366692874580621719e-02,3.290874511003494263e-02,-3.712185891345143318e-03,-2.558683976531028748e-02,2.816381677985191345e-02,-2.364472486078739166e-02,1.890241727232933044e-02,-3.482776880264282227e-02,-2.048131823539733887e-02,1.958361268043518066e-02,2.613968215882778168e-02,-9.558309800922870636e-03,4.506359342485666275e-03,-1.226247008889913559e-02,3.247630596160888672e-02,8.367754518985748291e-03,1.721063069999217987e-02,5.811009090393781662e-03,-2.185354568064212799e-02,-1.678676530718803406e-02,-1.221255213022232056e-02,1.501582190394401550e-02,-2.707200311124324799e-02,-1.345127355307340622e-02,1.494176452979445457e-03,2.844912745058536530e-02,1.198616344481706619e-03,-5.938936024904251099e-03,3.848424879834055901e-03,2.625561133027076721e-02,-1.771915145218372345e-02,-1.290353015065193176e-02,1.234064344316720963e-02,1.010563131421804428e-02,3.508829697966575623e-02,2.425942756235599518e-02,-8.548694662749767303e-03,-3.047286719083786011e-02,2.768923155963420868e-02,4.811992868781089783e-03,-1.166901551187038422e-02,3.529038652777671814e-02,4.761748481541872025e-03,-2.145159756764769554e-03,-2.802180312573909760e-02,-1.903937943279743195e-02,2.831548266112804413e-02,-3.710313886404037476e-02,-1.586666330695152283e-02,1.568309962749481201e-02,-1.319266669452190399e-02,2.475723251700401306e-02,2.500531263649463654e-02,-1.345042046159505844e-02,1.753280311822891235e-02,-3.460406139492988586e-02,-1.199715398252010345e-02,1.014787796884775162e-02,-7.478930056095123291e-04,-1.738907396793365479e-02,3.851472586393356323e-02,2.241447381675243378e-02,-2.967665158212184906e-02,-2.342406101524829865e-02,-1.002329681068658829e-02,-1.333705987781286240e-02,2.532518468797206879e-02,-1.743665710091590881e-02,-3.292670100927352905e-02,-1.666524820029735565e-02,2.416966855525970459e-02,2.112166397273540497e-02,-2.645213529467582703e-02,3.179682791233062744e-02,-1.753788813948631287e-02,1.958763413131237030e-02,-2.461010590195655823e-02,-3.377333981916308403e-03,-2.775998413562774658e-02,3.110229037702083588e-02,-4.211354069411754608e-03,-2.506291680037975311e-02,6.170872133225202560e-03,8.270620368421077728e-03,1.828436367213726044e-02,-3.868007659912109375e-02,3.416201844811439514e-02,1.750762388110160828e-02,3.769253194332122803e-02,-1.638193055987358093e-02,3.815774805843830109e-03,3.169409558176994324e-02,1.736171357333660126e-02,2.507209219038486481e-02,-1.383052952587604523e-02,2.526311203837394714e-02,-3.334394097328186035e-02,9.764976799488067627e-03,1.204783841967582703e-02,3.684297669678926468e-03,-1.902158185839653015e-02,1.467965450137853622e-02,-3.825589269399642944e-02,-1.223580911755561829e-03,9.522445499897003174e-03,1.238652318716049194e-02,-2.584230341017246246e-02,-3.682821616530418396e-02,-2.546552196145057678e-02,-3.077518194913864136e-03,2.680945023894309998e-02,2.580647356808185577e-03,-9.410979226231575012e-03,7.545059546828269958e-03,6.728378124535083771e-03,3.838736191391944885e-02,3.281023353338241577e-02,3.949905931949615479e-02,4.639658145606517792e-03,-5.235633812844753265e-03,1.463669724762439728e-02,2.400426194071769714e-02,-2.840448357164859772e-02,-9.845458902418613434e-03,-8.599517866969108582e-03,7.325110491365194321e-03,1.739106327295303345e-02,2.248970326036214828e-03,2.414938993752002716e-02,-3.902541473507881165e-02,-8.307341486215591431e-03,5.814731586724519730e-03,2.712437417358160019e-03,2.332195453345775604e-02,-2.437222748994827271e-02,-6.044628098607063293e-03,-3.514698147773742676e-02,2.038522437214851379e-02,2.068704180419445038e-02,1.679046824574470520e-02,2.587920799851417542e-02,-8.688885718584060669e-03,3.982100635766983032e-02,-2.016185969114303589e-02,3.618175536394119263e-02,-1.884867995977401733e-02,-2.424187771975994110e-02,3.044461086392402649e-02,4.848062060773372650e-03,3.903832286596298218e-02,-2.579769305884838104e-02,-3.503301739692687988e-02,-3.961432725191116333e-03,3.215111419558525085e-02,1.070340257138013840e-02,3.686943557113409042e-03,-3.355504572391510010e-02,-3.378504887223243713e-02,1.383825857192277908e-02,2.206980623304843903e-02,3.361164405941963196e-02,1.011841185390949249e-02,2.756611816585063934e-02,-1.481654774397611618e-02,1.049945410341024399e-02,1.955152954906225204e-03,-1.817792467772960663e-02,5.951361265033483505e-03,1.990139484405517578e-02,-2.545768767595291138e-02,1.175174303352832794e-02,-3.032200038433074951e-03,-2.027576416730880737e-02,-3.416014369577169418e-03,8.734118309803307056e-04,-8.338641375303268433e-03,3.543874248862266541e-02,2.001211792230606079e-02,-2.151565253734588623e-02,3.745966032147407532e-02,1.513223163783550262e-02,-2.027085050940513611e-02,-1.531288726255297661e-03,3.124679438769817352e-02,-2.712780050933361053e-02,2.216874249279499054e-02,3.475441783666610718e-02,1.125142350792884827e-02,1.271689543500542641e-03,2.997914701700210571e-02,-5.276477895677089691e-03,-2.073074132204055786e-02,1.923583075404167175e-02,2.886044234037399292e-02,1.723956875503063202e-02,1.405313983559608459e-02,-1.578772068023681641e-02,1.324549224227666855e-02,-1.559437997639179230e-02,1.168497465550899506e-02,-4.101021913811564445e-04,3.719813656061887741e-03,2.562883310019969940e-02,-1.258243061602115631e-02,-2.269211970269680023e-02,3.142876550555229187e-02,-2.478575520217418671e-02,3.661311045289039612e-02,1.333676557987928391e-02,-1.549006253480911255e-02,2.702206559479236603e-02,-1.390811055898666382e-02,-2.210896648466587067e-02,-5.266964435577392578e-03,-2.694940380752086639e-02,-1.376200467348098755e-02,-2.982296608388423920e-02,-2.593201957643032074e-02,3.248753398656845093e-02,1.481427811086177826e-02,2.008872292935848236e-02,2.661162614822387695e-02,2.063438761979341507e-03,-3.678161650896072388e-02,1.103952247649431229e-02,-1.164760533720254898e-02,1.153821684420108795e-02,-1.067927945405244827e-02,-6.617604754865169525e-03,1.046083308756351471e-02,1.758080907166004181e-02,-2.040932700037956238e-02,3.916248306632041931e-02,-6.430371664464473724e-03,3.732353914529085159e-03,2.227385714650154114e-02,1.600595004856586456e-02,1.545246038585901260e-02,2.418096549808979034e-02,3.669306263327598572e-02,2.609920874238014221e-02,-1.767358742654323578e-02,-4.927156493067741394e-03,-1.777345128357410431e-02,-9.685220196843147278e-03,3.174140583723783493e-03,2.594985254108905792e-02,1.035188697278499603e-02,-1.610342040657997131e-02,3.008317574858665466e-02,2.611165633425116539e-03,-1.659504696726799011e-02,-6.507187150418758392e-03,-3.006981499493122101e-02,-2.360795997083187103e-02,1.080656889826059341e-02,1.716448366641998291e-02,3.142878785729408264e-02,3.825207706540822983e-03,6.862705573439598083e-03,-2.111752703785896301e-02,-2.904656901955604553e-02,1.992781087756156921e-02,-1.216694712638854980e-02,-1.634501665830612183e-02,3.178712725639343262e-02,5.890244618058204651e-03,1.515825744718313217e-02,5.892287939786911011e-03,2.701422385871410370e-02,-1.278714556246995926e-02,-1.567414961755275726e-02,2.480574138462543488e-02,-3.831187263131141663e-03,-2.936714515089988708e-02,1.631898060441017151e-02,-3.848923137411475182e-03,-3.215615451335906982e-02,7.897037081420421600e-03,-1.812317594885826111e-02,-2.567665837705135345e-02,1.129653025418519974e-02,-2.928292192518711090e-02,-3.566901013255119324e-02,2.275899052619934082e-02,1.003050338476896286e-02,-6.525420583784580231e-03,2.232496999204158783e-02,3.148350398987531662e-03,-1.624476909637451172e-02,1.554504386149346828e-03,-1.499072089791297913e-02,1.797821745276451111e-02,-5.834858398884534836e-03,1.805547997355461121e-02,-2.405815571546554565e-02,2.348837256431579590e-02,-1.022538542747497559e-02,-2.905808202922344208e-02,-3.082296065986156464e-02,3.031575307250022888e-02,-2.868319489061832428e-02,2.950612688437104225e-04,1.014897692948579788e-02,4.958020523190498352e-03,-1.270237471908330917e-02,-3.445656225085258484e-02,1.881392486393451691e-02,-3.237346559762954712e-02,2.376979030668735504e-02,9.511133655905723572e-03,-7.480096537619829178e-03,-1.715167611837387085e-02,2.356595732271671295e-02,2.166641317307949066e-02,-2.150272205471992493e-02,1.453695539385080338e-02,3.388768807053565979e-02,3.365293890237808228e-02,-2.323472499847412109e-02,3.056667558848857880e-02,1.720788702368736267e-02,1.397346705198287964e-02,-2.872666530311107635e-02,2.343160659074783325e-02,1.889482326805591583e-02,5.506663583219051361e-03,-2.567831799387931824e-02,2.555470541119575500e-02,-3.334115818142890930e-02,-3.062274120748043060e-02,-7.289495784789323807e-03,2.914283797144889832e-02,3.116312250494956970e-02,2.068825997412204742e-02,-3.600973635911941528e-02,1.313679665327072144e-02,-3.909556195139884949e-02,2.125329338014125824e-02,2.110031619668006897e-02,-1.503757946193218231e-02,-2.869101054966449738e-02,-1.251791231334209442e-02,1.038171909749507904e-02,1.672713831067085266e-02,-6.610029842704534531e-03,5.938555113971233368e-03,1.612929627299308777e-02,2.247491851449012756e-02,-5.005834973417222500e-04,-2.342864684760570526e-02,-2.996629476547241211e-02,2.070001140236854553e-02,1.747039146721363068e-03,-3.415136784315109253e-02,-3.604399412870407104e-02,-2.256226539611816406e-02,2.936759218573570251e-02,-3.307045623660087585e-02,1.936575584113597870e-02,3.189061954617500305e-02,-2.323459833860397339e-03,2.751663140952587128e-02,-1.322973053902387619e-02,-1.320455595850944519e-02,2.359371446073055267e-02,-2.406064793467521667e-02,5.709946155548095703e-03,8.759586140513420105e-03,-2.924824506044387817e-02,-4.750328604131937027e-03,-2.456443849951028824e-03,2.087114145979285240e-03,1.166013535112142563e-02,-2.019513212144374847e-02,-3.230811655521392822e-02,2.270466648042201996e-02,-2.079427428543567657e-02,1.045418158173561096e-02,9.166080504655838013e-03,-3.248330950736999512e-02,-3.737130761146545410e-02,-2.822300605475902557e-02,-3.090201690793037415e-02,-1.632722467184066772e-02,-3.496006503701210022e-02,2.128295227885246277e-02,5.479278974235057831e-03,-2.413782104849815369e-02,1.671655662357807159e-02,2.600354515016078949e-02,-1.840680837631225586e-02,-6.778893992304801941e-03,1.001819036900997162e-02,1.582589745521545410e-02,-3.462653979659080505e-02,-2.962579391896724701e-02,-1.169350929558277130e-02,-2.273989655077457428e-02,-1.175279356539249420e-02,-3.424546681344509125e-03,1.826151460409164429e-02,-2.955620549619197845e-02,-3.640109673142433167e-02,2.931617014110088348e-02,1.464097853749990463e-02,2.126511372625827789e-02,-2.102760039269924164e-02,-2.412852086126804352e-02,1.030062045902013779e-02,-2.925131469964981079e-02,-3.253491595387458801e-02,-4.363805986940860748e-03,2.969937399029731750e-02,-3.567838668823242188e-02,3.287765756249427795e-02,2.278738096356391907e-02,2.313343621790409088e-02,-2.301184087991714478e-02,-3.886825218796730042e-02,-2.495784126222133636e-02,9.121244773268699646e-03,-4.856547340750694275e-03,-2.864412963390350342e-02,-3.214623406529426575e-02,1.438090391457080841e-02,-2.770274132490158081e-02,-2.279234118759632111e-02,-2.708756178617477417e-02,-2.249616943299770355e-02,-1.111163850873708725e-02,-2.392126619815826416e-02,1.721471920609474182e-02,-1.621774211525917053e-02,-1.507454365491867065e-02,2.889755927026271820e-02,-3.670790791511535645e-02,-2.878977544605731964e-02,2.809457667171955109e-02,6.694307085126638412e-03,2.815558202564716339e-02,-2.733750827610492706e-02,2.076976373791694641e-02,-2.669328823685646057e-02,-2.125885104760527611e-03,3.988686949014663696e-03,-2.539334446191787720e-02,-1.408059382811188698e-03,1.462818961590528488e-02,-1.654940657317638397e-02,5.375769920647144318e-03,2.268342860043048859e-02,1.210471428930759430e-02,-1.299617718905210495e-02,1.195699907839298248e-02,1.699048280715942383e-02,2.682652883231639862e-02,3.357740817591547966e-03,3.587717190384864807e-03,-3.914857283234596252e-02,-3.576863929629325867e-02,2.505149506032466888e-02,1.751924864947795868e-02,-3.648906573653221130e-02,2.342602983117103577e-02,1.135984528809785843e-02,-2.604026906192302704e-02,-2.242910116910934448e-02,1.696913130581378937e-02,-1.275807525962591171e-02,-1.218114979565143585e-02,8.262485498562455177e-04,2.574062906205654144e-03,-3.289662301540374756e-02,-2.567606791853904724e-02,-1.934990286827087402e-02,-3.673211671411991119e-03,2.086315071210265160e-04,-7.962666451930999756e-03,-2.479352243244647980e-02,-3.677218779921531677e-02,6.137989927083253860e-03,-2.813186496496200562e-02,-1.269564498215913773e-02,3.099132329225540161e-02,-2.786071598529815674e-02,2.768759988248348236e-02,1.312331296503543854e-02,2.268105745315551758e-02,-2.356893196702003479e-02,5.863805301487445831e-03,-1.199991535395383835e-02,-5.214509554207324982e-03,-2.796881459653377533e-02,-7.151820696890354156e-03,-2.373784966766834259e-02,8.901281282305717468e-03,3.206493705511093140e-02,1.287279650568962097e-02,-8.699070662260055542e-03,-8.420158177614212036e-03,1.647472148761153221e-03,-2.017189934849739075e-02,2.946795895695686340e-03,-3.831915929913520813e-02,3.135453164577484131e-02,-2.193782106041908264e-02,5.519702564924955368e-03,3.183971391990780830e-03,-7.474439684301614761e-03,-8.291815407574176788e-03,8.896159939467906952e-03,1.055312249809503555e-02,2.909317240118980408e-02,1.266108453273773193e-02,-1.414280664175748825e-02,1.899778470396995544e-02,-2.260544709861278534e-02,1.679350854828953743e-03,1.325560919940471649e-02,1.056912168860435486e-02,-1.190404407680034637e-02,-3.076030127704143524e-02,1.898797042667865753e-02,-2.571952901780605316e-02,3.097284771502017975e-02,-1.534799020737409592e-02,-3.412995859980583191e-02,-6.707849446684122086e-03,8.892793208360671997e-03,-2.233584225177764893e-02,-3.875899314880371094e-02,1.043598400428891182e-03,3.014788031578063965e-02,-1.031573303043842316e-02,-3.237561881542205811e-02,1.032901182770729065e-02,-3.861997742205858231e-03,2.548609487712383270e-02,-3.004853427410125732e-02,7.714212406426668167e-03,-2.861533686518669128e-02,-2.117637544870376587e-03,-1.938189566135406494e-02,8.932096883654594421e-03,-4.133758135139942169e-03,-3.919175639748573303e-02,2.742764540016651154e-02,-1.024925382807850838e-03,9.315846487879753113e-03,7.657655514776706696e-03,-2.535434626042842865e-02,1.451316103339195251e-02,-1.369381789118051529e-03,1.445896271616220474e-02,2.397719770669937134e-02,1.462280750274658203e-02,1.448334753513336182e-02,2.618219703435897827e-03,-3.198997676372528076e-02,-1.324931997805833817e-02,2.195013687014579773e-02,-2.539678476750850677e-02,-2.696963399648666382e-02,-2.932524494826793671e-02,-6.478049792349338531e-03,1.368459314107894897e-02,2.496474236249923706e-02,1.258328650146722794e-02,-7.785862311720848083e-03,7.285533472895622253e-03,2.333577536046504974e-02,2.413256093859672546e-02,2.229326963424682617e-02,-1.599093899130821228e-02,-2.280347794294357300e-02,-2.176304906606674194e-02,1.889249123632907867e-02,-2.861642651259899139e-02,-1.240383740514516830e-02,2.981178276240825653e-02,3.883145283907651901e-03,-1.481514330953359604e-02,-3.000552393496036530e-02,2.514527738094329834e-02,-4.016918130218982697e-03,-1.065840758383274078e-02,-3.721558302640914917e-02,-3.168598562479019165e-02,4.668857436627149582e-03,-1.470852643251419067e-02,-1.731762476265430450e-02,-2.310086786746978760e-02,1.189221814274787903e-02,-2.206105180084705353e-02,3.361086919903755188e-02,2.393132634460926056e-02,-3.566019237041473389e-02,1.384978648275136948e-03,1.895977556705474854e-02,-3.850559145212173462e-02,-3.424014896154403687e-02,2.555455639958381653e-02,1.909045316278934479e-02,3.937274683266878128e-03,-2.190091274678707123e-02,-3.450900316238403320e-02,8.471539244055747986e-03,-3.096928633749485016e-02,3.467620350420475006e-03,5.819736979901790619e-03,6.591378711163997650e-03,-2.040437050163745880e-02,-2.620939537882804871e-02,2.132016979157924652e-02,3.897317452356219292e-03,-1.286066416651010513e-02,-1.411305274814367294e-02,-3.277659788727760315e-02,-2.222056500613689423e-02,-1.991300843656063080e-02,-1.101502589881420135e-02,-2.134590595960617065e-02,1.680784299969673157e-02,-4.210906568914651871e-03,1.947106793522834778e-02,1.635252684354782104e-02,-4.111453425139188766e-03,2.237714640796184540e-02,8.885120972990989685e-03,-3.818879486061632633e-04,-1.697988994419574738e-02,-2.231524791568517685e-03,-2.413957193493843079e-02,-5.149039439857006073e-03,-1.769446209073066711e-02,1.328833750449120998e-03,-1.189538650214672089e-02,-1.896676793694496155e-02,-9.815858677029609680e-03,-2.769381739199161530e-02,-2.620645798742771149e-03,2.710741013288497925e-02,-1.335552893579006195e-02,-5.616903305053710938e-03,-2.574800746515393257e-03,6.535895168781280518e-03,1.596457697451114655e-02,-1.513105165213346481e-02,-3.542147576808929443e-02,1.950131729245185852e-02,-7.407627068459987640e-03,1.952994428575038910e-02,-3.508087620139122009e-02,-8.737507276237010956e-03,-4.012525081634521484e-03,-7.649844046682119370e-03,1.057176198810338974e-02,-1.633089035749435425e-02,6.353289354592561722e-03,3.492554533295333385e-04,8.505620993673801422e-03,2.745185978710651398e-02,-1.396042201668024063e-02,-3.014092519879341125e-02,3.586884588003158569e-03,8.712064474821090698e-03,-5.330078769475221634e-03,8.165962994098663330e-03,-1.214480958878993988e-02,4.759792704135179520e-03,-6.021848879754543304e-03,3.807656932622194290e-03,-1.141272857785224915e-02,-1.607785746455192566e-02,3.336663171648979187e-02,2.483118698000907898e-02,3.746249945834279060e-03,2.398989163339138031e-03,3.806378226727247238e-03,2.528216282371431589e-04,1.156646944582462311e-02,-7.485492154955863953e-03,9.548812173306941986e-03,2.033266797661781311e-02,2.396142296493053436e-02,2.462602220475673676e-02,-1.794357970356941223e-02,2.250426076352596283e-02,-2.892189659178256989e-02,-8.792161010205745697e-03,-2.539736032485961914e-02,-1.129154395312070847e-02,2.227212488651275635e-02,-1.747721619904041290e-02,2.879588864743709564e-02,2.413536980748176575e-02,-5.717555060982704163e-03,1.492229383438825607e-02,2.705575898289680481e-02,3.288295120000839233e-02,2.133540064096450806e-02,3.432460129261016846e-02,1.391416508704423904e-02,1.580148586072027683e-03,-2.992404066026210785e-02,2.934074029326438904e-02,3.539861366152763367e-02,-2.331881038844585419e-02,1.061110850423574448e-02,3.397924453020095825e-02,-2.063004672527313232e-02,1.283381134271621704e-02,2.054587751626968384e-02,3.188688680529594421e-02,2.664050832390785217e-02,1.260678097605705261e-02,-5.066520534455776215e-03,-1.763299480080604553e-02,-2.591034211218357086e-02,1.297526061534881592e-03,7.086754776537418365e-04,1.033786777406930923e-02,-1.691998355090618134e-02,2.912174537777900696e-02,-1.517072785645723343e-02,3.915716335177421570e-02,3.802744299173355103e-02,2.514669857919216156e-02,-2.711599878966808319e-02,-1.160510163754224777e-02,2.819927781820297241e-02,-3.973394632339477539e-03,-3.593330038711428642e-03,2.535656280815601349e-02
-2.865502797067165375e-02,8.753052912652492523e-03,-1.210262533277273178e-02,-1.212455984205007553e-02,-2.332193590700626373e-02,1.371729839593172073e-02,-2.129133325070142746e-03,-2.203349210321903229e-02,-2.036149613559246063e-02,-3.148623183369636536e-02,7.230610121041536331e-03,1.225847098976373672e-02,-7.892157882452011108e-03,-3.029287420213222504e-02,-1.594889722764492035e-02,-2.205943688750267029e-02,-1.510923728346824646e-02,-3.215185925364494324e-02,-9.220669046044349670e-03,2.533324807882308960e-02,-2.972818911075592041e-02,2.790983393788337708e-02,2.736725285649299622e-02,-1.330832950770854950e-02,-1.509166695177555084e-02,-8.576793596148490906e-03,2.515607327222824097e-02,-2.470105513930320740e-02,-2.954434230923652649e-02,-3.200488165020942688e-02,-1.965417340397834778e-02,-8.250734768807888031e-03,-1.594581827521324158e-02,-2.850697375833988190e-02,-2.599436230957508087e-02,3.079148381948471069e-02,-7.432929240167140961e-03,-2.085718140006065369e-02,6.283008260652422905e-04,-6.299832602962851524e-04,2.587241865694522858e-02,7.562160491943359375e-03,-3.438932762946933508e-04,-2.124264463782310486e-02,1.943334378302097321e-02,2.136275731027126312e-02,9.671029634773731232e-03,2.098149619996547699e-02,2.010795660316944122e-02,1.614000834524631500e-02,-2.040232531726360321e-02,-2.399958111345767975e-02,-3.027967177331447601e-02,-1.653913594782352448e-02,-1.458168122917413712e-02,2.635119296610355377e-02,4.408150911331176758e-03,-1.034324150532484055e-02,-1.499103289097547531e-02,-7.770036347210407257e-03,-3.181446343660354614e-02,2.165800891816616058e-02,1.573786139488220215e-02,-2.959703654050827026e-02,2.375296503305435181e-02,2.249329537153244019e-02,-2.857214584946632385e-02,3.286572545766830444e-02,-1.219097245484590530e-02,1.325667090713977814e-02,-1.143612083978950977e-03,1.465536421164870262e-03,-1.326758507639169693e-02,3.679614141583442688e-02,1.053720619529485703e-02,-1.026606000959873199e-02,2.393301762640476227e-02,7.938427850604057312e-03,2.475943649187684059e-03,-3.323933109641075134e-02,-3.393471986055374146e-02,-1.649324037134647369e-02,-2.364940382540225983e-02,-2.879305556416511536e-02,8.648481220006942749e-03,-2.862837165594100952e-02,1.811517588794231415e-02,-3.493166342377662659e-02,-2.504645963199436665e-04,1.356573123484849930e-02,1.751439645886421204e-02,9.311984293162822723e-03,-1.713850721716880798e-02,-3.629604587331414223e-03,-7.466052193194627762e-04,3.283724188804626465e-02,-1.040733326226472855e-02,-1.344166882336139679e-02,-2.436643093824386597e-02,6.334612146019935608e-03,2.195419743657112122e-02,-2.592163346707820892e-02,-6.959524936974048615e-03,2.312367409467697144e-02,-2.857185713946819305e-02,2.451276034116744995e-02,-2.414046227931976318e-02,-3.476103767752647400e-02,2.145602367818355560e-02,-2.024239115417003632e-02,-2.305319532752037048e-02,1.632129400968551636e-02,3.493645461276173592e-03,-8.113342337310314178e-03,2.764496393501758575e-02,4.087507259100675583e-03,-3.188092261552810669e-02,-7.840981706976890564e-03,-2.807740820571780205e-03,4.296900297049432993e-04,-3.735661134123802185e-02,-1.723236404359340668e-02,1.081698387861251831e-02,1.161042228341102600e-02,1.909047830849885941e-03,2.483487501740455627e-02,-3.135067597031593323e-02,1.047638617455959320e-02,-5.159964319318532944e-03,-3.413488157093524933e-03,-1.642974279820919037e-02,-3.284549713134765625e-02,-3.775775060057640076e-02,2.373669110238552094e-02,-2.059840597212314606e-02,-3.563787415623664856e-02,6.976677104830741882e-03,-1.957101561129093170e-02,3.406459093093872070e-02,-2.402277663350105286e-02,1.960500702261924744e-02,2.807337604463100433e-02,1.578189432621002197e-02,1.702528819441795349e-02,1.997530274093151093e-02,5.534481606446206570e-04,-1.270611956715583801e-02,-3.841730952262878418e-02,-1.229171454906463623e-02,1.972477138042449951e-02,2.769777178764343262e-02,-1.720920391380786896e-02,8.748685941100120544e-04,-3.491408005356788635e-02,1.084905024617910385e-02,1.721963658928871155e-02,-1.959200762212276459e-02,-3.918350487947463989e-02,6.313736084848642349e-03,7.081154617480933666e-04,-4.648444708436727524e-03,1.780081726610660553e-02,-1.798342168331146240e-02,2.791230566799640656e-03,-1.818015612661838531e-02,2.553956583142280579e-02,2.799889072775840759e-03,8.670604787766933441e-03,6.841217167675495148e-03,-2.291715703904628754e-02,-2.819661051034927368e-02,7.052659522742033005e-03,3.149705752730369568e-02,1.709986105561256409e-02,-1.929123513400554657e-02,8.127673529088497162e-03,-1.247578416951000690e-03,2.612033300101757050e-02,7.659039925783872604e-03,-1.032109465450048447e-02,-1.037431973963975906e-02,-3.445211797952651978e-02,1.196368876844644547e-02,-7.131153251975774765e-04,3.074507787823677063e-02,2.414291258901357651e-03,7.420662441290915012e-04,2.192137762904167175e-02,-3.530290722846984863e-02,-2.521744556725025177e-02,-3.086248226463794708e-02,-3.939605318009853363e-03,-3.307934477925300598e-02,1.347325742244720459e-02,-1.260325685143470764e-02,-9.187663905322551727e-03,-2.295477129518985748e-02,-2.294741198420524597e-02,-2.095857635140419006e-03,-5.708639509975910187e-03,1.756031066179275513e-02,-9.031699039041996002e-03,2.089885249733924866e-02,-3.347308607771992683e-03,-9.567718021571636200e-03,-2.472064085304737091e-02,4.004301968961954117e-03,3.168032690882682800e-02,-1.465408597141504288e-02,2.033130032941699028e-03,-2.133133821189403534e-02,7.794153410941362381e-03,6.699870806187391281e-03,-9.141817688941955566e-03,1.340840663760900497e-02,-1.985292322933673859e-02,-1.062621455639600754e-02,-3.346767742186784744e-03,-2.636625990271568298e-02,-1.931929402053356171e-02,4.011685028672218323e-03,-3.603877499699592590e-02,-2.350127696990966797e-02,-2.522633038461208344e-02,1.760970056056976318e-02,3.782467171549797058e-02,3.121748752892017365e-02,6.699205841869115829e-03,7.133427076041698456e-03,1.095793768763542175e-02,-5.116587970405817032e-03,-2.309887669980525970e-02,3.065076284110546112e-02,3.133862465620040894e-02,-3.474768484011292458e-03,-4.160485696047544479e-03,-7.739541120827198029e-03,1.093175634741783142e-02,-2.404130250215530396e-02,-5.612895824015140533e-03,-8.471624925732612610e-03,1.407064497470855713e-02,-1.867531239986419678e-02,3.191876038908958435e-02,-5.746094044297933578e-03,4.024961963295936584e-02,2.773613086901605129e-04,5.579569842666387558e-04,-2.187223173677921295e-02,-3.567726910114288330e-02,-8.206541533581912518e-04,3.098389878869056702e-02,2.635731361806392670e-02,-1.870833709836006165e-02,-1.375552639365196228e-02,3.769975155591964722e-03,-1.893758773803710938e-02,3.507013991475105286e-02,-1.586833968758583069e-04,1.521968841552734375e-02,1.834248378872871399e-02,-2.963800728321075439e-02,-2.717499062418937683e-02,-1.937104389071464539e-02,6.782795302569866180e-03,1.008313847705721855e-03,3.476786613464355469e-02,2.067670598626136780e-02,2.249239385128021240e-02,2.542345970869064331e-02,-2.351027540862560272e-02,2.332611382007598877e-02,-4.864203277975320816e-03,3.348050639033317566e-02,4.048635810613632202e-02,2.640961483120918274e-02,-3.216305375099182129e-02,-3.569334000349044800e-02,6.695570889860391617e-03,4.539557732641696930e-03,-2.564162388443946838e-02,-2.036850526928901672e-02,-7.086351048201322556e-03,1.713087595999240875e-02,3.724177833646535873e-03,9.608033113181591034e-03,3.679344803094863892e-02,-3.054636903107166290e-02,1.878158189356327057e-02,-5.123631097376346588e-03,-1.438538078218698502e-02,2.174886502325534821e-02,2.408750355243682861e-03,9.841663762927055359e-03,3.859334625303745270e-03,3.091690130531787872e-02,1.512782555073499680e-02,1.263310853391885757e-02,-1.112343650311231613e-02,2.009792812168598175e-02,3.262022137641906738e-02,3.786534443497657776e-02,-1.070553995668888092e-02,-2.691411040723323822e-02,1.482714805752038956e-02,1.723035611212253571e-02,1.577762886881828308e-02,3.030466660857200623e-02,-3.016931936144828796e-03,2.019476331770420074e-02,3.505887836217880249e-02,-2.078878134489059448e-02,2.298363484442234039e-02,-1.100450567901134491e-02,-9.214926511049270630e-03,3.905813768506050110e-02,-3.326591104269027710e-03,-2.723514474928379059e-02,2.963667549192905426e-02,-7.316582836210727692e-03,-1.122712274082005024e-03,-1.801406033337116241e-02,1.721325330436229706e-02,-1.833616755902767181e-02,3.138923645019531250e-02,3.090504929423332214e-02,-2.499897219240665436e-02,8.709747344255447388e-03,-2.684727869927883148e-02,2.052109315991401672e-02,3.095696680247783661e-02,3.584130480885505676e-02,2.454353496432304382e-02,1.251970045268535614e-02,-1.560141891241073608e-02,-2.783613465726375580e-02,-2.146022859960794449e-03,-2.967952564358711243e-02,9.960162453353404999e-03,-2.402171306312084198e-02,-2.959467284381389618e-02,-2.577497158199548721e-03,1.530175842344760895e-02,2.053229697048664093e-02,-2.725271880626678467e-02,-2.420101501047611237e-02,-2.127679809927940369e-02,-2.836112491786479950e-02,-1.805706694722175598e-02,7.238199003040790558e-03,4.291658289730548859e-03,-1.395252719521522522e-02,1.206322014331817627e-02,3.887336328625679016e-02,2.624844014644622803e-02,-2.462440915405750275e-02,-1.819043420255184174e-02,1.013074070215225220e-03,3.840581513941287994e-03,-1.475243642926216125e-02,5.370077677071094513e-03,-1.608692854642868042e-02,1.684040948748588562e-02,1.758660189807415009e-02,-3.747445344924926758e-02,1.969765499234199524e-02,-1.861407049000263214e-02,2.571871504187583923e-02,-2.860700152814388275e-02,-1.920717209577560425e-02,2.336956374347209930e-02,-2.165658585727214813e-02,1.449189055711030960e-02,9.460814297199249268e-03,3.024712949991226196e-02,1.750727370381355286e-02,-4.069508984684944153e-03,1.823466643691062927e-02,-7.013427559286355972e-03,-3.482474386692047119e-02,-1.968365162611007690e-02,-1.794624887406826019e-02,-3.583427518606185913e-03,-2.964120171964168549e-02,1.743437349796295166e-02,1.589053310453891754e-02,3.222192823886871338e-02,-3.006040491163730621e-02,1.459608040750026703e-02,-1.404340099543333054e-02,-1.663919538259506226e-02,1.897989585995674133e-02,-2.271210774779319763e-02,-3.468968346714973450e-02,-3.130774199962615967e-02,-6.670922157354652882e-04,-2.656448446214199066e-02,-9.265572763979434967e-03,2.757802233099937439e-02,-2.183950692415237427e-02,-2.715142816305160522e-02,-6.789381732232868671e-04,4.823640920221805573e-04,2.324557118117809296e-02,-1.633739843964576721e-02,-2.718904614448547363e-02,-2.231455221772193909e-02,2.541431784629821777e-02,-1.103661954402923584e-02,2.716591209173202515e-02,-1.370715256780385971e-02,2.921871282160282135e-02,1.080109737813472748e-02,-1.339706592261791229e-02,-1.252009253948926926e-02,-7.638687267899513245e-03,-1.886329799890518188e-02,-1.620912738144397736e-02,3.044829703867435455e-02,-1.131052244454622269e-02,3.230856731534004211e-02,-1.395374443382024765e-02,8.231071755290031433e-03,-7.255039643496274948e-03,2.288006246089935303e-02,2.174236252903938293e-02,2.560608647763729095e-02,-2.956885099411010742e-02,6.000836845487356186e-03,6.773470668122172356e-04,-1.172491582110524178e-03,-1.778153143823146820e-02,1.059036888182163239e-02,-8.131866343319416046e-04,-1.803145743906497955e-02,1.100445911288261414e-02,2.711602300405502319e-02,1.935810595750808716e-02,-3.383385390043258667e-02,1.150752976536750793e-02,-1.775186136364936829e-02,-1.211035437881946564e-02,-3.117462061345577240e-02,1.061077043414115906e-02,1.674159057438373566e-02,3.664609789848327637e-02,-1.101719215512275696e-02,2.681756578385829926e-02,1.818042248487472534e-02,-2.477441169321537018e-02,3.405397385358810425e-02,9.265476837754249573e-03,2.636608108878135681e-02,2.607775852084159851e-02,-3.871475905179977417e-02,-1.935588545165956020e-03,2.654376067221164703e-02,-3.103929385542869568e-02,-3.554801642894744873e-02,-2.735909260809421539e-02,-6.177712231874465942e-03,-2.174733020365238190e-02,2.465176023542881012e-02,2.067013271152973175e-02,-2.368036098778247833e-02,2.035960182547569275e-02,-1.029661041684448719e-03,-2.534873597323894501e-02,-3.351983428001403809e-02,-1.650934293866157532e-02,-2.268353663384914398e-02,-2.801031060516834259e-02,-8.534939959645271301e-03,-2.512648515403270721e-02,2.410651743412017822e-02,1.698640920221805573e-02,3.038621507585048676e-02,-3.371614217758178711e-02,-3.448858112096786499e-02,2.556691318750381470e-02,-3.217014297842979431e-02,-3.493249043822288513e-02,7.048206403851509094e-03,1.371483504772186279e-02,2.727026678621768951e-02,-1.413150876760482788e-02,-2.747052535414695740e-02,-1.664967834949493408e-02,-1.848509535193443298e-02,-1.697055995464324951e-02,-6.364938337355852127e-03,2.202882803976535797e-02,2.725568041205406189e-02,-3.109063953161239624e-02,-1.421649474650621414e-03,-8.420718833804130554e-03,-4.252220969647169113e-03,-3.628874942660331726e-02,-2.319178916513919830e-02,-3.678560256958007812e-02,7.937518879771232605e-03,3.851586580276489258e-02,1.460683718323707581e-02,-2.118801698088645935e-02,-9.674951434135437012e-03,-4.702083300799131393e-03,2.811267971992492676e-02,-2.982486039400100708e-03,-3.307629749178886414e-02,-2.134551666676998138e-02,1.313567534089088440e-02,-3.021593391895294189e-02,1.845927909016609192e-02,1.744198240339756012e-02,2.577455248683691025e-03,-8.363921195268630981e-03,-2.440881170332431793e-02,-5.665186792612075806e-03,1.066320342943072319e-03,8.185888640582561493e-03,3.008985891938209534e-02,-1.047446671873331070e-02,2.197282575070858002e-02,2.055624313652515411e-02,-6.267274729907512665e-03,-3.714739158749580383e-02,1.644701324403285980e-02,2.373044006526470184e-02,-2.318050712347030640e-02,-2.191096730530261993e-02,1.208118442445993423e-02,-2.886537089943885803e-02,6.548941601067781448e-03,-1.993793994188308716e-02,1.628334168344736099e-03,2.309293299913406372e-02,2.042648615315556526e-03,-2.122771367430686951e-02,2.874707803130149841e-02,-2.019747905433177948e-02,-2.872053533792495728e-02,-4.829291137866675854e-04,-2.423465810716152191e-02,-3.003270551562309265e-02,-1.702746003866195679e-02,2.572242170572280884e-02,-2.022039331495761871e-02,-6.533935666084289551e-03,-1.590128242969512939e-02,-1.925184763967990875e-02,2.106316387653350830e-02,-2.968753315508365631e-02,2.446861751377582550e-02,2.688875049352645874e-02,-1.853814348578453064e-02,-1.187224313616752625e-02,-3.125138208270072937e-02,-6.496861460618674755e-04,-8.412341121584177017e-04,2.887495420873165131e-02,2.025794237852096558e-02,-8.217918686568737030e-03,-1.660535484552383423e-02,7.416380569338798523e-03,9.824830107390880585e-03,-1.386938616633415222e-02,1.314707845449447632e-02,2.493503130972385406e-02,1.394450012594461441e-02,-3.051993064582347870e-02,-3.307952359318733215e-02,-3.690699115395545959e-03,2.445907704532146454e-02,-1.861325092613697052e-02,1.842806302011013031e-02,-6.486007012426853180e-03,6.176116876304149628e-03,-2.358271973207592964e-03,-7.419006433337926865e-04,1.261371839791536331e-02,-3.709357604384422302e-02,5.931938067078590393e-03,2.380865253508090973e-02,-2.056928910315036774e-02,-1.528765168040990829e-02,-1.161253638565540314e-02,1.662419550120830536e-02,2.264861203730106354e-02,1.594621315598487854e-02,-3.711805865168571472e-02,1.733120903372764587e-02,2.713591046631336212e-02,-1.046713814139366150e-02,-8.817893452942371368e-03,-3.368389606475830078e-02,2.050092443823814392e-02,-2.910448797047138214e-02,1.122929621487855911e-02,2.494976297020912170e-02,-1.801888085901737213e-02,1.858785934746265411e-02,-3.153182938694953918e-02,-8.004138246178627014e-03,-2.175321243703365326e-02,-2.242207527160644531e-02,-3.810560330748558044e-02,-2.674259245395660400e-02,2.736451290547847748e-02,-5.288601387292146683e-03,-3.548456821590662003e-03,-7.435305509716272354e-03,3.203899785876274109e-02,2.543794736266136169e-02,3.977550193667411804e-02,4.177825059741735458e-03,-5.455783568322658539e-03,-2.420568838715553284e-02,-6.159046315588057041e-04,-2.738855034112930298e-02,-3.095649741590023041e-02,1.358863618224859238e-02,-6.838769186288118362e-03,-2.216849289834499359e-02,1.326535455882549286e-02,-3.335056453943252563e-02,-3.515347838401794434e-02,-1.372524723410606384e-02,2.647816017270088196e-02,2.271545305848121643e-02,1.041179522871971130e-02,1.106762979179620743e-02,-3.207981213927268982e-02,-2.228452078998088837e-02,-1.165054645389318466e-02,8.225264959037303925e-03,1.081553380936384201e-02,3.319462295621633530e-03,7.975162006914615631e-03,-6.666251458227634430e-03,1.073154434561729431e-02,-1.313477475196123123e-02,-1.882331818342208862e-02,9.227978065609931946e-03,-8.953465148806571960e-03,-4.601052962243556976e-03,-2.475366182625293732e-02,-3.543951362371444702e-02,-1.111525949090719223e-02,2.096779178828001022e-03,2.333900891244411469e-03,5.227925721555948257e-03,-3.345218300819396973e-02,-2.313654869794845581e-02,-3.323837369680404663e-02,-6.236197426915168762e-03,-7.819439284503459930e-03,2.474724315106868744e-02,2.764965035021305084e-02,-2.060104347765445709e-02,-6.678137462586164474e-03,1.371632143855094910e-02,-2.786553651094436646e-02,-2.922556363046169281e-03,2.915128506720066071e-02,1.420820690691471100e-02,-6.166830426082015038e-04,9.033339098095893860e-03,-5.612757988274097443e-03,-1.846521859988570213e-03,1.859409548342227936e-02,3.729003015905618668e-03,-6.899208296090364456e-03,-2.408353425562381744e-02,1.992217637598514557e-02,1.614603400230407715e-02,-1.728747412562370300e-02,-5.511453840881586075e-03,-3.356642276048660278e-02,-1.839827187359333038e-02,5.292105954140424728e-03,-2.960578165948390961e-02,-1.761396601796150208e-02,2.420713007450103760e-02,-2.729600528255105019e-03,-4.214657004922628403e-03,1.059930957853794098e-02,-3.219712898135185242e-02,7.684704614803195000e-04,-3.177480399608612061e-02,3.336458932608366013e-03,-1.929941773414611816e-02,1.788913644850254059e-02,-3.639470413327217102e-02,-3.720343858003616333e-02,-2.821456827223300934e-02,3.062903136014938354e-02,3.577596042305231094e-03,3.942491114139556885e-02,1.078078616410493851e-02,-3.460525721311569214e-02,2.510175295174121857e-02,3.416338190436363220e-02,-2.331585623323917389e-02,1.560912001878023148e-02,-1.755201630294322968e-02,-5.141905974596738815e-03,-3.964215517044067383e-03,9.290148504078388214e-03,-2.976537123322486877e-02,9.121032431721687317e-03,4.965175176039338112e-04,2.670180611312389374e-02,1.655506156384944916e-02,1.330269034951925278e-02,1.472499407827854156e-02,5.979620385915040970e-03,3.699174895882606506e-02,3.955766186118125916e-02,3.202880267053842545e-03,3.408088535070419312e-02,-1.577469334006309509e-02,3.734463360160589218e-03,2.058071829378604889e-02,-1.061496976763010025e-02,1.602715253829956055e-02,2.894974686205387115e-02,9.893494658172130585e-03,3.268363699316978455e-02,-4.817447625100612640e-03,-2.040795795619487762e-02,1.452101580798625946e-02,-2.629191242158412933e-02,2.242695074528455734e-03,-1.204689382575452328e-03,2.381599694490432739e-02,2.395134605467319489e-02,-2.870608307421207428e-02,-1.221843715757131577e-02,1.593610271811485291e-02,-2.673837542533874512e-02,2.412591315805912018e-02,2.125499211251735687e-02,-8.768896572291851044e-03,7.910782471299171448e-03,2.714857831597328186e-02,2.097304724156856537e-02,1.182785443961620331e-02,2.016274072229862213e-02,2.693447051569819450e-03,6.747190374881029129e-03,-1.889310218393802643e-02,1.208067592233419418e-02,-1.963335275650024414e-02,1.168173179030418396e-02,1.355637423694133759e-02,-3.185595571994781494e-02,-9.330017492175102234e-03,-1.426781993359327316e-03,3.556987643241882324e-02,-2.017509192228317261e-02,1.007900293916463852e-02,3.922471031546592712e-02,2.467004582285881042e-02,-1.010618265718221664e-02,-5.874458001926541328e-04,-2.935218997299671173e-02,2.376148104667663574e-02,1.366843655705451965e-02,-2.550723217427730560e-02,-6.713364738970994949e-03,-2.310410141944885254e-02,-9.947477839887142181e-03,2.170473150908946991e-02,3.400647314265370369e-03,-1.667297817766666412e-02,3.541418537497520447e-02,-3.649681806564331055e-03,1.866059564054012299e-02,1.375470682978630066e-02,1.841601915657520294e-02,-2.381944283843040466e-02,2.514526806771755219e-02,6.649038754403591156e-03,-2.464925870299339294e-02
-2.589226327836513519e-02,-2.000474557280540466e-02,-2.609294839203357697e-02,2.638300508260726929e-02,1.685734372586011887e-03,2.586341835558414459e-02,-2.977375127375125885e-02,1.478187181055545807e-02,1.833175495266914368e-02,-2.257294394075870514e-02,2.987066470086574554e-02,1.709941029548645020e-02,2.749689482152462006e-02,3.854294121265411377e-02,-4.509815946221351624e-03,-6.227957783266901970e-04,-8.921934291720390320e-03,-2.905387245118618011e-02,-6.055406294763088226e-03,-1.373750856146216393e-03,-2.640275470912456512e-02,-2.004208415746688843e-02,5.959059926681220531e-04,-2.402884326875209808e-02,-3.130107745528221130e-02,-3.430448845028877258e-02,2.803601697087287903e-02,1.547335367649793625e-02,3.055149503052234650e-02,9.976429864764213562e-03,-1.233100052922964096e-02,-1.461898069828748703e-02,-1.913934014737606049e-02,-1.494854222983121872e-02,2.687068097293376923e-02,1.692657126113772392e-03,-1.791574805974960327e-02,2.659486606717109680e-02,2.594646438956260681e-02,3.355105966329574585e-02,8.480453863739967346e-03,2.881154604256153107e-02,4.840499721467494965e-03,3.404658287763595581e-02,-1.930657960474491119e-02,-7.279517594724893570e-03,-2.798932045698165894e-02,-1.016085781157016754e-02,-2.239075303077697754e-02,6.073407363146543503e-03,-2.736418880522251129e-02,1.775626465678215027e-02,-2.188907377421855927e-02,9.721918031573295593e-03,-2.346896007657051086e-02,2.089851722121238708e-02,-6.038567982614040375e-03,-2.708679996430873871e-02,-9.446797892451286316e-03,1.685597747564315796e-02,2.681311964988708496e-02,1.917249709367752075e-02,1.968947798013687134e-02,-1.869346015155315399e-02,2.816382795572280884e-02,1.931111700832843781e-02,-3.010265063494443893e-03,1.504688989371061325e-02,1.455154828727245331e-02,-2.966749481856822968e-02,-1.168266404420137405e-02,-1.200849749147891998e-02,3.513015434145927429e-02,1.723030023276805878e-02,-8.797019720077514648e-03,-2.986866608262062073e-02,7.811561226844787598e-03,-7.812234107404947281e-03,-2.687038481235504150e-02,3.096454963088035583e-02,-2.772811055183410645e-02,-2.005657739937305450e-02,-7.487084716558456421e-03,-2.801650017499923706e-02,-1.728318072855472565e-02,3.542190417647361755e-02,2.566493675112724304e-02,-1.472897361963987350e-03,-1.894429512321949005e-02,3.227827697992324829e-02,2.143570035696029663e-02,2.740640938282012939e-02,-2.532484568655490875e-02,-2.736329101026058197e-02,5.850405432283878326e-04,-1.488511217758059502e-03,1.596863497979938984e-03,-4.411341622471809387e-03,3.695532679557800293e-02,3.344825655221939087e-02,3.669037669897079468e-02,-2.471515908837318420e-02,-2.418991737067699432e-02,-7.564429193735122681e-03,1.824215054512023926e-03,3.535018116235733032e-02,3.645708784461021423e-02,-1.710187084972858429e-02,-2.138283848762512207e-02,-1.248427480459213257e-02,-2.312130853533744812e-02,5.801750347018241882e-03,-1.131896511651575565e-03,1.897515356540679932e-02,-2.428021281957626343e-02,-1.895260438323020935e-02,3.225047513842582703e-02,3.522674739360809326e-02,-2.997057139873504639e-02,7.313404697924852371e-03,7.659687194973230362e-03,-1.358287781476974487e-02,2.832142636179924011e-02,2.805783972144126892e-02,2.554964460432529449e-02,-2.566180005669593811e-02,6.627986673265695572e-03,2.488845214247703552e-02,-3.131897654384374619e-03,8.598898537456989288e-03,2.325017750263214111e-02,-3.025546856224536896e-02,2.740190923213958740e-02,1.638605445623397827e-02,2.896814793348312378e-02,2.191903814673423767e-02,-2.535792533308267593e-03,-1.496960222721099854e-02,2.780006267130374908e-03,1.617231406271457672e-02,-1.990384794771671295e-02,-1.509222853928804398e-02,-1.774807274341583252e-02,-1.104241819120943546e-03,-1.896554045379161835e-02,1.298274286091327667e-02,-3.711688565090298653e-03,3.574115410447120667e-02,-2.506403718143701553e-03,5.589226260781288147e-03,-1.047969609498977661e-02,3.432309627532958984e-02,2.127080783247947693e-02,1.982374489307403564e-02,3.600955754518508911e-02,7.439016830176115036e-03,3.767323447391390800e-03,-2.569494955241680145e-02,1.072897855192422867e-02,2.218578569591045380e-02,-1.150650624185800552e-02,5.165606271475553513e-03,-2.233229577541351318e-02,6.299860775470733643e-03,6.428820546716451645e-03,3.308536857366561890e-02,8.821014314889907837e-03,-8.308632299304008484e-03,-3.276495635509490967e-02,2.553449943661689758e-02,1.349836029112339020e-02,1.375161018222570419e-02,2.552341669797897339e-02,-1.076212245970964432e-02,-1.075555756688117981e-02,2.692137658596038818e-02,8.312650956213474274e-03,1.175964903086423874e-02,-1.340208575129508972e-02,-2.973609417676925659e-02,-2.518032677471637726e-03,1.263759378343820572e-02,2.487854845821857452e-02,-2.757276594638824463e-02,-7.140742614865303040e-03,1.268169470131397247e-02,-2.248928323388099670e-02,2.153096534311771393e-02,-1.047568023204803467e-02,-2.380731329321861267e-02,-8.988779038190841675e-03,2.614606916904449463e-02,3.426759690046310425e-02,-5.912397056818008423e-03,-1.076272968202829361e-02,-1.399649772793054581e-02,2.868982031941413879e-02,-1.802625507116317749e-02,-3.201362863183021545e-02,-3.162170201539993286e-02,-2.716271206736564636e-02,-2.930700778961181641e-02,-1.075597386807203293e-02,1.956506073474884033e-02,1.242218539118766785e-02,4.016065970063209534e-02,-3.026003018021583557e-02,-1.017455011606216431e-02,2.852811850607395172e-02,3.233708208426833153e-03,7.883436046540737152e-03,2.176365815103054047e-02,1.337700523436069489e-02,-2.973581477999687195e-02,-7.252965122461318970e-03,3.197143971920013428e-02,-2.649209834635257721e-02,-2.070223540067672729e-02,2.237947657704353333e-02,-1.451841741800308228e-02,-2.026070095598697662e-02,-2.071642084047198296e-04,9.497163817286491394e-03,2.832925878465175629e-03,-3.022792283445596695e-03,2.641139551997184753e-02,-5.079942289739847183e-03,1.983750052750110626e-02,-1.300744526088237762e-02,-2.311387844383716583e-02,-2.330414578318595886e-02,3.347935155034065247e-02,-2.653598412871360779e-02,2.007297985255718231e-02,-2.499506063759326935e-02,-4.691130481660366058e-03,3.558102995157241821e-03,2.128176949918270111e-02,-1.356795430183410645e-02,-1.925319992005825043e-02,-1.568253501318395138e-04,1.585496217012405396e-02,1.157264690846204758e-03,5.714900325983762741e-03,2.034253254532814026e-02,-1.303417142480611801e-02,-1.952755637466907501e-02,2.706895768642425537e-02,2.610033936798572540e-02,-2.944051474332809448e-02,2.110335044562816620e-02,2.053449489176273346e-02,-1.418904121965169907e-02,2.747679315507411957e-02,-1.517645199783146381e-03,1.160662621259689331e-02,1.929177530109882355e-02,-8.598817512392997742e-03,-3.123689210042357445e-03,-1.832447573542594910e-02,-7.678489200770854950e-03,-1.253739185631275177e-02,2.225475944578647614e-02,-2.330371737480163574e-02,2.461598068475723267e-02,-4.730204120278358459e-03,1.537527423352003098e-03,-3.249309258535504341e-03,-1.474621053785085678e-02,-3.705552965402603149e-02,-3.808869048953056335e-02,2.996770851314067841e-02,-2.800910733640193939e-03,3.149686381220817566e-02,7.904707454144954681e-03,-1.484739966690540314e-02,-2.334664016962051392e-02,2.355561219155788422e-02,-1.491702534258365631e-02,-2.343328855931758881e-02,2.810025215148925781e-02,1.454264018684625626e-02,-3.216337040066719055e-02,-1.227087900042533875e-02,-2.618821710348129272e-02,-3.385204076766967773e-02,1.599595649167895317e-03,3.820809535682201385e-03,4.866316448897123337e-03,1.983280107378959656e-02,6.990918889641761780e-03,3.062073513865470886e-02,-1.509272400289773941e-02,-1.608896441757678986e-02,-1.168418396264314651e-02,2.744208462536334991e-02,-3.900305181741714478e-02,-3.945088014006614685e-02,-2.541245892643928528e-02,1.698954962193965912e-03,3.836533054709434509e-02,-8.194706402719020844e-03,-2.183747105300426483e-02,4.960682243108749390e-03,-3.059402108192443848e-02,-1.233694795519113541e-02,-9.387021884322166443e-03,4.296514671295881271e-03,1.592554338276386261e-02,-2.786528505384922028e-02,-3.363522142171859741e-02,3.056070534512400627e-03,-3.443313762545585632e-02,1.791479298844933510e-03,1.180955558083951473e-03,-3.280385583639144897e-02,1.146375434473156929e-03,6.484410259872674942e-03,2.146653272211551666e-02,-9.593654423952102661e-03,-1.811634190380573273e-02,1.129237934947013855e-03,8.802843280136585236e-03,-1.818021759390830994e-03,-1.796628907322883606e-02,2.571288496255874634e-03,-1.641123928129673004e-02,-1.315432507544755936e-02,-2.380534447729587555e-02,4.033297300338745117e-02,3.695581108331680298e-02,-2.386550419032573700e-03,3.118586912751197815e-02,3.423620481044054031e-03,1.917629316449165344e-02,-2.157037705183029175e-02,-8.748780936002731323e-03,1.390526629984378815e-02,-1.410590205341577530e-02,1.295898761600255966e-02,-1.167732384055852890e-02,-2.385359629988670349e-02,-2.054264023900032043e-02,-1.827558875083923340e-02,-3.057143650949001312e-02,-2.715271338820457458e-02,1.575320493429899216e-04,2.995084039866924286e-02,-1.421321183443069458e-02,1.582399941980838776e-02,-1.217435859143733978e-02,2.742918953299522400e-02,9.840263985097408295e-03,7.252396084368228912e-03,1.820649951696395874e-02,8.577527478337287903e-03,-1.423509675078094006e-03,3.322724625468254089e-02,3.655201941728591919e-02,-1.731843315064907074e-02,1.073937211185693741e-02,2.810110710561275482e-02,2.217005193233489990e-02,5.011344328522682190e-03,2.460323646664619446e-02,-2.117771655321121216e-02,1.791988313198089600e-02,7.518617436289787292e-03,-3.777436539530754089e-02,3.012124076485633850e-02,-6.776083260774612427e-03,-2.882148325443267822e-02,-4.015928599983453751e-03,-2.078268676996231079e-02,-1.217001676559448242e-02,-1.585342455655336380e-03,2.013597451150417328e-02,2.721550129354000092e-02,3.076064586639404297e-02,-2.060099132359027863e-02,2.627130970358848572e-02,3.078885935246944427e-02,-2.463081292808055878e-02,3.243931382894515991e-02,1.250583212822675705e-02,-2.626995928585529327e-02,2.887619845569133759e-02,-1.454718038439750671e-02,-6.515475455671548843e-03,5.432643927633762360e-03,9.270112495869398117e-04,3.307481482625007629e-02,3.633844852447509766e-02,2.204855345189571381e-02,2.257870137691497803e-02,-1.841084659099578857e-02,2.440661378204822540e-02,-1.722357003018260002e-03,-2.486998401582241058e-02,-2.815889380872249603e-02,-2.280666306614875793e-02,-2.759023010730743408e-02,-2.180125564336776733e-02,1.845565624535083771e-02,1.065553724765777588e-02,-9.448352269828319550e-03,1.037590205669403076e-02,-5.849737673997879028e-03,-1.415637694299221039e-02,2.369007468223571777e-02,-2.101032063364982605e-02,-1.353060267865657806e-02,-2.475928328931331635e-02,1.960598118603229523e-02,1.831590756773948669e-02,7.058972027152776718e-03,8.828571997582912445e-03,4.054929316043853760e-02,1.413504499942064285e-02,1.279086433351039886e-02,-5.829270929098129272e-03,2.498427964746952057e-02,-4.242001567035913467e-03,-3.133523836731910706e-02,7.208036724478006363e-03,-2.445021271705627441e-02,-9.893050882965326309e-04,-1.098955143243074417e-02,3.264289721846580505e-02,7.891817949712276459e-03,1.881595328450202942e-02,3.273716941475868225e-02,1.961120404303073883e-02,1.499464921653270721e-02,4.554290324449539185e-03,-1.022034417837858200e-02,-7.869156543165445328e-04,-1.075443625450134277e-02,-8.751505985856056213e-03,3.078623488545417786e-02,-2.885117195546627045e-03,-9.078272618353366852e-03,-1.655780710279941559e-02,1.369067281484603882e-02,-1.291581708937883377e-02,-2.033050730824470520e-02,1.161242183297872543e-02,2.364789880812168121e-02,-1.591138541698455811e-02,-1.424635574221611023e-02,2.585990726947784424e-02,1.446661725640296936e-02,-4.502398893237113953e-03,2.951905690133571625e-02,-2.970404177904129028e-02,3.301858156919479370e-02,-3.023555129766464233e-02,8.093703538179397583e-03,2.188753895461559296e-02,6.181633565574884415e-03,1.392209343612194061e-02,-3.626832365989685059e-02,1.232586894184350967e-02,-3.206542879343032837e-02,2.442073822021484375e-02,3.405044972896575928e-02,5.634633358567953110e-03,2.645855769515037537e-02,-2.899322099983692169e-02,3.291918337345123291e-02,2.893414814025163651e-03,-2.205389551818370819e-02,3.558281809091567993e-02,3.382564708590507507e-02,1.881702989339828491e-02,3.087358176708221436e-02,2.777872420847415924e-02,4.516240675002336502e-03,2.570671960711479187e-02,1.475177612155675888e-02,1.203120592981576920e-02,-2.587515674531459808e-02,-7.994244806468486786e-03,-1.402311492711305618e-02,-2.751743048429489136e-02,-4.164271056652069092e-03,1.880914159119129181e-02,2.247390896081924438e-02,-9.027775377035140991e-03,2.763034775853157043e-02,-2.336776070296764374e-02,-5.792704876512289047e-03,2.221850864589214325e-02,2.648267708718776703e-02,1.809014007449150085e-02,2.016217913478612900e-03,3.912068530917167664e-02,1.840429753065109253e-02,2.482589147984981537e-02,-1.077168155461549759e-02,2.905085310339927673e-02,-9.557326324284076691e-03,-4.682797472923994064e-03,-1.757581904530525208e-02,-2.854447066783905029e-02,2.748910337686538696e-02,1.026530843228101730e-02,3.877573087811470032e-02,2.144676819443702698e-02,1.622392237186431885e-02,6.133663468062877655e-03,-1.587723940610885620e-02,3.655960783362388611e-02,7.620969321578741074e-03,-4.454257898032665253e-03,-1.380869885906577110e-03,-1.910541206598281860e-02,-3.104458004236221313e-02,-3.271091356873512268e-02,-3.159348666667938232e-02,-1.716928742825984955e-02,2.507931319996714592e-03,3.863698802888393402e-03,-2.182207535952329636e-04,-7.128378842025995255e-03,-1.854339428246021271e-02,4.103720420971512794e-04,2.503901021555066109e-03,-1.780995354056358337e-02,1.118414918892085552e-03,2.692582085728645325e-02,-8.579515852034091949e-03,2.057502605020999908e-02,1.986098475754261017e-02,-6.970811635255813599e-03,-1.411995198577642441e-02,1.953576132655143738e-02,-1.500532776117324829e-02,2.364547923207283020e-02,-1.932126469910144806e-02,-3.654527943581342697e-03,2.723647467792034149e-02,1.779891178011894226e-02,3.775829076766967773e-02,2.731422893702983856e-02,1.443866733461618423e-02,-2.052527852356433868e-02,-2.158581465482711792e-02,9.319499135017395020e-03,1.600574329495429993e-02,6.387332454323768616e-03,2.480655908584594727e-02,-2.500917296856641769e-03,3.678815439343452454e-02,-2.509756945073604584e-02,3.446756303310394287e-02,2.640825696289539337e-02,-2.278416417539119720e-02,-2.960735373198986053e-02,2.401798963546752930e-03,4.754143301397562027e-03,2.200649119913578033e-03,-8.351037278771400452e-03,-6.574018392711877823e-03,2.551481127738952637e-02,-1.085645984858274460e-02,3.473282605409622192e-02,1.602029800415039062e-02,2.982665970921516418e-02,-2.812800370156764984e-02,-2.298804372549057007e-02,-2.322090417146682739e-02,-1.127924583852291107e-02,2.778631076216697693e-02,1.336423493921756744e-02,1.573401689529418945e-02,-9.671270847320556641e-03,3.620047494769096375e-02,-6.584325339645147324e-03,-2.346816658973693848e-02,1.008370704948902130e-02,-1.180255785584449768e-02,-2.255077287554740906e-02,3.971699625253677368e-02,1.876431517302989960e-02,1.544062606990337372e-02,1.653989776968955994e-02,2.726051025092601776e-02,5.172353703528642654e-03,-5.392060615122318268e-03,1.194421784020960331e-03,4.840566311031579971e-03,3.736901655793190002e-02,3.855900466442108154e-02,3.785984218120574951e-02,-7.644433993846178055e-03,1.080994214862585068e-02,2.538015134632587433e-02,3.628493845462799072e-02,1.141599752008914948e-02,3.268136829137802124e-02,3.914489224553108215e-02,3.240408748388290405e-02,3.852055966854095459e-02,3.586523607373237610e-02,-2.023920789361000061e-02,1.979550346732139587e-02,2.138879150152206421e-02,-7.898978888988494873e-03,-1.615024171769618988e-02,-7.098763249814510345e-03,2.480696327984333038e-02,2.535063074901700020e-03,3.521914035081863403e-02,5.991853773593902588e-03,-6.084713153541088104e-03,-2.323952037841081619e-03,7.073653861880302429e-03,1.722656562924385071e-02,-2.518257871270179749e-02,-2.009160257875919342e-02,-2.068833820521831512e-02,-1.176959089934825897e-02,-2.436742559075355530e-02,1.097348425537347794e-02,2.815607562661170959e-02,-8.731834590435028076e-03,1.749194599688053131e-02,2.450077794492244720e-02,-1.023543253540992737e-02,-1.596248825080692768e-03,4.068519547581672668e-02,2.035647630691528320e-02,-2.463997714221477509e-02,-1.667082868516445160e-02,-4.133897833526134491e-03,1.493485365062952042e-02,-3.796958597376942635e-03,2.136662416160106659e-02,-3.424442373216152191e-03,-1.842091232538223267e-02,3.237651288509368896e-02,1.364001538604497910e-02,3.129151836037635803e-02,-1.454785093665122986e-02,-3.433880954980850220e-02,2.460550703108310699e-02,2.886604517698287964e-03,1.615104824304580688e-02,1.137128099799156189e-02,2.650712057948112488e-02,3.247440606355667114e-02,-2.584921568632125854e-02,1.417609117925167084e-02,-6.001371424645185471e-03,1.357254572212696075e-02,-1.894574495963752270e-03,-2.321419119834899902e-02,3.250199183821678162e-02,7.488635368645191193e-03,-2.261634916067123413e-02,1.590236322954297066e-03,2.501558139920234680e-02,7.904000580310821533e-03,5.242060869932174683e-03,-1.588852144777774811e-02,-5.057707428932189941e-03,3.182998625561594963e-03,3.793765557929873466e-03,3.602736396715044975e-03,-3.415545076131820679e-02,1.961753703653812408e-02,-3.545776754617691040e-02,3.502358868718147278e-02,6.842253496870398521e-04,-6.259399000555276871e-03,2.199763804674148560e-02,2.490646578371524811e-02,1.099631842225790024e-02,3.840031474828720093e-02,-1.784943230450153351e-02,4.666214808821678162e-03,9.304241277277469635e-03,1.262089051306247711e-02,-9.763792157173156738e-03,1.239667763002216816e-04,1.647894084453582764e-02,-2.475416660308837891e-02,2.613632008433341980e-02,2.659619227051734924e-02,-2.547401748597621918e-02,-3.830782696604728699e-02,4.694402217864990234e-03,3.192503238096833229e-03,1.484896708279848099e-02,-1.314746309071779251e-02,1.633540168404579163e-02,5.350608378648757935e-03,1.634846813976764679e-02,-2.216845750808715820e-03,2.651799283921718597e-02,6.793086417019367218e-03,-3.123024478554725647e-02,1.395933423191308975e-02,2.529806829988956451e-02,-2.369908615946769714e-02,-1.170832104980945587e-02,1.190147362649440765e-02,-3.815175220370292664e-02,2.822772599756717682e-02,-2.139949705451726913e-03,-7.297771051526069641e-03,-2.871884591877460480e-02,2.043207548558712006e-02,-8.369501680135726929e-03,1.812271540984511375e-03,-1.820040680468082428e-02,1.116183213889598846e-02,-1.034477632492780685e-02,2.178727649152278900e-03,-1.339708687737584114e-03,1.180995441973209381e-02,2.792054787278175354e-02,4.642935469746589661e-03,-3.720030933618545532e-02,5.112546961754560471e-03,-9.789731353521347046e-03,1.647983305156230927e-02,-3.005670756101608276e-02,2.397119998931884766e-03,-3.480418771505355835e-02,1.475677080452442169e-02,-2.867731451988220215e-02,-2.740745618939399719e-02,-4.405425395816564560e-03,-2.271549776196479797e-03,-2.866883762180805206e-02,-3.336718305945396423e-02,-1.422539167106151581e-02,-3.077724203467369080e-02,3.002246376127004623e-03,-1.316723413765430450e-02,-9.625692619010806084e-04,-3.189397975802421570e-02,2.046936377882957458e-02,5.862480960786342621e-03,-3.497850522398948669e-02,1.791699975728988647e-02,2.410600334405899048e-02,2.452133968472480774e-02,-8.622602559626102448e-03,1.541289780288934708e-02,6.610435084439814091e-04,-3.488190844655036926e-02,1.371901482343673706e-02,2.509723044931888580e-02,-1.134891621768474579e-02,-9.189418517053127289e-03,-1.446446869522333145e-02,2.820336446166038513e-02,-4.994021728634834290e-03,6.633157841861248016e-03,-5.338573828339576721e-06,2.687230519950389862e-02,-2.637780643999576569e-02,1.650049723684787750e-02,5.960085894912481308e-03,2.005102671682834625e-02,1.883898302912712097e-02,-6.935229757800698280e-04,-1.341184787452220917e-02,-2.913591079413890839e-02,5.011328496038913727e-03,-9.103714488446712494e-03,1.675621233880519867e-02,1.156588736921548843e-02,-1.793815009295940399e-02,-2.727253548800945282e-02,1.546812988817691803e-02,-1.116169430315494537e-02,-3.472972661256790161e-02,1.096929050981998444e-02,1.647131890058517456e-02,2.011360041797161102e-02
