8.933629840612411499e-03,1.430862396955490112e-02,-2.839241875335574150e-03,-5.204563029110431671e-03,3.560475260019302368e-02,-4.105521366000175476e-03,-1.627203449606895447e-02,-2.377845719456672668e-02,2.530471421778202057e-02,1.870018243789672852e-02,-4.611334763467311859e-03,-2.872445061802864075e-02,2.630612626671791077e-02,1.663560606539249420e-02,2.611240558326244354e-02,-2.302361652255058289e-02,-4.690012894570827484e-03,1.869797706604003906e-02,2.798067871481180191e-03,8.694529533386230469e-03,2.989725768566131592e-02,-2.511413209140300751e-02,1.988104544579982758e-02,-9.428641758859157562e-03,1.444152090698480606e-02,3.118287771940231323e-02,2.326365932822227478e-02,2.911770530045032501e-02,3.262740001082420349e-02,2.804136462509632111e-02,-9.202148765325546265e-03,6.466580554842948914e-03,-1.042739208787679672e-02,2.514144638553261757e-03,-8.240390889113768935e-05,-3.356078267097473145e-02,-3.152040392160415649e-02,-2.324130386114120483e-02,-2.165742777287960052e-02,-2.788997627794742584e-02,-2.394877607002854347e-03,1.718202047049999237e-02,3.984003793448209763e-03,-2.757515572011470795e-02,-3.358232229948043823e-02,-1.927434466779232025e-02,3.642445080913603306e-04,-3.179324418306350708e-02,3.055254556238651276e-02,6.224802695214748383e-03,-3.560909256339073181e-02,2.625837177038192749e-02,-2.253444865345954895e-02,3.260382637381553650e-02,2.513696625828742981e-02,1.500462740659713745e-02,3.774528158828616142e-03,-1.942337118089199066e-02,-2.099852450191974640e-02,-1.180003769695758820e-02,-9.035594412125647068e-04,2.573414519429206848e-02,-3.087891731411218643e-03,-4.400728736072778702e-03,-9.326387196779251099e-03,1.250087097287178040e-02,8.633580058813095093e-03,-6.784643512219190598e-03,-1.118457131087779999e-02,-3.555073402822017670e-03,-3.869896754622459412e-02,-2.044032514095306396e-02,2.923128753900527954e-02,-8.071352727711200714e-03,2.064061723649501801e-02,-2.582195214927196503e-02,9.564767591655254364e-03,-9.435005486011505127e-03,-2.891501039266586304e-02,-2.690117340534925461e-03,-6.812914274632930756e-03,-5.735356360673904419e-03,3.084152191877365112e-02,-3.069856017827987671e-02,-2.259946055710315704e-02,3.487404808402061462e-02,6.630033254623413086e-03,-4.675477743148803711e-03,2.606323547661304474e-02,-2.989282459020614624e-02,1.829281682148575783e-04,-9.593540802597999573e-03,5.570095498114824295e-03,-8.608555421233177185e-03,-1.688777236267924309e-03,-1.901842653751373291e-02,2.180703543126583099e-02,-2.890636771917343140e-02,1.302065048366785049e-02,9.488768875598907471e-03,2.072224393486976624e-02,2.960361167788505554e-02,1.009173411875963211e-02,2.447979059070348740e-03,1.101818773895502090e-02,3.689447185024619102e-04,-1.063420716673135757e-02,1.131472643464803696e-02,-3.156942129135131836e-02,-3.869136795401573181e-02,-3.643570095300674438e-02,5.833975039422512054e-03,1.564375869929790497e-02,3.243352100253105164e-02,1.979980431497097015e-02,1.268454268574714661e-02,2.538576722145080566e-02,-1.566595584154129028e-02,-8.227396756410598755e-03,-2.880273386836051941e-02,2.569841966032981873e-02,1.942832395434379578e-02,2.794766798615455627e-02,-1.464767940342426300e-02,-1.781339384615421295e-02,3.742938488721847534e-02,-9.287205524742603302e-03,1.678788103163242340e-02,-2.853697538375854492e-02,-1.621235720813274384e-02,1.489824429154396057e-02,2.445951290428638458e-02,-2.490688115358352661e-02,-7.538460660725831985e-03,3.141514956951141357e-02,-3.901703283190727234e-02,6.449810229241847992e-03,1.576443947851657867e-02,3.304706886410713196e-02,-3.054981678724288940e-02,-2.649553492665290833e-02,2.974267303943634033e-02,-2.631552703678607941e-02,3.864197805523872375e-02,-3.706878982484340668e-03,-1.949792914092540741e-02,-4.725748440250754356e-04,4.422405734658241272e-03,2.605146355926990509e-02,-2.655724249780178070e-02,-3.395345062017440796e-03,5.453168414533138275e-04,1.808487810194492340e-02,-4.926200490444898605e-03,1.237836107611656189e-02,1.185498014092445374e-02,3.101313859224319458e-02,1.377878058701753616e-02,1.322780083864927292e-02,1.444900315254926682e-02,2.544994093477725983e-02,-1.823784969747066498e-02,2.705533429980278015e-02,1.873758621513843536e-02,7.818667218089103699e-04,3.271197527647018433e-02,-9.742167312651872635e-04,-1.939358934760093689e-02,-1.055196020752191544e-02,-3.213345259428024292e-02,2.080786507576704025e-03,-2.278297394514083862e-02,2.776196226477622986e-03,3.060481697320938110e-02,1.812929101288318634e-02,-7.492273580282926559e-03,-2.614111639559268951e-03,2.581555210053920746e-02,2.872425317764282227e-02,3.263716399669647217e-02,2.247837558388710022e-02,3.258604928851127625e-02,-1.868638023734092712e-02,7.877765223383903503e-03,8.354288525879383087e-03,-1.195214129984378815e-02,2.959845587611198425e-02,-7.249053567647933960e-03,1.228766748681664467e-03,1.108997780829668045e-02,-3.627329133450984955e-03,-2.753873914480209351e-02,3.125263750553131104e-02,-8.396162651479244232e-03,-1.980711705982685089e-02,-2.437138929963111877e-02,-1.625182479619979858e-02,3.196680173277854919e-02,-1.965179294347763062e-02,2.507136948406696320e-02,-2.057195827364921570e-02,1.649689488112926483e-02,2.843850106000900269e-02,2.888710610568523407e-02,1.817549206316471100e-02,2.394803240895271301e-02,-4.887380171567201614e-03,2.321558445692062378e-02,7.945504039525985718e-03,1.009826920926570892e-02,1.136681297793984413e-03,5.752873606979846954e-03,-4.851719830185174942e-03,3.242689743638038635e-02,1.708007603883743286e-02,-2.461789734661579132e-02,1.365528535097837448e-02,9.011903777718544006e-03,3.687715530395507812e-02,1.790802739560604095e-02,2.836372889578342438e-02,1.327938586473464966e-02,3.939597867429256439e-03,3.042857162654399872e-02,2.422555722296237946e-02,-2.569534070789813995e-02,-2.372965775430202484e-02,1.810487732291221619e-02,-2.198194526135921478e-02,-1.007866673171520233e-02,2.248683758080005646e-02,4.163975361734628677e-03,-2.134722890332341194e-03,2.491290494799613953e-02,5.013879854232072830e-03,-2.905281819403171539e-02,9.361471980810165405e-03,7.352243410423398018e-04,2.525932900607585907e-02,-3.437219932675361633e-02,-3.014594875276088715e-02,-4.149163141846656799e-03,1.342533994466066360e-02,-3.269053623080253601e-02,-3.081476688385009766e-02,2.181739732623100281e-02,3.338833525776863098e-02,-2.468221448361873627e-02,-2.378893457353115082e-02,3.479246050119400024e-02,2.184046991169452667e-02,4.622848704457283020e-03,-7.829593494534492493e-03,-3.031715936958789825e-02,7.454158272594213486e-03,2.773633785545825958e-02,2.893318654969334602e-03,-4.872018471360206604e-03,-9.969442151486873627e-03,-1.123928371816873550e-02,-4.185573663562536240e-03,-2.962344326078891754e-03,-3.662360832095146179e-02,2.613915875554084778e-02,8.145391009747982025e-03,7.423582486808300018e-03,9.706569835543632507e-03,2.334721572697162628e-02,2.715258672833442688e-02,1.281261257827281952e-02,-3.916925750672817230e-03,-8.446612395346164703e-03,-1.522456295788288116e-02,1.525130588561296463e-02,-1.067495811730623245e-02,2.233231067657470703e-02,-1.719415001571178436e-02,-5.162577144801616669e-05,-1.144074462354183197e-02,1.653876341879367828e-02,9.082305245101451874e-03,-1.586160622537136078e-02,1.617717556655406952e-02,-8.793292567133903503e-03,2.283469401299953461e-02,2.453867159783840179e-02,-1.494852174073457718e-02,-3.422084450721740723e-02,1.857868395745754242e-02,-1.148648187518119812e-02,-3.117274492979049683e-03,-3.719876334071159363e-02,-1.363154221326112747e-02,-1.624426431953907013e-02,-2.269901148974895477e-02,-2.199286967515945435e-02,9.135197848081588745e-03,-1.683777198195457458e-02,1.150341518223285675e-02,2.914273180067539215e-02,-3.803958650678396225e-03,3.142661601305007935e-02,1.725496724247932434e-02,-6.641497835516929626e-03,2.955363132059574127e-02,-1.419050898402929306e-02,-2.998909167945384979e-02,-8.162983693182468414e-03,-1.341633033007383347e-02,-3.115037269890308380e-02,2.831237390637397766e-02,2.506735920906066895e-02,1.630484126508235931e-03,-1.489650271832942963e-02,2.198598347604274750e-02,-2.438679151237010956e-02,2.101846039295196533e-02,-1.365230232477188110e-02,-2.812597341835498810e-02,-1.892800442874431610e-03,-7.716600783169269562e-03,-2.165760286152362823e-02,3.762663528323173523e-02,1.884721219539642334e-02,-9.735039435327053070e-03,-8.776626549661159515e-03,8.936529979109764099e-03,1.915116235613822937e-02,-8.324817754328250885e-03,1.983654871582984924e-02,1.227185316383838654e-02,-1.600764505565166473e-02,1.579844765365123749e-02,3.955430584028363228e-04,-1.712138578295707703e-02,-4.882954992353916168e-03,-1.213829778134822845e-02,-2.361866831779479980e-02,2.486727200448513031e-02,-2.358881570398807526e-02,2.864717273041605949e-03,-3.882548213005065918e-02,-1.380382385104894638e-02,1.305796485394239426e-02,-2.629637159407138824e-02,-1.871401630342006683e-02,-2.001918293535709381e-02,3.420290350914001465e-02,3.277917951345443726e-02,8.293215185403823853e-03,-6.398268509656190872e-03,1.878982037305831909e-02,2.018204890191555023e-02,3.878542780876159668e-02,2.240903675556182861e-02,1.349781546741724014e-02,-3.721183538436889648e-02,1.836679317057132721e-02,2.893714234232902527e-02,-3.694105520844459534e-02,-2.086229249835014343e-02,3.016629070043563843e-02,2.064069174230098724e-02,-5.253211595118045807e-03,-2.725982479751110077e-02,3.270547464489936829e-02,-2.615652419626712799e-02,2.288893610239028931e-02,1.563856750726699829e-02,-2.021455578505992889e-02,-2.820215374231338501e-02,-3.446163982152938843e-02,2.427960932254791260e-02,-3.115448914468288422e-02,-5.948092322796583176e-03,1.110110245645046234e-02,3.822220489382743835e-02,-2.594873122870922089e-02,1.531969569623470306e-02,2.936287317425012589e-03,-1.329730264842510223e-02,3.744191303849220276e-02,2.120311371982097626e-02,1.206467859447002411e-02,2.956949546933174133e-02,3.019367158412933350e-02,-2.221063710749149323e-02,-3.212665766477584839e-02,9.216309990733861923e-04,3.049506619572639465e-02,7.100152783095836639e-03,-1.452807243913412094e-02,4.393445793539285660e-03,4.112252034246921539e-03,-3.650408238172531128e-02,1.769133284687995911e-02,-2.699837833642959595e-02,2.418243559077382088e-03,-2.420087158679962158e-02,-5.404940457083284855e-04,1.986960135400295258e-02,-1.116921473294496536e-02,-1.754460297524929047e-02,-2.706772089004516602e-02,-5.994522478431463242e-03,3.904934972524642944e-02,1.666701026260852814e-02,-9.229729883372783661e-03,-9.291531750932335854e-05,-1.876254566013813019e-02,-7.091726642102003098e-03,2.780805528163909912e-02,-4.510569386184215546e-03,-6.159551907330751419e-03,1.659763790667057037e-02,-1.448016613721847534e-02,-3.762217611074447632e-02,2.352752722799777985e-02,-2.572873234748840332e-02,2.273795753717422485e-02,3.446225821971893311e-02,4.925253801047801971e-03,1.938743330538272858e-02,1.414752379059791565e-02,-2.139808237552642822e-02,-1.377379242330789566e-02,1.186263002455234528e-02,-2.077803714200854301e-03,-2.555068582296371460e-02,1.285390462726354599e-02,-2.239164710044860840e-02,-8.564054965972900391e-03,-2.738426625728607178e-02,2.515459200367331505e-03,1.037940010428428650e-02,-1.935255154967308044e-02,1.635541021823883057e-02,-1.277690380811691284e-02,7.687598932534456253e-03,-3.365931287407875061e-02,2.492271549999713898e-02,-1.380550861358642578e-02,-9.595099836587905884e-03,6.178091745823621750e-03,-2.537763305008411407e-02,-1.848278567194938660e-02,1.629006676375865936e-02,6.805540528148412704e-03,2.044549211859703064e-02,-8.786660619080066681e-03,-1.323180459439754486e-02,8.387191221117973328e-03,-3.476014360785484314e-02,-3.064639121294021606e-02,2.457698434591293335e-02,1.047081500291824341e-02,2.671775780618190765e-02,2.999342279508709908e-03,9.514820761978626251e-03,-1.993612572550773621e-02,2.112468890845775604e-02,6.069799885153770447e-03,1.099749654531478882e-02,7.970742881298065186e-04,-1.700584031641483307e-02,-2.078188769519329071e-02,-2.089158631861209869e-02,2.734976354986429214e-03,2.867946587502956390e-02,-2.036827150732278824e-03,1.020464114844799042e-02,-1.446290686726570129e-02,-3.141478169709444046e-03,1.181177049875259399e-02,-2.204263396561145782e-02,-1.309485360980033875e-02,-2.440359070897102356e-02,8.017431013286113739e-03,-2.467805705964565277e-02,1.269430108368396759e-02,-7.795908604748547077e-04,7.484771311283111572e-03,-2.716390043497085571e-02,-2.873387932777404785e-02,3.055112995207309723e-02,-2.892904216423630714e-03,3.887466713786125183e-02,3.834571316838264465e-02,5.711994599550962448e-04,-2.096089161932468414e-02,-2.903741598129272461e-02,-3.123623318970203400e-02,-3.198270127177238464e-02,-1.342384703457355499e-02,-2.703389339148998260e-02,1.331940852105617523e-02,-2.490565739572048187e-02,-2.816440910100936890e-02,6.309853633865714073e-04,-5.172046367079019547e-03,-2.195481210947036743e-02,-9.004062972962856293e-03,-1.865595206618309021e-02,-1.440277229994535446e-02,-1.568531058728694916e-02,-1.098562683910131454e-02,3.955028206110000610e-02,-2.880094759166240692e-02,3.008218482136726379e-02,-1.404577028006315231e-02,1.108409836888313293e-03,2.478075679391622543e-03,1.512440945953130722e-02,6.982591003179550171e-07,-2.269447408616542816e-02,1.304036937654018402e-02,-1.275805011391639709e-02,-2.312410436570644379e-02,2.589866891503334045e-02,2.799404412508010864e-02,-3.332272544503211975e-02,-3.415808081626892090e-02,-2.001358382403850555e-02,-1.085966639220714569e-02,-1.454535406082868576e-02,-3.194305300712585449e-02,-1.605218090116977692e-02,9.846989065408706665e-03,2.615385875105857849e-02,-2.729749307036399841e-02,2.375319600105285645e-03,3.279621526598930359e-02,3.126975148916244507e-02,1.275035645812749863e-02,-1.472463272511959076e-02,2.317837439477443695e-03,1.564180292189121246e-02,1.796096749603748322e-02,-3.172332420945167542e-02,2.622515708208084106e-02,2.915414795279502869e-02,9.149918332695960999e-05,1.231370493769645691e-02,-3.255656454712152481e-03,1.552402134984731674e-02,3.167142858728766441e-05,2.851074561476707458e-02,1.000334508717060089e-03,-4.209531471133232117e-04,-2.647776901721954346e-02,1.829071901738643646e-02,3.370169177651405334e-02,3.210993111133575439e-02,1.812547259032726288e-02,1.008577831089496613e-02,1.324495952576398849e-02,-1.663200184702873230e-02,-3.759665414690971375e-02,2.164621092379093170e-02,1.556889433413743973e-02,-8.051502518355846405e-03,-1.532277371734380722e-02,-9.584166109561920166e-03,3.154445812106132507e-02,2.188644558191299438e-02,-2.812796272337436676e-02,2.442018501460552216e-02,-8.773949928581714630e-03,3.604995785281062126e-03,-1.842252537608146667e-02,2.962513593956828117e-03,2.508688904345035553e-02,-3.082139417529106140e-02,-2.363807521760463715e-02,-9.693914093077182770e-03,-3.001299500465393066e-02,3.101363405585289001e-02,-3.453958407044410706e-02,8.334423415362834930e-03,-3.497290238738059998e-02,5.765652749687433243e-03,3.038169071078300476e-02,1.884969882667064667e-02,-3.698582993820309639e-03,-3.440285474061965942e-02,-3.552185744047164917e-02,1.811989583075046539e-02,-1.968470029532909393e-02,1.373353973031044006e-02,3.546982631087303162e-02,3.654278814792633057e-02,-2.764254249632358551e-02,1.520973350852727890e-02,-9.082918986678123474e-03,3.796880692243576050e-02,1.484517659991979599e-02,1.050982531160116196e-02,-9.958394803106784821e-03,3.388384589925408363e-03,3.472849726676940918e-02,-1.580436713993549347e-02,-9.148760698735713959e-03,3.664126619696617126e-02,3.885585069656372070e-02,1.772558316588401794e-02,-2.232389338314533234e-02,-7.478354964405298233e-03,-4.025160335004329681e-03,-3.614030033349990845e-02,-1.060573570430278778e-02,1.846083998680114746e-02,-3.976370394229888916e-02,-3.900272771716117859e-02,-3.971479460597038269e-02,8.905903436243534088e-03,1.590230036526918411e-03,-2.779666520655155182e-02,1.862714812159538269e-02,4.362088162451982498e-03,-4.749758634716272354e-03,-2.371737174689769745e-02,2.776775136590003967e-02,-2.124239131808280945e-02,-5.233106203377246857e-03,1.282677752897143364e-03,1.223232783377170563e-02,-2.253324724733829498e-02,-3.982287365943193436e-03,-2.704515308141708374e-02,9.603241458535194397e-03,-1.673784339800477028e-03,-2.174990368075668812e-04,2.637088298797607422e-02,-9.452814236283302307e-03,-2.669531479477882385e-02,2.128962241113185883e-02,1.307183317840099335e-02,1.460327021777629852e-02,3.253239206969738007e-03,1.566842012107372284e-02,4.677128046751022339e-03,1.615058444440364838e-02,-8.168721571564674377e-03,-2.107837609946727753e-02,1.334355212748050690e-02,-5.987321026623249054e-03,-1.126129552721977234e-02,-1.058501377701759338e-02,2.297952771186828613e-02,-9.142448194324970245e-03,-1.900601387023925781e-02,1.327445916831493378e-02,-1.677922531962394714e-02,1.207656692713499069e-02,-3.590726293623447418e-03,-1.872186362743377686e-02,3.282702714204788208e-02,1.162851043045520782e-02,8.156605996191501617e-03,1.165009103715419769e-02,-2.191809006035327911e-02,-1.931079104542732239e-02,4.700038582086563110e-03,1.902798749506473541e-02,-7.343728560954332352e-03,-7.357035297900438309e-03,1.432154979556798935e-02,-5.620883777737617493e-03,1.272699679248034954e-03,-3.060389868915081024e-02,3.197681531310081482e-02,-1.410039886832237244e-02,-1.778431050479412079e-02,3.164052963256835938e-02,-4.024665802717208862e-03,2.740366756916046143e-02,1.274379342794418335e-02,-3.060797415673732758e-02,1.970844157040119171e-02,-1.568854413926601410e-02,-1.817347854375839233e-02,1.673755235970020294e-02,2.065411768853664398e-02,4.127133870497345924e-04,1.903674565255641937e-02,-8.993348106741905212e-03,2.868905849754810333e-02,1.219848170876502991e-03,1.387390214949846268e-02,1.468242052942514420e-02,1.961062289774417877e-02,-8.052447810769081116e-03,1.130043528974056244e-02,2.424620091915130615e-02,-3.211495280265808105e-02,2.542459405958652496e-02,2.008236013352870941e-02,4.045851901173591614e-02,-1.216540951281785965e-02,1.000649202615022659e-02,2.055220119655132294e-02,-1.899353973567485809e-02,-1.781546510756015778e-02,-3.011896740645170212e-03,9.042598307132720947e-03,6.525771226733922958e-03,-1.330228708684444427e-02,1.649952493607997894e-03,6.529935169965028763e-03,2.467761002480983734e-02,-3.907653689384460449e-02,-1.668516546487808228e-02,-1.601941138505935669e-02,-2.453451044857501984e-02,1.614433340728282928e-02,-2.224954403936862946e-02,6.148593383841216564e-04,-1.809385605156421661e-02,-3.733080625534057617e-02,-2.994271926581859589e-03,1.006375439465045929e-02,2.886012382805347443e-02,6.566501688212156296e-03,1.003923080861568451e-02,1.034878287464380264e-02,1.030904613435268402e-02,9.882231242954730988e-03,1.226324308663606644e-02,-3.308953344821929932e-02,1.745256781578063965e-02,3.078239387832581997e-04,1.367210410535335541e-02,-5.831585265696048737e-03,1.599684916436672211e-02,7.436031010001897812e-03,1.822767779231071472e-03,-2.709539420902729034e-02,-2.034238353371620178e-02,5.032917484641075134e-03,2.650169283151626587e-02,1.061554905027151108e-02,2.005574759095907211e-03,2.470525912940502167e-02,1.068752724677324295e-02,-7.495481520891189575e-03,-2.397926710546016693e-02,-3.680797666311264038e-02,1.889059436507523060e-03,1.396857015788555145e-02,-2.521415799856185913e-02,-1.178817171603441238e-02,-2.516974695026874542e-02,-3.258657082915306091e-02,7.543389685451984406e-03,-3.532028943300247192e-02,-3.524804860353469849e-02,1.561425905674695969e-02,-2.269952744245529175e-02,-5.803623702377080917e-03,-8.333444595336914062e-03,-1.628676243126392365e-02,1.338988821953535080e-02,-2.093221247196197510e-02,-1.534947007894515991e-02,3.692905418574810028e-03,-3.899675980210304260e-02,-2.255090139806270599e-02,1.890332438051700592e-02,-4.585505812428891659e-04,-5.313133820891380310e-03,2.476881816983222961e-02,-5.458456464111804962e-03,1.303815282881259918e-02,-3.370942920446395874e-02,1.971552893519401550e-02,3.347589634358882904e-03,2.118675597012042999e-02,9.767170064151287079e-03,-8.110253140330314636e-03,1.501720771193504333e-02,-2.584842778742313385e-02,-1.847152248956263065e-03,2.773046679794788361e-02,-3.965586423873901367e-03
-2.341290563344955444e-02,2.766684256494045258e-02,2.989544346928596497e-02,3.611513646319508553e-03,2.342379279434680939e-02,2.147994749248027802e-02,-7.996580563485622406e-03,2.263286896049976349e-02,3.543248400092124939e-02,-4.301799461245536804e-03,-1.466230023652315140e-02,1.825205050408840179e-03,-3.614157065749168396e-02,-7.098086643964052200e-03,-1.336448476649820805e-03,-1.416235510259866714e-02,-3.519240766763687134e-02,-2.156052924692630768e-02,2.514906972646713257e-02,-4.034536425024271011e-03,-2.346741035580635071e-02,-1.314936857670545578e-02,-2.328264061361551285e-03,7.622642442584037781e-03,-6.329766474664211273e-03,-1.495128963142633438e-02,1.913125254213809967e-02,-1.174780353903770447e-02,2.974310144782066345e-02,-4.345455672591924667e-03,2.167538367211818695e-02,-6.111153867095708847e-03,1.129080355167388916e-02,4.579079803079366684e-03,2.295571193099021912e-02,-2.226197905838489532e-02,-1.280210074037313461e-02,-1.582517474889755249e-02,2.410818450152873993e-02,-2.599401585757732391e-02,-7.204118883237242699e-04,-1.520477142184972763e-02,-3.438860177993774414e-02,-3.805872052907943726e-02,2.654094994068145752e-02,-2.253608778119087219e-02,-3.067274950444698334e-02,-8.924804627895355225e-03,-3.871659561991691589e-02,-2.722607739269733429e-02,2.821929939091205597e-02,-4.046526178717613220e-02,-2.085332386195659637e-02,5.580565892159938812e-03,-2.293766476213932037e-02,-2.608958072960376740e-02,1.030998653732240200e-03,-1.974828355014324188e-02,2.955210022628307343e-02,3.699301183223724365e-02,-1.666351035237312317e-02,-4.032038897275924683e-02,-1.719383895397186279e-02,5.837474483996629715e-03,-1.205143332481384277e-02,-2.072643116116523743e-02,-2.166911959648132324e-03,-1.779992319643497467e-02,3.553210757672786713e-03,-1.203324180096387863e-02,1.514631602913141251e-02,-4.008452966809272766e-02,1.772685348987579346e-02,1.401614025235176086e-02,-2.057352103292942047e-02,-7.427567616105079651e-03,2.636095322668552399e-02,2.931516431272029877e-02,-3.949881345033645630e-02,1.673508994281291962e-02,-2.915977500379085541e-03,-1.761099696159362793e-02,4.984310944564640522e-04,1.504127494990825653e-02,-2.765567600727081299e-02,3.528784215450286865e-02,9.108714293688535690e-04,1.189957279711961746e-02,-2.168895117938518524e-02,-2.636811137199401855e-02,1.603628857992589474e-03,1.835007034242153168e-02,1.988197490572929382e-02,-3.403581678867340088e-02,-5.439424421638250351e-03,2.636460028588771820e-02,2.044791541993618011e-02,-2.278549037873744965e-02,-3.106954135000705719e-02,2.037008665502071381e-02,-1.304687932133674622e-02,-1.842496357858181000e-02,9.952044114470481873e-03,3.400298301130533218e-03,-1.539547811262309551e-03,1.186323538422584534e-02,2.598027326166629791e-02,-1.766187511384487152e-02,2.147290669381618500e-02,-1.507965195924043655e-02,3.437085822224617004e-02,-3.078768216073513031e-02,1.509609445929527283e-02,-2.762075141072273254e-02,8.850141428411006927e-03,3.408318758010864258e-02,2.069486491382122040e-02,1.482514664530754089e-02,-7.333325687795877457e-03,1.575871743261814117e-02,-3.209704905748367310e-02,6.909835617989301682e-03,-3.099695779383182526e-02,1.483715511858463287e-02,-2.434659190475940704e-02,-2.035128697752952576e-02,1.676238374784588814e-03,9.180547669529914856e-03,-7.885768078267574310e-03,-3.552646934986114502e-02,-2.155788242816925049e-02,-1.017985027283430099e-02,8.405398577451705933e-03,-6.482996512204408646e-03,-1.576867140829563141e-02,1.743122190237045288e-02,-2.613214077427983284e-03,-1.367296371608972549e-02,-3.952518105506896973e-02,-2.803409472107887268e-02,-3.495369106531143188e-02,7.708809338510036469e-03,-1.073722075670957565e-02,-1.803208142518997192e-02,-4.011119902133941650e-02,-7.276385556906461716e-03,-8.589309640228748322e-03,7.835862343199551105e-04,-4.240244161337614059e-03,-3.445616737008094788e-02,9.707410819828510284e-03,2.904861606657505035e-02,-2.804398164153099060e-02,-1.552132796496152878e-02,6.016167812049388885e-03,9.385270066559314728e-03,1.294992491602897644e-02,-1.340859010815620422e-02,1.048975344747304916e-02,-2.608028054237365723e-02,2.790438570082187653e-02,3.190855681896209717e-02,3.068358264863491058e-02,-4.520711023360490799e-03,1.560274884104728699e-02,1.281743030995130539e-02,9.243430569767951965e-03,2.245084568858146667e-02,5.427361000329256058e-03,2.831218019127845764e-02,-3.997417166829109192e-02,-9.710622951388359070e-03,-3.888804838061332703e-02,-5.480020307004451752e-03,2.957117557525634766e-02,-5.257442127913236618e-03,-2.761818282306194305e-02,-1.428872463293373585e-03,-2.784287743270397186e-02,-5.829036235809326172e-03,4.425575025379657745e-05,-1.573115936480462551e-03,-2.223533019423484802e-02,-6.518528331071138382e-03,-1.948314718902111053e-02,1.097462605684995651e-02,3.014785051345825195e-02,-2.622747607529163361e-02,-1.089666504412889481e-02,1.388254202902317047e-02,2.503463998436927795e-02,3.197181224822998047e-02,-5.869329907000064850e-03,1.236206293106079102e-02,1.936755701899528503e-02,1.131738256663084030e-02,-1.139975804835557938e-02,8.351366966962814331e-03,-3.374572470784187317e-02,-5.893399938941001892e-03,6.638537161052227020e-03,-1.580538973212242126e-02,-5.665062461048364639e-03,1.928830333054065704e-02,-1.865092851221561432e-02,1.221478264778852463e-02,-3.091792948544025421e-02,-9.985164739191532135e-03,-5.899873096495866776e-03,1.230547204613685608e-02,-2.861006557941436768e-02,-2.861449262127280235e-03,-1.871842518448829651e-02,-3.051378019154071808e-02,-7.855000905692577362e-03,1.176622882485389709e-02,3.925364464521408081e-02,2.249722369015216827e-02,3.325601667165756226e-02,8.054543286561965942e-03,-3.119145147502422333e-02,3.328695893287658691e-02,1.615974679589271545e-02,-2.107321657240390778e-02,8.101080544292926788e-03,7.146102376282215118e-03,2.706403099000453949e-02,9.874821640551090240e-03,-3.417574241757392883e-02,-3.804489225149154663e-02,-1.052761636674404144e-02,1.857351697981357574e-02,-3.255161270499229431e-02,-1.377458963543176651e-02,3.013026434928178787e-05,-2.198330871760845184e-02,1.085240161046385765e-03,1.849412545561790466e-02,2.593360655009746552e-02,-1.964808441698551178e-02,-2.409208379685878754e-02,-2.081950940191745758e-02,-2.630227804183959961e-02,-9.567040018737316132e-03,-2.683566138148307800e-02,6.317121908068656921e-03,-4.118020180612802505e-03,3.211144357919692993e-02,2.286125533282756805e-02,-4.624820314347743988e-03,2.772534266114234924e-02,-2.910259738564491272e-02,2.534990571439266205e-02,-2.073449641466140747e-02,-3.920328617095947266e-02,-9.455111809074878693e-03,-1.678253896534442902e-02,-3.918483853340148926e-02,-2.231954969465732574e-02,-7.660052273422479630e-03,-1.540954504162073135e-02,-1.586561324074864388e-03,6.479083094745874405e-04,2.907587215304374695e-02,4.789766389876604080e-03,7.475108839571475983e-03,2.045301534235477448e-02,2.066588588058948517e-02,-2.240335009992122650e-02,-1.615871675312519073e-02,4.703047685325145721e-03,3.029372170567512512e-02,-3.020693175494670868e-02,3.704199334606528282e-04,-9.805019944906234741e-03,2.629576437175273895e-02,1.980623975396156311e-02,-1.931948587298393250e-02,-1.827641855925321579e-03,2.970769628882408142e-02,-2.597243152558803558e-02,5.227605346590280533e-03,-1.641541719436645508e-02,-2.987591549754142761e-02,-2.773746103048324585e-02,2.943234890699386597e-02,-1.038120687007904053e-02,-2.375659719109535217e-02,1.945422217249870300e-02,-9.311444126069545746e-03,-4.276030696928501129e-03,3.580948710441589355e-02,1.225558388978242874e-02,2.910818345844745636e-02,-1.258257776498794556e-03,-2.885091491043567657e-02,-2.438047155737876892e-02,-2.100031636655330658e-02,-7.415212690830230713e-03,3.678638860583305359e-02,-2.253714576363563538e-02,-5.391903221607208252e-03,2.321045100688934326e-02,-1.630550809204578400e-02,-2.186902426183223724e-02,-7.856441661715507507e-03,-3.125341981649398804e-02,1.548447180539369583e-02,-2.019153349101543427e-02,-2.103893551975488663e-03,-2.092652395367622375e-02,-3.401383757591247559e-02,1.502709835767745972e-02,-1.088834367692470551e-02,-2.313743531703948975e-02,1.305516716092824936e-02,-1.209433656185865402e-02,-1.309361867606639862e-02,1.125934720039367676e-02,-1.986421644687652588e-02,1.179030537605285645e-02,8.586748503148555756e-03,-1.811372232623398304e-03,-1.757424511015415192e-02,-1.505637820810079575e-02,1.274800859391689301e-03,-1.415014453232288361e-02,3.681320697069168091e-02,4.762387834489345551e-03,-1.096956431865692139e-02,2.753927558660507202e-02,1.716705597937107086e-02,-2.639112249016761780e-02,2.934070676565170288e-02,-3.350134938955307007e-02,-2.644745819270610809e-02,-8.067688904702663422e-04,-2.500257082283496857e-02,1.924983598291873932e-02,2.404310926795005798e-02,3.690901771187782288e-02,-2.699391916394233704e-03,-1.439614593982696533e-02,-1.915917149744927883e-03,3.123728791251778603e-03,-2.868937095627188683e-03,-1.710190065205097198e-02,-1.010506227612495422e-02,2.511727996170520782e-02,-3.172877803444862366e-02,-2.726958505809307098e-02,-2.135030739009380341e-02,2.305572107434272766e-02,4.036111012101173401e-02,1.638746075332164764e-02,1.768032321706414223e-03,1.682622358202934265e-02,4.698649048805236816e-03,2.042379789054393768e-02,3.084172680974006653e-02,7.014688570052385330e-03,-1.154771633446216583e-02,-8.254950866103172302e-03,-8.204671554267406464e-03,-2.482599951326847076e-02,3.796105459332466125e-02,-3.207400068640708923e-02,-2.388726733624935150e-02,2.804605104029178619e-02,2.476075477898120880e-02,3.044972196221351624e-02,-1.895108842290937901e-03,2.687061205506324768e-03,3.804440051317214966e-02,-3.589360974729061127e-03,-6.068876944482326508e-03,-1.040624734014272690e-02,-1.294677238911390305e-02,-2.906771004199981689e-02,2.510282211005687714e-02,2.906017005443572998e-02,1.890835724771022797e-02,3.268169239163398743e-03,2.161753550171852112e-02,-3.809388261288404465e-03,1.112167723476886749e-02,1.717325672507286072e-02,8.727319538593292236e-03,1.203906489536166191e-03,-1.667463779449462891e-02,-1.284482330083847046e-02,5.919176153838634491e-03,-1.358443032950162888e-02,-1.754331588745117188e-02,-7.428157143294811249e-03,7.956128567457199097e-03,-2.626586891710758209e-02,3.355573397129774094e-03,-1.451514475047588348e-02,3.682928159832954407e-03,3.686240687966346741e-02,9.414003230631351471e-03,1.821174100041389465e-02,-1.214076764881610870e-02,1.014368236064910889e-02,2.940582856535911560e-02,-2.535492740571498871e-02,-2.459348365664482117e-02,-1.049665967002511024e-03,2.376660890877246857e-02,3.428861126303672791e-02,1.291794143617153168e-02,2.473960071802139282e-02,2.371906861662864685e-02,-1.098482031375169754e-02,-9.068820625543594360e-03,-5.452531389892101288e-03,-9.401765652000904083e-03,2.820985205471515656e-02,8.870441466569900513e-03,9.492396377027034760e-03,-1.922486582770943642e-03,-2.183637768030166626e-02,1.574858091771602631e-02,-5.357854999601840973e-03,-1.259193755686283112e-02,1.656636036932468414e-02,7.301269099116325378e-03,2.147196047008037567e-02,3.521073237061500549e-02,2.578709647059440613e-02,5.109741818159818649e-03,1.508119236677885056e-02,-2.679085545241832733e-02,-1.297574583441019058e-02,-2.480494417250156403e-02,3.568870713934302330e-03,3.608850762248039246e-02,4.053132608532905579e-02,2.860717661678791046e-02,2.228272706270217896e-02,4.792549181729555130e-03,1.318089012056589127e-02,1.571988873183727264e-02,-1.734900288283824921e-02,3.594787046313285828e-02,3.496432676911354065e-02,8.254999294877052307e-03,-3.037566784769296646e-03,-2.453444339334964752e-02,2.601980417966842651e-02,1.703763939440250397e-02,2.312270365655422211e-02,-2.445212192833423615e-02,-6.742381956428289413e-03,1.344889961183071136e-02,-2.451252425089478493e-03,-2.134801633656024933e-02,-3.040116839110851288e-02,1.106087490916252136e-02,-1.024103909730911255e-02,1.570179685950279236e-02,-3.075198270380496979e-02,3.928151726722717285e-02,2.145859412848949432e-02,3.621121868491172791e-02,6.865285802632570267e-03,1.765224151313304901e-02,1.012330595403909683e-02,-1.542572630569338799e-03,-3.033143468201160431e-02,-6.263707764446735382e-03,3.053963556885719299e-02,3.832155838608741760e-02,7.563392631709575653e-03,7.370289415121078491e-03,1.840574480593204498e-02,-5.266796797513961792e-03,-2.604239434003829956e-02,-2.708219550549983978e-02,-1.627447083592414856e-02,-9.284504689276218414e-03,-4.530392587184906006e-03,-2.244360558688640594e-02,1.842500991187989712e-03,2.255945466458797455e-02,-8.364344947040081024e-03,-2.096303366124629974e-02,2.985869161784648895e-02,-6.014032405801117420e-04,1.389951445162296295e-02,3.030650131404399872e-02,-7.131837774068117142e-03,3.611944243311882019e-02,-9.737119078636169434e-03,-2.043462917208671570e-02,2.248634956777095795e-02,2.033221535384654999e-02,1.410391926765441895e-02,-1.164462231099605560e-02,1.288480032235383987e-02,3.963993489742279053e-02,2.916957065463066101e-02,1.522331498563289642e-02,-2.549523487687110901e-02,1.529397070407867432e-02,2.923059836030006409e-02,3.421083092689514160e-02,2.219755016267299652e-02,-1.836277358233928680e-02,3.371575474739074707e-02,2.964355051517486572e-02,-1.411948539316654205e-02,-6.911634001880884171e-03,7.651485037058591843e-03,2.254126407206058502e-02,1.715167798101902008e-02,9.543333202600479126e-03,1.494577620178461075e-02,-2.003282867372035980e-02,-2.941400557756423950e-02,-1.167306303977966309e-02,-1.826249249279499054e-02,-1.464547775685787201e-02,-2.715215086936950684e-02,-1.366484537720680237e-02,2.464612200856208801e-02,1.342975720763206482e-02,3.239080309867858887e-02,-1.080430205911397934e-02,1.649686880409717560e-02,-2.933480218052864075e-02,-1.641420088708400726e-02,3.078627586364746094e-02,-3.377366065979003906e-02,-2.354575879871845245e-02,1.874028122983872890e-03,-2.829622104763984680e-02,2.191838435828685760e-02,3.478300571441650391e-02,3.674276173114776611e-02,1.101436000317335129e-02,4.436186980456113815e-03,-7.422344759106636047e-03,-6.933849304914474487e-03,-1.190736517310142517e-02,6.946793757379055023e-03,-1.731122843921184540e-02,7.091597653925418854e-03,2.171004377305507660e-02,2.538885734975337982e-02,1.661285571753978729e-02,-1.882901601493358612e-02,-1.071069622412323952e-03,5.796099547296762466e-03,-6.364996079355478287e-03,1.568721234798431396e-02,2.346722781658172607e-02,-2.606535796076059341e-03,3.637113142758607864e-03,-2.134119719266891479e-02,-2.724636904895305634e-02,-3.223206102848052979e-02,2.044740319252014160e-02,2.618880011141300201e-02,1.521279802545905113e-03,-2.122447267174720764e-02,7.804018445312976837e-03,3.042304515838623047e-02,-1.417780731571838260e-04,2.861175499856472015e-02,-2.973404712975025177e-02,-9.453567676246166229e-03,-1.269427500665187836e-02,1.514246873557567596e-02,1.577560789883136749e-02,-1.329158339649438858e-02,-2.173925284296274185e-03,5.486924666911363602e-03,3.985147457569837570e-03,-4.945080727338790894e-03,-2.565464377403259277e-02,-3.193562477827072144e-02,-1.433369889855384827e-02,3.529406338930130005e-02,-2.391327545046806335e-02,2.624285034835338593e-02,-1.675773598253726959e-02,-1.400355435907840729e-02,1.857438497245311737e-02,-1.940541714429855347e-02,3.605892881751060486e-02,-2.753281034529209137e-02,2.990985848009586334e-02,3.503709658980369568e-02,1.129100285470485687e-02,-3.035828843712806702e-02,-1.310417056083679199e-02,2.038707956671714783e-02,-2.467822283506393433e-02,4.087768960744142532e-03,-7.507604081183671951e-03,1.798046194016933441e-02,-6.805526558309793472e-03,1.295413635671138763e-02,6.351356860250234604e-03,1.801422238349914551e-02,1.911706291139125824e-02,-2.379226125776767731e-02,1.297563407570123672e-02,5.964560434222221375e-03,-1.773764006793498993e-02,3.688442707061767578e-02,1.793939247727394104e-02,2.703258767724037170e-02,2.099926210939884186e-02,-2.710784412920475006e-02,2.708167396485805511e-02,4.674409981817007065e-03,3.880034014582633972e-02,-2.055610530078411102e-02,-3.059851564466953278e-02,2.884852513670921326e-02,-2.589527983218431473e-03,1.898759976029396057e-02,-1.589903049170970917e-02,3.423035517334938049e-02,-2.100603282451629639e-02,1.223953999578952789e-02,2.340138703584671021e-02,-2.628773450851440430e-03,1.959028653800487518e-02,2.822250872850418091e-02,-6.356510333716869354e-03,1.881990768015384674e-02,-7.303595775738358498e-04,2.219342812895774841e-02,-1.881262660026550293e-02,-5.215861834585666656e-03,3.656840417534112930e-04,3.052237257361412048e-02,1.818076521158218384e-02,-1.158733479678630829e-02,1.963656954467296600e-02,-2.085877396166324615e-02,-3.027680702507495880e-02,2.183006703853607178e-02,-2.518597245216369629e-02,2.109522931277751923e-02,-3.436233103275299072e-02,-2.793557755649089813e-02,-4.010892659425735474e-02,1.008773408830165863e-02,9.842892177402973175e-03,-3.606733307242393494e-02,1.666335947811603546e-02,1.091259997338056564e-03,3.178672865033149719e-02,1.248207408934831619e-02,6.710554007440805435e-03,-2.972584590315818787e-02,2.643208950757980347e-02,3.985855355858802795e-02,-1.797612570226192474e-02,1.117641758173704147e-02,-2.133437618613243103e-02,2.143294736742973328e-02,1.562966220080852509e-02,-2.720396779477596283e-02,-2.264027670025825500e-02,7.792426273226737976e-03,-2.083695121109485626e-02,3.214222192764282227e-02,-1.394585240632295609e-02,2.883825823664665222e-02,2.538431622087955475e-02,2.257190085947513580e-02,2.564429305493831635e-02,-3.638025000691413879e-02,-2.200792729854583740e-02,-4.036949574947357178e-02,6.218864582479000092e-03,8.001864887773990631e-03,2.205605059862136841e-02,-8.848576107993721962e-04,3.266566619277000427e-02,-4.676130134612321854e-03,3.113554231822490692e-02,4.044298082590103149e-02,-8.165735751390457153e-03,-3.143850248306989670e-03,2.425881102681159973e-02,-9.557532146573066711e-03,7.357961498200893402e-03,-3.045540861785411835e-02,2.431840263307094574e-02,3.393867984414100647e-02,-2.673287875950336456e-03,2.394005283713340759e-02,-1.691132411360740662e-02,9.413604624569416046e-03,-2.726402506232261658e-02,-1.643544435501098633e-02,1.815435476601123810e-02,5.435181315988302231e-03,3.381929919123649597e-02,-1.586116105318069458e-02,2.278258278965950012e-02,-1.232963800430297852e-02,-1.632210053503513336e-02,-1.542370859533548355e-02,-2.120686881244182587e-02,4.027272015810012817e-02,-1.645409967750310898e-03,-4.035701043903827667e-03,3.628958761692047119e-02,1.840382069349288940e-02,3.226475417613983154e-02,-3.062904626131057739e-02,-8.424696512520313263e-03,-7.492898963391780853e-03,1.519692596048116684e-02,2.821123413741588593e-02,1.851306296885013580e-02,2.402030676603317261e-02,2.941844612360000610e-02,2.034659124910831451e-02,2.886556461453437805e-02,2.793482132256031036e-02,2.380000893026590347e-03,3.483228385448455811e-02,3.341707214713096619e-02,-2.931490726768970490e-02,1.569030620157718658e-02,-3.021693415939807892e-02,-1.506041176617145538e-02,9.275315329432487488e-03,-2.854698523879051208e-02,3.835861384868621826e-02,3.415282582864165306e-03,-1.609277352690696716e-02,1.272290293127298355e-02,3.353049233555793762e-02,4.883603192865848541e-03,-2.795871905982494354e-02,-2.826402708888053894e-02,2.041133819147944450e-03,-1.367123890668153763e-02,3.666472062468528748e-02,3.794005513191223145e-02,2.260904200375080109e-02,9.738039225339889526e-03,-1.216769311577081680e-02,2.673174720257520676e-03,1.493615005165338516e-02,-2.447601035237312317e-02,-1.687440276145935059e-02,-2.828585729002952576e-02,-1.603456214070320129e-02,-3.215036913752555847e-02,1.244020531885325909e-04,-9.400639683008193970e-03,-2.339680306613445282e-02,4.559745080769062042e-03,2.984877675771713257e-03,-2.830201201140880585e-02,8.815139532089233398e-03,-5.991738289594650269e-03,-2.957958262413740158e-03,9.982706978917121887e-03,9.913820773363113403e-03,1.217909157276153564e-02,2.940557897090911865e-02,1.527832355350255966e-02,-9.764443151652812958e-03,1.813562586903572083e-02,3.185644000768661499e-02,-1.408851984888315201e-02,-1.059018447995185852e-02,6.745538674294948578e-03,2.968689426779747009e-02,-1.192050403915345669e-04,-2.601982094347476959e-02,1.128520350903272629e-02
2.665351144969463348e-02,1.004311069846153259e-02,-1.059897895902395248e-02,-2.061611972749233246e-02,-5.003899335861206055e-03,-7.872641086578369141e-03,1.237928029149770737e-02,1.467194408178329468e-02,-2.722914796322584152e-03,1.196103519760072231e-03,2.848852239549160004e-02,2.603903971612453461e-02,7.746474584564566612e-04,1.745022460818290710e-02,7.867811247706413269e-03,2.039633691310882568e-02,-4.631502553820610046e-03,1.926589012145996094e-02,1.588082313537597656e-02,2.155355550348758698e-02,-1.851027458906173706e-02,3.128000721335411072e-02,3.122444730252027512e-03,-8.586078882217407227e-03,2.417091839015483856e-02,2.390829287469387054e-02,-2.366393432021141052e-02,-3.896223846822977066e-03,9.303970262408256531e-03,1.262376178056001663e-02,3.412436321377754211e-02,2.803364070132374763e-03,2.359664626419544220e-02,-1.133598200976848602e-02,1.736374385654926300e-02,-1.629879325628280640e-02,2.726692333817481995e-02,1.888333447277545929e-02,2.168547734618186951e-02,-3.812576830387115479e-02,2.373225800693035126e-02,-3.854386880993843079e-02,-3.863967955112457275e-03,5.505308508872985840e-03,-2.348235063254833221e-02,3.137556836009025574e-02,-3.599921613931655884e-02,1.382389105856418610e-02,1.984761655330657959e-02,-3.036387264728546143e-03,-1.414177753031253815e-02,-1.459966506808996201e-02,5.890390835702419281e-03,4.196665249764919281e-03,2.283590380102396011e-03,1.399511191993951797e-02,2.852668240666389465e-02,9.581306949257850647e-03,-3.485689684748649597e-02,1.176938880234956741e-02,-3.063182160258293152e-02,-1.659548282623291016e-02,-3.529380075633525848e-03,-1.248873537406325340e-03,5.822630133479833603e-03,2.878696843981742859e-02,-4.504115786403417587e-04,-4.474858869798481464e-04,-3.991301357746124268e-02,-8.958958089351654053e-03,-7.623785175383090973e-03,2.496120706200599670e-02,9.263764950446784496e-04,8.178229443728923798e-03,-3.512983769178390503e-02,1.968055963516235352e-02,1.187397167086601257e-02,-3.151629120111465454e-02,3.209859132766723633e-02,1.130181271582841873e-02,-3.554416820406913757e-02,1.099446555599570274e-03,1.944601163268089294e-02,2.225540950894355774e-02,2.929936349391937256e-02,2.207093313336372375e-02,-2.855519019067287445e-02,1.211930881254374981e-03,2.543146349489688873e-02,3.304903954267501831e-02,-6.436168216168880463e-03,-1.688531716354191303e-03,-1.687223836779594421e-02,-3.183386847376823425e-02,1.334235724061727524e-02,-1.223528850823640823e-02,9.617694653570652008e-03,2.032761834561824799e-02,-2.475609444081783295e-02,3.676317166537046432e-03,-9.094424545764923096e-03,1.580871082842350006e-02,1.524829305708408356e-02,-2.313726395368576050e-02,-2.771467715501785278e-02,3.829408064484596252e-02,8.488976396620273590e-03,1.801897585391998291e-02,4.354642704129219055e-03,-3.051599301397800446e-02,3.444770723581314087e-02,2.373892627656459808e-02,2.224335260689258575e-02,-3.070912882685661316e-02,-8.056798949837684631e-03,1.625551097095012665e-02,-1.091407425701618195e-02,-3.394828364253044128e-02,-7.175046950578689575e-03,-4.574276972562074661e-03,-1.978141255676746368e-02,2.556808292865753174e-02,-2.804969996213912964e-02,-3.168937191367149353e-02,3.448407351970672607e-02,2.389449439942836761e-02,-2.886672969907522202e-03,-2.450595051050186157e-02,9.748030453920364380e-03,3.979549184441566467e-02,-2.811008878052234650e-02,3.270318359136581421e-02,-1.633617654442787170e-02,-5.356519483029842377e-03,3.278638049960136414e-02,3.227375447750091553e-02,-2.146650291979312897e-02,-1.370656583458185196e-02,-2.898320555686950684e-02,-1.206032838672399521e-02,1.100570056587457657e-02,-1.611306145787239075e-02,8.994453586637973785e-03,3.489207848906517029e-02,-1.243469305336475372e-02,3.836790099740028381e-02,1.786612533032894135e-02,-3.050746396183967590e-02,1.296609872952103615e-03,-1.076838932931423187e-02,1.174612529575824738e-02,3.888032957911491394e-02,7.820944883860647678e-04,-1.459872908890247345e-02,3.221378847956657410e-02,-1.683630794286727905e-02,-3.384276526048779488e-03,-9.942964650690555573e-03,3.065563738346099854e-02,2.328321523964405060e-02,2.655349113047122955e-02,2.885015122592449188e-02,-2.389653772115707397e-02,-1.383435074239969254e-02,3.224445506930351257e-02,3.460388258099555969e-02,3.768060356378555298e-02,-2.837411314249038696e-02,-2.350582554936408997e-02,3.618956543505191803e-03,1.836982183158397675e-02,6.365016452036798000e-04,1.139140035957098007e-02,1.788740628398954868e-03,2.619316801428794861e-02,-1.383531745523214340e-02,1.849599555134773254e-02,2.226212248206138611e-02,-9.756985120475292206e-03,-1.328479684889316559e-02,3.309825062751770020e-02,-1.172858290374279022e-02,1.655087247490882874e-02,2.056678943336009979e-02,3.837283328175544739e-02,-2.527080662548542023e-02,3.294436261057853699e-02,2.825318090617656708e-02,7.085316814482212067e-03,3.259873762726783752e-02,3.231593966484069824e-02,-1.805132627487182617e-02,-2.458323491737246513e-03,-2.487158216536045074e-02,-8.341640233993530273e-03,-2.372065745294094086e-02,-9.642009623348712921e-03,-3.417971730232238770e-02,1.914460211992263794e-02,-2.511216327548027039e-02,-1.210289821028709412e-02,1.854155585169792175e-02,2.095030993223190308e-02,6.408583372831344604e-03,1.672044396400451660e-02,1.020052470266819000e-02,-1.399070955812931061e-02,-3.214979078620672226e-03,5.990871693938970566e-03,1.149510405957698822e-02,-1.718556135892868042e-02,-2.182652708142995834e-03,-1.222819648683071136e-02,4.770151339471340179e-03,1.179933082312345505e-03,-2.822612971067428589e-02,1.973881199955940247e-02,5.852472968399524689e-03,4.518632777035236359e-03,-1.916159503161907196e-02,3.642795234918594360e-02,-3.846117062494158745e-03,3.398108528926968575e-03,-2.916218340396881104e-02,-3.029207326471805573e-02,1.336401514708995819e-02,-3.104137629270553589e-02,-3.871933370828628540e-02,1.065509673207998276e-02,4.409680608659982681e-03,1.926159113645553589e-02,2.743395604193210602e-02,1.892764121294021606e-02,2.201773971319198608e-02,6.962554529309272766e-03,2.601563557982444763e-02,-3.000382333993911743e-02,-1.889817975461483002e-02,-1.917211711406707764e-02,4.373628646135330200e-03,2.664335630834102631e-02,1.191058568656444550e-02,-2.824839204549789429e-02,-2.793637663125991821e-02,-1.673517934978008270e-02,1.918718218803405762e-02,3.270937874913215637e-02,-2.574981003999710083e-02,-6.934376433491706848e-04,2.063226886093616486e-03,-7.786831818521022797e-03,2.613728493452072144e-02,-8.591422811150550842e-03,2.382504194974899292e-02,-1.659900322556495667e-02,-2.359358780086040497e-02,-1.659178547561168671e-02,9.377164766192436218e-03,8.611557073891162872e-03,1.306011807173490524e-02,-2.872090414166450500e-02,2.405446767807006836e-02,1.446282211691141129e-02,3.447709232568740845e-02,1.920301653444766998e-02,-2.978860959410667419e-02,-5.412646103650331497e-03,-1.197474636137485504e-02,5.388177931308746338e-03,-2.584888972342014313e-02,-3.016825020313262939e-02,-1.874989829957485199e-02,2.712029963731765747e-02,1.649877429008483887e-02,2.922669239342212677e-02,3.060230985283851624e-02,-1.842123456299304962e-02,-8.484554477035999298e-03,-2.023302204906940460e-02,2.986091002821922302e-02,2.000209689140319824e-02,-3.310064598917961121e-02,1.398496516048908234e-02,2.787822857499122620e-02,-3.079903870820999146e-02,-2.964585088193416595e-02,-1.778751052916049957e-02,2.248509600758552551e-02,-3.369693178683519363e-03,-9.347248822450637817e-03,-2.855880884453654289e-03,2.104475349187850952e-02,-4.462206736207008362e-03,-6.605314090847969055e-03,-1.647018641233444214e-02,-2.675130963325500488e-02,1.069746632128953934e-02,2.934635616838932037e-02,-2.416226640343666077e-02,-3.933238331228494644e-03,2.443833276629447937e-02,-1.068999618291854858e-02,-2.538825571537017822e-02,2.255047112703323364e-02,2.031566761434078217e-02,2.903928980231285095e-02,-1.875679008662700653e-02,-3.723413217812776566e-03,-3.248881781473755836e-03,-3.972936421632766724e-02,2.024099696427583694e-03,-1.865554973483085632e-02,4.464048426598310471e-03,6.521308328956365585e-03,1.620331406593322754e-02,-1.763791777193546295e-02,-1.221150718629360199e-02,6.981795188039541245e-03,2.390996925532817841e-02,-2.605599351227283478e-02,7.918727584183216095e-03,8.477562107145786285e-03,7.121231406927108765e-03,-8.721406571567058563e-03,-1.323689147830009460e-02,8.578280918300151825e-03,2.963962219655513763e-02,3.857549279928207397e-02,2.813548780977725983e-03,-2.216074848547577858e-03,2.180387265980243683e-02,5.051750689744949341e-03,1.268694363534450531e-02,-1.808895543217658997e-02,1.520008966326713562e-02,-4.900864325463771820e-03,1.781547814607620239e-02,8.902563713490962982e-04,-3.852547332644462585e-02,1.616491936147212982e-02,1.570444926619529724e-02,-4.178967792540788651e-03,-1.123665831983089447e-03,1.301915291696786880e-02,-1.435492187738418579e-02,-2.840751316398382187e-03,1.015789061784744263e-02,3.626110777258872986e-02,1.457205601036548615e-02,-6.441933102905750275e-03,2.483239583671092987e-02,1.126854401081800461e-02,-2.054963447153568268e-02,-2.322149462997913361e-02,2.151896618306636810e-02,-2.540431357920169830e-02,-1.519143488258123398e-02,-5.310319364070892334e-03,-2.837606519460678101e-02,2.286698296666145325e-02,5.448866635560989380e-03,4.251973237842321396e-03,-2.086633071303367615e-02,7.833034731447696686e-03,-3.283087909221649170e-02,-3.016369976103305817e-02,-2.847316302359104156e-02,1.712146028876304626e-02,-6.565621588379144669e-03,-1.001940853893756866e-02,3.763635456562042236e-02,3.608670458197593689e-02,9.183527901768684387e-03,2.163309417665004730e-02,-2.792307548224925995e-02,2.988226152956485748e-02,1.970036886632442474e-02,1.899756491184234619e-02,-6.748677231371402740e-03,1.846921071410179138e-02,1.255046389997005463e-02,-1.664897985756397247e-02,-2.780246175825595856e-02,1.845647767186164856e-02,1.619891962036490440e-03,2.728444710373878479e-02,3.679232671856880188e-02,-2.247805241495370865e-03,3.619136661291122437e-02,3.098488412797451019e-02,2.108577266335487366e-02,2.005913108587265015e-02,1.186109613627195358e-02,8.937718346714973450e-03,-2.372507564723491669e-02,-1.654293201863765717e-02,-2.879196777939796448e-02,1.007113978266716003e-02,-7.287168409675359726e-04,2.583583630621433258e-02,6.129417568445205688e-03,-9.712894447147846222e-03,-2.016664110124111176e-02,1.507813483476638794e-02,1.345603447407484055e-02,2.324010245501995087e-02,-3.664854913949966431e-02,-1.417511608451604843e-02,-2.622668980620801449e-04,-3.550645895302295685e-03,-6.575199076905846596e-04,-2.062317728996276855e-02,-6.108076777309179306e-03,-7.169870659708976746e-03,1.271496340632438660e-02,3.221886232495307922e-02,-8.674173615872859955e-03,3.376632928848266602e-02,2.835406921803951263e-03,9.037686511874198914e-03,-2.945368736982345581e-02,1.148566044867038727e-02,-3.528727591037750244e-02,-3.257226198911666870e-02,-2.962404675781726837e-02,3.504195809364318848e-02,-1.782748661935329437e-02,2.481211535632610321e-02,1.403747964650392532e-02,-2.235281467437744141e-02,-2.741348557174205780e-02,-2.394980378448963165e-02,1.467431522905826569e-02,-3.565784916281700134e-02,2.071582013741135597e-03,-9.954093955457210541e-03,-1.841070875525474548e-02,-1.734754815697669983e-02,1.228864863514900208e-02,-7.564801722764968872e-03,6.221033632755279541e-03,-1.472451817244291306e-02,3.471624106168746948e-02,3.885342506691813469e-03,1.917011104524135590e-02,-8.762679062783718109e-03,-2.452339604496955872e-02,-1.222418714314699173e-02,3.314546123147010803e-02,1.728895306587219238e-02,-2.413624338805675507e-02,-5.329942796379327774e-03,-2.847083844244480133e-02,-1.983278989791870117e-02,9.201020933687686920e-03,-1.845747418701648712e-02,3.301518782973289490e-02,2.263830043375492096e-03,3.462249040603637695e-02,-3.326922282576560974e-02,8.118084631860256195e-03,1.243608072400093079e-03,2.935127913951873779e-02,-1.622883975505828857e-02,-3.511378599796444178e-04,2.970758825540542603e-02,-5.996585357934236526e-03,3.684901446104049683e-02,-2.509978972375392914e-02,2.437204495072364807e-02,1.378633733838796616e-02,-8.538294583559036255e-03,-2.584199607372283936e-02,1.661445759236812592e-02,2.226777374744415283e-02,1.069652102887630463e-02,1.061835559085011482e-03,-1.805647835135459900e-02,1.995936222374439240e-02,-3.102216403931379318e-03,-6.335276644676923752e-03,-7.838929072022438049e-03,6.169377826154232025e-03,-1.538511458784341812e-02,7.099526468664407730e-03,-2.568616531789302826e-02,-1.707583852112293243e-02,-2.459997124969959259e-02,-2.554789371788501740e-02,2.021987549960613251e-02,1.817806065082550049e-02,1.212724577635526657e-02,1.231167931109666824e-03,1.301177684217691422e-02,-2.201043628156185150e-02,3.682247921824455261e-02,-1.624336652457714081e-02,2.342358976602554321e-02,-1.221596263349056244e-02,-2.634440548717975616e-02,-3.045932203531265259e-02,8.166072890162467957e-03,7.997009903192520142e-03,7.697356864809989929e-03,-2.166868746280670166e-02,6.885924376547336578e-03,-3.746045380830764771e-02,2.731021307408809662e-02,-1.908375509083271027e-02,6.801155861467123032e-03,-4.495913162827491760e-04,-1.381040830165147781e-02,3.601703792810440063e-02,-5.980328656733036041e-03,1.479046698659658432e-02,-5.466604605317115784e-03,5.014386260882019997e-05,-2.496859990060329437e-02,-1.792977191507816315e-02,-1.306474674493074417e-02,-2.313997223973274231e-02,-2.487703412771224976e-02,1.092789694666862488e-02,4.912347067147493362e-03,3.035281784832477570e-02,1.350008416920900345e-02,8.553298190236091614e-03,5.799181759357452393e-03,1.394126005470752716e-02,-1.572101935744285583e-02,2.192304655909538269e-02,-2.779404632747173309e-02,2.255577221512794495e-02,-1.070970669388771057e-02,-9.932842105627059937e-03,-2.738143317401409149e-02,-1.201516669243574142e-02,8.878437802195549011e-03,1.409068983048200607e-02,3.471890464425086975e-02,8.036785759031772614e-03,-7.032411172986030579e-03,3.608719259500503540e-02,-4.005583003163337708e-02,2.053912263363599777e-03,8.290391415357589722e-03,-3.045037388801574707e-03,1.220244448632001877e-02,4.986166954040527344e-03,-2.670070156455039978e-02,3.991159610450267792e-05,-1.767638511955738068e-02,-2.641700580716133118e-02,3.159516677260398865e-02,-1.456246431916952133e-02,2.619644254446029663e-02,-2.369798161089420319e-02,-2.259549312293529510e-02,-1.419443171471357346e-02,-3.164092451333999634e-02,2.232652157545089722e-02,2.003539726138114929e-02,1.909288950264453888e-02,-2.530384063720703125e-02,1.269808411598205566e-02,2.015817351639270782e-02,-1.510740630328655243e-02,2.004190534353256226e-02,-3.740804269909858704e-03,7.987219840288162231e-03,3.001186298206448555e-03,-2.579570934176445007e-02,-9.798971936106681824e-03,1.373205147683620453e-02,-2.900357730686664581e-02,3.727692365646362305e-02,-3.862809156998991966e-03,-2.246107161045074463e-02,4.059221595525741577e-03,1.902121864259243011e-02,2.103661932051181793e-02,2.638599835336208344e-02,2.663819119334220886e-02,-1.896086893975734711e-02,-7.716168649494647980e-03,-2.471486479043960571e-02,1.483002211898565292e-02,-3.294111788272857666e-02,-2.500504441559314728e-02,1.419315021485090256e-02,1.705454848706722260e-02,2.277962304651737213e-02,1.329531893134117126e-02,9.264292195439338684e-03,2.869348786771297455e-02,5.491211544722318649e-03,-1.484761852771043777e-02,-1.640770584344863892e-02,1.210681721568107605e-02,4.024347290396690369e-02,-2.586543746292591095e-02,-2.135255187749862671e-02,1.384393591433763504e-02,8.785766549408435822e-03,-2.770221978425979614e-02,1.132568996399641037e-02,-1.627455092966556549e-02,2.787380293011665344e-02,8.383721113204956055e-03,-7.880100980401039124e-03,-1.551357656717300415e-02,-1.191970892250537872e-02,1.492689363658428192e-02,-3.134703636169433594e-02,1.481892541050910950e-02,1.447950582951307297e-02,4.471076652407646179e-03,1.040294673293828964e-02,2.766992198303341866e-03,-2.718036412261426449e-04,-8.063085377216339111e-03,4.006094485521316528e-02,3.068717569112777710e-02,6.480188108980655670e-03,-6.010998971760272980e-03,1.402214262634515762e-02,2.745590358972549438e-02,-1.621033810079097748e-02,-3.072979860007762909e-02,-1.932138693518936634e-03,2.821098268032073975e-02,3.703966503962874413e-04,3.819867596030235291e-02,-1.253991387784481049e-02,2.422150969505310059e-02,2.945050410926342010e-02,-1.769614033401012421e-02,4.169085994362831116e-03,1.016643247567117214e-03,-3.417399153113365173e-02,1.334760896861553192e-02,9.711172431707382202e-03,1.822088961489498615e-03,9.138659574091434479e-03,3.381286660442128778e-05,2.046268805861473083e-02,-1.456231065094470978e-02,-3.577595204114913940e-02,3.273000195622444153e-02,-1.375073008239269257e-02,3.702046722173690796e-02,-2.111046575009822845e-02,-2.218019403517246246e-02,1.034030877053737640e-02,2.834917604923248291e-02,-4.872592166066169739e-03,3.281237557530403137e-02,7.582928519695997238e-04,3.687078133225440979e-02,-1.232894137501716614e-02,3.517018631100654602e-02,-8.421376347541809082e-03,3.282629698514938354e-02,-3.218699712306261063e-03,4.015902802348136902e-02,3.165422752499580383e-02,-1.057447586208581924e-02,5.902922246605157852e-03,2.145677246153354645e-02,-9.275431744754314423e-03,-4.298071842640638351e-03,-3.333179280161857605e-02,-2.005302533507347107e-02,2.622756548225879669e-02,2.963380701839923859e-02,-2.131753414869308472e-02,-1.035728026181459427e-02,1.943229697644710541e-02,-3.649341408163309097e-03,2.779156528413295746e-02,1.649772748351097107e-02,-3.001674078404903412e-02,2.265870943665504456e-02,-1.658177562057971954e-02,7.166380062699317932e-03,3.994783759117126465e-02,2.435861714184284210e-02,-2.243811823427677155e-02,3.719922527670860291e-02,2.734250016510486603e-02,2.767561702057719231e-03,3.475781157612800598e-02,-2.356179244816303253e-02,-1.697626709938049316e-02,1.469720061868429184e-02,-2.337202429771423340e-02,-3.696262463927268982e-02,-2.596809156239032745e-02,-2.637261524796485901e-02,4.797999747097492218e-03,1.974243856966495514e-02,1.450968673452734947e-03,-2.918099798262119293e-02,-1.946176029741764069e-02,1.474863570183515549e-02,3.021103516221046448e-02,-2.906211093068122864e-02,2.392144501209259033e-02,-3.276796266436576843e-02,3.007693961262702942e-02,3.194474056363105774e-02,-1.336531806737184525e-02,-1.451103948056697845e-02,2.154370211064815521e-02,1.326762046664953232e-02,-2.284342423081398010e-02,3.924096468836069107e-03,-2.574535831809043884e-02,3.076949343085289001e-02,-2.279990352690219879e-02,-2.083981223404407501e-02,-7.155013154260814190e-04,-3.021278418600559235e-02,1.374563295394182205e-02,-1.171154156327247620e-02,2.740887738764286041e-02,3.074388206005096436e-02,-1.778572797775268555e-02,3.232540190219879150e-02,-1.368346065282821655e-02,-1.655437797307968140e-02,8.205984719097614288e-03,-1.641064509749412537e-02,8.720938116312026978e-03,-4.818168003112077713e-03,-2.414431795477867126e-02,-1.820716448128223419e-02,2.349860966205596924e-02,2.983860112726688385e-02,2.043392322957515717e-02,-2.317321300506591797e-02,-1.419215835630893707e-02,-1.790752820670604706e-02,9.534035809338092804e-03,-1.574757858179509640e-03,-1.657653227448463440e-02,1.123626250773668289e-03,2.886423841118812561e-02,1.804837770760059357e-02,-3.847365081310272217e-02,2.725566551089286804e-02,-2.515447884798049927e-02,-2.291725203394889832e-02,-1.182331796735525131e-02,-3.107986785471439362e-02,1.782562118023633957e-03,2.712990622967481613e-03,-6.116067059338092804e-03,-1.332444418221712112e-02,-2.946303226053714752e-02,-2.401444874703884125e-02,1.727882958948612213e-02,-1.315557025372982025e-02,2.931256406009197235e-02,9.085580706596374512e-03,-2.368966303765773773e-02,-8.113084360957145691e-03,-3.949943184852600098e-02,-3.329633548855781555e-02,-2.554229274392127991e-02,8.161765523254871368e-03,-1.748830638825893402e-02,1.271237735636532307e-03,2.989591658115386963e-02,3.046671487390995026e-02,2.483992837369441986e-02,-1.438762061297893524e-02,-4.794228821992874146e-03,1.937422715127468109e-02,1.105310861021280289e-02,-2.103494945913553238e-03,2.818381972610950470e-02,-1.215950120240449905e-02,1.657029241323471069e-02
-1.278811786323785782e-02,9.366828016936779022e-03,-2.500753849744796753e-02,1.498596183955669403e-02,2.558508701622486115e-02,2.074519358575344086e-02,3.553989157080650330e-02,-6.557473447173833847e-03,-1.949577406048774719e-02,2.803911268711090088e-02,2.288707345724105835e-02,-8.611253462731838226e-03,1.434235740453004837e-02,-1.738271117210388184e-02,-1.309919077903032303e-02,-1.619224250316619873e-02,8.444092236459255219e-03,-1.935941912233829498e-02,2.186990715563297272e-02,2.194707840681076050e-02,-1.319936360232532024e-03,-4.290844779461622238e-03,1.523236371576786041e-02,1.675754901953041553e-03,-1.329280249774456024e-02,7.116666994988918304e-03,-4.889373667538166046e-03,-4.490967374294996262e-03,-3.461196646094322205e-02,1.130432821810245514e-02,-1.696951501071453094e-02,-2.841021865606307983e-02,-2.712156623601913452e-02,-2.613945631310343742e-03,8.923465502448379993e-04,6.205964833498001099e-03,-3.894115984439849854e-02,-3.612570464611053467e-02,2.586817368865013123e-02,1.598073728382587433e-02,-1.027265563607215881e-02,-3.004192374646663666e-03,1.543102599680423737e-02,1.450284011662006378e-02,-3.649384155869483948e-02,-1.646057516336441040e-02,1.825930434279143810e-03,2.645965665578842163e-02,1.883864402770996094e-02,-2.436077687889337540e-03,2.342304959893226624e-02,1.445116661489009857e-02,-3.601291449740529060e-03,-1.968060806393623352e-02,5.981373135000467300e-03,-1.183709967881441116e-02,-2.961992844939231873e-02,-2.087298221886157990e-02,-7.032186258584260941e-03,4.438770934939384460e-03,-9.590035304427146912e-03,1.020577922463417053e-02,2.890025079250335693e-02,5.360078997910022736e-03,2.131113037467002869e-02,2.988546527922153473e-02,-1.057537645101547241e-02,9.222300723195075989e-03,-2.267245016992092133e-02,-1.752526499330997467e-02,-3.640374168753623962e-02,-5.934041459113359451e-03,-4.039150103926658630e-02,-1.703323610126972198e-02,1.430822815746068954e-02,1.426564529538154602e-03,-5.569137167185544968e-03,1.799244247376918793e-02,-2.626335807144641876e-02,-1.318209338933229446e-02,-2.706219907850027084e-03,2.240964211523532867e-02,-2.776614762842655182e-02,2.014802210032939911e-02,1.042035315185785294e-02,9.554973803460597992e-03,2.588904090225696564e-02,1.654095388948917389e-02,-3.921783715486526489e-02,2.990965731441974640e-02,3.026586957275867462e-02,-2.532308176159858704e-02,-1.266737096011638641e-02,-2.286310493946075439e-02,-2.381476387381553650e-02,-3.583486378192901611e-02,2.597237192094326019e-02,-3.741525113582611084e-02,-3.292080946266651154e-03,-3.804554417729377747e-02,2.834871225059032440e-02,2.529613114893436432e-02,-8.404942229390144348e-03,-3.262560814619064331e-02,-6.616189610213041306e-03,2.798566035926342010e-02,1.951054669916629791e-02,6.873082835227251053e-03,2.269903756678104401e-02,8.467798121273517609e-03,2.933204546570777893e-02,-2.361726947128772736e-02,4.832332022488117218e-03,8.455031551420688629e-03,1.869461499154567719e-02,-8.024599403142929077e-03,-4.267602227628231049e-03,-3.767305519431829453e-03,1.777074113488197327e-02,-3.719625994563102722e-03,-3.236107062548398972e-03,3.007433377206325531e-02,3.487123548984527588e-02,8.906634524464607239e-03,3.834583610296249390e-02,3.344810381531715393e-02,-2.312380634248256683e-02,3.609906882047653198e-02,3.929371386766433716e-02,-2.356005460023880005e-02,4.305661190301179886e-03,-1.689408672973513603e-03,-6.758272647857666016e-03,1.434213574975728989e-02,9.109376114793121815e-04,-1.891566440463066101e-02,-1.481862273067235947e-02,1.890684291720390320e-02,1.644895598292350769e-02,1.010751165449619293e-02,-5.298921372741460800e-03,-3.156566247344017029e-02,2.233641594648361206e-02,-1.610996201634407043e-02,2.896137535572052002e-02,-1.792623661458492279e-02,-2.768790349364280701e-02,2.942958660423755646e-02,2.528671361505985260e-02,1.346175000071525574e-02,1.718978211283683777e-02,-1.130530145019292831e-03,3.898321092128753662e-02,2.514522988349199295e-03,2.846305258572101593e-02,1.462472975254058838e-02,-2.785996720194816589e-02,-2.724538743495941162e-02,2.207663469016551971e-02,-2.184652723371982574e-02,-6.337041035294532776e-03,-1.958694867789745331e-02,2.139248698949813843e-02,3.177792206406593323e-02,9.264674969017505646e-03,-8.468979969620704651e-03,2.715663984417915344e-02,3.124340809881687164e-02,3.502728790044784546e-02,3.520236164331436157e-02,2.373336814343929291e-02,-2.394624520093202591e-03,3.976434469223022461e-02,3.309333231300115585e-03,2.418599650263786316e-02,2.278599143028259277e-02,1.401427295058965683e-02,-1.508314721286296844e-02,4.024128243327140808e-02,1.499567367136478424e-02,1.696597412228584290e-02,3.684945404529571533e-02,1.636127196252346039e-02,-3.040104731917381287e-02,-2.239969559013843536e-02,6.837678607553243637e-03,2.317547053098678589e-02,3.134679980576038361e-03,1.567623578011989594e-02,3.848129883408546448e-02,2.860304526984691620e-02,3.997594490647315979e-02,-1.503298990428447723e-02,-1.379515416920185089e-02,3.928162530064582825e-02,-8.708104491233825684e-03,-2.549459226429462433e-02,1.410878146998584270e-03,-1.735648885369300842e-02,3.922204300761222839e-02,1.804357022047042847e-02,-2.148263715207576752e-02,3.869412839412689209e-02,1.040113251656293869e-02,2.422716841101646423e-02,-2.725788205862045288e-02,-2.659299783408641815e-02,-2.476222440600395203e-02,-6.028322502970695496e-03,-2.314553782343864441e-02,-7.931938394904136658e-03,2.834062464535236359e-02,-2.819316089153289795e-02,1.484632492065429688e-02,9.226780384778976440e-03,-4.713506437838077545e-03,3.239221498370170593e-02,-2.370234392583370209e-02,-2.838900126516819000e-02,-2.482434362173080444e-02,-1.641187816858291626e-02,7.880619727075099945e-03,2.990317344665527344e-02,-2.032540179789066315e-02,1.282845623791217804e-04,-9.762464091181755066e-03,3.022227901965379715e-03,-1.895595900714397430e-02,-1.228083856403827667e-03,5.923765711486339569e-04,-6.479704286903142929e-03,-1.987655460834503174e-02,-8.899936452507972717e-03,-2.915361337363719940e-02,-2.951306058093905449e-03,-1.102225761860609055e-02,-2.247922495007514954e-02,1.066401228308677673e-02,3.094987571239471436e-02,3.877693414688110352e-02,2.530233934521675110e-02,2.549746818840503693e-02,-2.052874490618705750e-02,2.785691758617758751e-03,2.595254033803939819e-02,1.402604486793279648e-02,2.714550681412220001e-02,-2.728834562003612518e-02,1.849973574280738831e-02,1.277663558721542358e-02,1.180672738701105118e-02,3.927924111485481262e-02,-2.915405482053756714e-02,6.347969640046358109e-03,-3.050986677408218384e-02,9.662349708378314972e-03,-2.197960764169692993e-02,-1.117659732699394226e-02,1.054643653333187103e-02,-1.894127018749713898e-02,1.374753192067146301e-03,1.282233651727437973e-02,3.357640001922845840e-03,-2.056369790807366371e-03,-3.766687959432601929e-02,1.577381230890750885e-02,-2.308774925768375397e-02,3.511133417487144470e-02,3.256255015730857849e-02,2.111481316387653351e-02,2.876835875213146210e-02,-2.414550818502902985e-02,-6.631948053836822510e-04,3.122695907950401306e-02,-2.179102506488561630e-03,-1.771927997469902039e-02,1.906485669314861298e-02,1.830374449491500854e-02,3.560768067836761475e-02,1.716063916683197021e-02,1.419089734554290771e-03,-1.088807918131351471e-02,-4.447435494512319565e-04,-1.540219504386186600e-02,-2.885349467396736145e-02,4.436837043613195419e-03,9.795032441616058350e-03,-2.236507460474967957e-02,2.786060050129890442e-02,-1.440415810793638229e-02,6.095676682889461517e-03,-5.180033855140209198e-03,-1.293335016816854477e-02,-8.081350475549697876e-03,2.286164322867989540e-03,1.825316995382308960e-02,2.389931306242942810e-02,-8.807998965494334698e-04,-2.568577416241168976e-02,-3.685867041349411011e-02,-2.881638891994953156e-02,5.221469327807426453e-03,-1.174279605038464069e-03,1.886832527816295624e-02,3.858485445380210876e-02,-1.500766724348068237e-02,-2.275577560067176819e-02,-7.772647310048341751e-03,1.541630178689956665e-02,-1.151206158101558685e-02,-2.693003043532371521e-02,-2.857710421085357666e-02,1.198058715090155602e-03,-5.040139425545930862e-03,-3.965799883008003235e-02,-2.158186025917530060e-02,-1.951033808290958405e-02,-1.716185733675956726e-02,-2.648054063320159912e-02,-1.559125911444425583e-02,-1.117851864546537399e-02,-1.739645935595035553e-02,8.093488402664661407e-03,2.584258466958999634e-02,-1.693469285964965820e-02,1.077423244714736938e-02,2.650919184088706970e-02,1.468575280159711838e-02,-3.831312805414199829e-02,1.498261466622352600e-03,-2.741887420415878296e-02,-1.613131724298000336e-02,1.124420668929815292e-03,-2.716368995606899261e-03,-2.594956755638122559e-02,-1.008227746933698654e-02,-1.007142011076211929e-02,-2.625289745628833771e-02,2.337181940674781799e-03,-7.325004553422331810e-04,5.728390533477067947e-03,9.812834672629833221e-03,-1.815733313560485840e-02,-7.849557325243949890e-03,-6.656335201114416122e-03,-5.381661932915449142e-03,5.463724024593830109e-03,-1.644118316471576691e-02,-2.568549662828445435e-02,5.992675665766000748e-03,9.646098129451274872e-03,3.414176031947135925e-02,1.233401242643594742e-02,1.279852818697690964e-02,-2.599684894084930420e-02,-8.297389373183250427e-03,-1.678763516247272491e-02,-2.016139030456542969e-02,-1.457522436976432800e-02,5.609534680843353271e-03,1.775161921977996826e-02,8.696859702467918396e-03,-2.876484207808971405e-02,1.703334413468837738e-02,4.870192147791385651e-03,-3.955528885126113892e-02,-1.010121963918209076e-02,-3.015286289155483246e-02,1.952463760972023010e-02,1.705846749246120453e-02,-1.217622868716716766e-02,-3.367471322417259216e-02,-1.295381784439086914e-02,6.541947834193706512e-03,3.262240812182426453e-02,-1.618980057537555695e-02,2.538847969844937325e-03,-1.802716776728630066e-02,3.548282384872436523e-02,1.495064585469663143e-03,3.227192908525466919e-02,3.379616886377334595e-02,2.551552094519138336e-02,1.031847484409809113e-02,2.781835012137889862e-02,-4.022028297185897827e-02,-3.822203725576400757e-02,-2.989310584962368011e-02,-2.744696103036403656e-02,1.470875740051269531e-02,1.687199575826525688e-03,-2.743927203118801117e-02,-1.008517760783433914e-02,-2.688270807266235352e-02,2.040949091315269470e-02,-2.332215011119842529e-02,9.098370559513568878e-03,-8.674530312418937683e-03,1.518514752388000488e-02,-2.337474562227725983e-02,3.264114633202552795e-02,-2.331149019300937653e-02,-3.012836445122957230e-03,2.848962508141994476e-02,2.385180816054344177e-02,-2.060969360172748566e-02,-2.052254229784011841e-02,3.391680493950843811e-02,-8.007630822248756886e-04,-1.773989014327526093e-02,-1.088610384613275528e-03,2.759970258921384811e-03,8.386404253542423248e-03,2.714320272207260132e-02,-2.869199495762586594e-03,-1.775312051177024841e-02,2.151144295930862427e-02,3.023204021155834198e-02,2.887049317359924316e-02,-3.106701560318470001e-02,-2.754168212413787842e-02,-1.505851279944181442e-03,3.482800908386707306e-03,2.521640621125698090e-02,-6.430932786315679550e-03,-3.491506725549697876e-02,-1.762099564075469971e-02,-1.799994707107543945e-02,-1.385865546762943268e-02,2.043266780674457550e-02,3.430420532822608948e-02,2.983499504625797272e-02,3.610856458544731140e-02,-1.384679973125457764e-02,2.742047235369682312e-02,-2.587637864053249359e-02,-3.881438821554183960e-02,9.048703126609325409e-03,1.473858393728733063e-02,1.303895283490419388e-02,1.989287137985229492e-02,-1.418735249899327755e-03,-1.146120950579643250e-02,-1.148008555173873901e-02,2.566207759082317352e-02,-3.390186280012130737e-02,-1.789810694754123688e-02,-2.657106379047036171e-03,-9.035468101501464844e-03,3.504685312509536743e-02,-3.069260530173778534e-02,-1.327147055417299271e-02,8.044695481657981873e-03,-2.717414312064647675e-02,1.694733835756778717e-02,-1.791933737695217133e-02,-1.645758561789989471e-02,-2.938503585755825043e-02,1.645384170114994049e-02,2.475391328334808350e-02,-2.023968286812305450e-02,-8.594116661697626114e-05,-2.022173441946506500e-02,4.726481623947620392e-03,-1.375760650262236595e-03,1.792266219854354858e-02,-9.863385930657386780e-03,-8.522117510437965393e-03,3.658128902316093445e-03,5.919904448091983795e-03,2.314679138362407684e-02,3.017820790410041809e-02,5.121589638292789459e-03,2.290951786562800407e-03,-3.217320144176483154e-02,3.377076238393783569e-03,-1.475630979984998703e-02,-2.440884895622730255e-02,1.793423481285572052e-02,3.765455260872840881e-02,-2.199867367744445801e-02,3.768653143197298050e-03,-2.769706211984157562e-02,2.676405571401119232e-02,-1.908820867538452148e-02,-3.536790609359741211e-02,-1.375021506100893021e-02,2.555520646274089813e-02,1.643547415733337402e-02,-4.034467041492462158e-03,1.536122150719165802e-02,2.328713051974773407e-02,-3.611724823713302612e-04,-1.175838615745306015e-02,1.678957417607307434e-02,1.536602433770895004e-02,3.684766218066215515e-02,-8.190554566681385040e-03,1.860010065138339996e-02,9.479175321757793427e-03,1.022414537146687508e-03,-3.570603951811790466e-02,6.986159365624189377e-03,-1.425912324339151382e-02,3.734661964699625969e-03,-2.548337541520595551e-02,1.941275410354137421e-02,-7.558480370789766312e-03,-1.728282682597637177e-02,2.192788012325763702e-02,3.984905406832695007e-02,-8.640963584184646606e-03,-2.471173368394374847e-02,1.878634793683886528e-03,-4.610781557857990265e-03,-3.370644152164459229e-02,1.785898394882678986e-02,-6.681606639176607132e-03,4.363976418972015381e-03,5.274030845612287521e-03,-2.503606863319873810e-02,2.825866639614105225e-02,-2.190779894590377808e-02,3.890376165509223938e-02,-2.605114132165908813e-04,-2.931179851293563843e-02,-4.648205824196338654e-03,2.897030860185623169e-02,1.545652374625205994e-02,-2.166601270437240601e-02,-1.921356841921806335e-02,-2.458368614315986633e-02,2.329847775399684906e-02,-2.297477424144744873e-02,-2.566765248775482178e-02,1.418713713064789772e-03,6.498327013105154037e-03,4.025800526142120361e-02,1.116770505905151367e-02,3.218395635485649109e-02,-1.696735434234142303e-02,1.677433215081691742e-02,2.839539200067520142e-02,1.145142409950494766e-02,-1.035954337567090988e-02,-3.388936817646026611e-02,-2.871095389127731323e-02,-4.011063836514949799e-03,-2.793197333812713623e-02,1.335890498012304306e-02,1.918922550976276398e-02,-2.519274689257144928e-02,4.971101880073547363e-03,6.584570277482271194e-03,-4.267845768481492996e-03,-2.448211982846260071e-02,-1.641596294939517975e-02,1.844589784741401672e-02,-8.208810351788997650e-03,-2.860873378813266754e-02,-1.067122444510459900e-02,3.843528404831886292e-02,-3.067668899893760681e-02,6.927317474037408829e-03,-9.666881524026393890e-03,-6.460873410105705261e-03,2.572752721607685089e-02,-1.624656468629837036e-02,-1.582809910178184509e-02,7.677026093006134033e-03,-2.077026106417179108e-02,-3.149662539362907410e-02,2.689149416983127594e-02,-3.638782352209091187e-02,9.625392965972423553e-03,-1.307489722967147827e-02,-6.021662149578332901e-03,-1.055927015841007233e-02,-2.147470414638519287e-02,4.063321650028228760e-02,7.823695428669452667e-03,2.027610316872596741e-02,2.780061215162277222e-02,-1.853568479418754578e-02,-8.917163126170635223e-03,6.298278458416461945e-03,-3.164411336183547974e-02,-1.795402169227600098e-02,2.345281653106212616e-03,-2.216896228492259979e-02,1.364804245531558990e-02,-2.971085160970687866e-02,-1.082369219511747360e-02,-7.649509236216545105e-03,5.974705331027507782e-03,7.296049967408180237e-03,-2.192367985844612122e-02,3.510605543851852417e-02,-1.346850488334894180e-02,2.584712766110897064e-02,-2.378737553954124451e-02,-2.842523530125617981e-02,3.958349674940109253e-02,3.217203170061111450e-02,1.940204203128814697e-02,2.596387639641761780e-02,-1.484007854014635086e-02,1.089463010430335999e-02,-1.017182134091854095e-02,8.848659694194793701e-03,-3.444750979542732239e-02,3.061188012361526489e-02,-3.589039295911788940e-02,2.267442084848880768e-02,1.773523166775703430e-02,2.077205106616020203e-02,-2.440725639462471008e-02,3.301949054002761841e-02,-1.031112298369407654e-02,1.787642203271389008e-02,3.614349290728569031e-02,3.146293014287948608e-02,3.448531776666641235e-02,2.663003280758857727e-02,3.966897260397672653e-03,3.070373646914958954e-02,5.122164264321327209e-03,-2.340861968696117401e-02,-2.866921760141849518e-02,2.159788459539413452e-02,-4.862118046730756760e-03,-2.712198533117771149e-02,1.469606719911098480e-02,1.308973878622055054e-02,3.551863506436347961e-02,1.193873770534992218e-02,-1.906100427731871605e-03,2.245553955435752869e-02,1.999852247536182404e-04,3.825286403298377991e-03,2.551138633862137794e-03,-1.153456419706344604e-02,2.764067985117435455e-02,-3.611461445689201355e-02,-2.814426645636558533e-02,-1.979629509150981903e-02,-2.701975777745246887e-02,1.633233763277530670e-02,1.005193591117858887e-02,3.558263182640075684e-02,-1.876138709485530853e-02,1.140997372567653656e-02,-1.612862199544906616e-02,-2.004195004701614380e-02,-7.588750217109918594e-03,3.639756143093109131e-02,1.474222820252180099e-02,-2.759975008666515350e-02,1.635928824543952942e-02,7.918919436633586884e-05,3.673510998487472534e-02,1.113742031157016754e-02,2.191180549561977386e-02,4.024167358875274658e-02,-1.802795752882957458e-02,2.613788470625877380e-02,-2.121908962726593018e-02,-2.658217214047908783e-02,2.563125826418399811e-02,-2.712197601795196533e-03,2.462912164628505707e-02,5.156968720257282257e-03,5.640115123242139816e-03,1.160867325961589813e-02,2.266434393823146820e-02,1.131480908952653408e-03,-5.742912180721759796e-03,7.094387896358966827e-03,1.825667684897780418e-03,1.584222353994846344e-02,5.391167011111974716e-03,1.311768032610416412e-02,1.489590574055910110e-02,6.943381391465663910e-03,-9.802319109439849854e-03,2.565204538404941559e-02,-2.480277791619300842e-02,-3.021376207470893860e-02,2.650185953825712204e-03,2.675264701247215271e-02,-3.349305316805839539e-02,-3.000769205391407013e-02,-3.698783367872238159e-02,-3.604978322982788086e-02,-9.425931610167026520e-03,-1.395895238965749741e-02,-3.566958010196685791e-02,1.905980892479419708e-02,-3.312166780233383179e-02,1.644394244067370892e-03,-1.534004788845777512e-02,1.634158007800579071e-02,1.552427280694246292e-02,1.972861588001251221e-02,-3.159888833761215210e-02,2.526976168155670166e-03,-1.973272301256656647e-02,-3.360334783792495728e-02,2.745689125731587410e-03,2.548102289438247681e-02,-1.036556996405124664e-02,-3.788443654775619507e-02,5.624365992844104767e-03,2.005699835717678070e-02,-3.415628150105476379e-02,2.238672226667404175e-02,9.829651564359664917e-03,2.260451763868331909e-02,-4.066046699881553650e-02,-2.410954050719738007e-02,3.976255655288696289e-03,-2.526419237256050110e-02,1.460257358849048615e-02,-1.388558652251958847e-02,4.017715528607368469e-02,-1.163737289607524872e-02,-1.193965133279561996e-02,-4.480873234570026398e-03,-2.655117027461528778e-02,3.175202757120132446e-02,-2.054663747549057007e-02,1.272225845605134964e-02,-3.940690681338310242e-02,-3.896260261535644531e-02,-3.530444204807281494e-02,-2.483105519786477089e-03,7.488401606678962708e-04,6.205801852047443390e-03,-2.048094524070620537e-03,-3.736931830644607544e-02,-5.432758014649152756e-03,-3.196511045098304749e-02,1.169885136187076569e-02,-3.393615782260894775e-02,-6.446687504649162292e-03,-2.690883353352546692e-02,-3.232543170452117920e-02,-9.095536544919013977e-03,-2.806868287734687328e-04,-8.833799511194229126e-03,1.854663714766502380e-02,-2.873428724706172943e-02,4.245234653353691101e-03,7.031421409919857979e-05,-3.366949409246444702e-02,3.295711212558671832e-05,-1.308678369969129562e-02,-1.322894077748060226e-02,4.399657249450683594e-03,-3.430556878447532654e-02,1.597898826003074646e-02,6.874127313494682312e-03,-2.034728415310382843e-02,-1.769679784774780273e-02,-2.742435783147811890e-02,-2.553444914519786835e-02,1.692059566266834736e-03,1.690615527331829071e-02,-4.047215357422828674e-02,2.525066025555133820e-02,6.332329474389553070e-03,-3.269828855991363525e-02,-1.719489321112632751e-02,-2.370865829288959503e-02,1.011023018509149551e-02,-8.371774107217788696e-03,-1.942596212029457092e-02,-7.463938090950250626e-03,1.462099514901638031e-02,-5.845295730978250504e-03,-1.320863235741853714e-02,2.152555435895919800e-02,-3.385498747229576111e-02,-1.062048785388469696e-02
-8.425091393291950226e-03,2.918665856122970581e-02,2.977727726101875305e-02,1.665624976158142090e-02,-3.365503251552581787e-02,-2.413819171488285065e-02,2.504517510533332825e-02,-1.609856449067592621e-02,-1.538791880011558533e-02,2.207262627780437469e-02,1.842635101638734341e-03,-2.236513607203960419e-02,-7.264314685016870499e-03,-1.692352117970585823e-03,2.773631922900676727e-02,-3.181458637118339539e-02,3.069266304373741150e-02,1.319877617061138153e-02,2.096320502460002899e-02,1.390034426003694534e-02,-1.065371371805667877e-02,2.483959775418043137e-03,-2.483602147549390793e-03,8.288460783660411835e-03,1.013568486087024212e-03,4.040318075567483902e-03,6.835784763097763062e-03,-4.628424532711505890e-03,4.368105437606573105e-03,-1.680418476462364197e-02,3.973586426582187414e-04,2.660713158547878265e-02,1.371774356812238693e-02,-1.655370369553565979e-02,2.616185881197452545e-02,-2.878886088728904724e-02,-2.461035549640655518e-02,-2.977152820676565170e-03,-9.370158659294247627e-04,1.727733761072158813e-02,2.982155792415142059e-02,-1.923736184835433960e-02,-2.265332266688346863e-02,2.980965748429298401e-02,-1.564208790659904480e-02,-3.228622954338788986e-03,-6.196060217916965485e-03,7.234479300677776337e-03,1.804137229919433594e-02,1.034478750079870224e-02,2.993489801883697510e-02,2.354653552174568176e-02,2.359641157090663910e-02,-1.978352293372154236e-02,1.878169178962707520e-02,-1.487445086240768433e-02,1.878305524587631226e-02,3.254183009266853333e-02,-2.972869202494621277e-02,2.737885154783725739e-02,-2.717027440667152405e-02,1.168218068778514862e-02,-2.156371437013149261e-02,-4.393676761537790298e-03,3.847180679440498352e-02,-5.257125012576580048e-03,-6.424909923225641251e-03,-2.490975148975849152e-02,2.931807748973369598e-02,5.975627340376377106e-03,1.475247088819742203e-02,-1.014253031462430954e-02,-5.634835455566644669e-03,-1.709101907908916473e-02,-1.257885154336690903e-02,3.608710691332817078e-02,7.454771548509597778e-05,-5.991077050566673279e-03,-2.765537053346633911e-02,-2.009106613695621490e-02,6.498142611235380173e-03,3.084748797118663788e-02,2.682095952332019806e-02,-1.757047884166240692e-02,2.260098792612552643e-02,2.827518433332443237e-02,-1.327943429350852966e-02,-1.217045076191425323e-02,1.208153273910284042e-02,-1.747904717922210693e-02,-1.883502863347530365e-02,-1.745539251714944839e-03,3.589728102087974548e-02,-2.979361079633235931e-02,1.787876710295677185e-02,8.388670161366462708e-03,-1.623425260186195374e-02,3.109782934188842773e-02,-4.852953366935253143e-03,3.605416789650917053e-02,-9.665478719398379326e-04,-1.723251119256019592e-02,-5.751665215939283371e-03,2.706319466233253479e-02,3.359114751219749451e-02,1.788017153739929199e-02,1.987085677683353424e-03,-1.316727884113788605e-02,-1.527136191725730896e-02,3.721315413713455200e-02,-1.226019766181707382e-02,2.301418408751487732e-02,-2.487336052581667900e-03,-1.331641059368848801e-02,-2.846709825098514557e-02,2.163439057767391205e-02,3.283714177086949348e-03,-5.305808037519454956e-03,-8.849111385643482208e-03,-4.151080735027790070e-03,8.048080839216709137e-03,4.828470759093761444e-03,-2.345187030732631683e-02,9.875023737549781799e-03,-2.165328944101929665e-03,1.497320551425218582e-02,1.666079275310039520e-02,3.189130499958992004e-02,-2.299377880990505219e-02,2.795424498617649078e-02,-3.939442336559295654e-03,2.039591595530509949e-02,-1.934217475354671478e-02,6.083567626774311066e-03,-1.145253889262676239e-02,7.886047475039958954e-03,2.225063741207122803e-02,9.297947399318218231e-04,-2.484035305678844452e-02,-3.239323943853378296e-02,-1.544956304132938385e-02,3.223547013476490974e-03,-2.044468373060226440e-02,7.148810662329196930e-03,4.435234703123569489e-03,-2.042457461357116699e-02,1.088864915072917938e-02,-7.102118805050849915e-03,3.948853909969329834e-02,2.827796526253223419e-02,5.618163384497165680e-03,-1.482636108994483948e-02,-1.991165801882743835e-02,-3.007748164236545563e-02,1.905684359371662140e-02,1.528886239975690842e-02,2.455098927021026611e-02,1.766794733703136444e-02,2.180581539869308472e-02,-2.225700952112674713e-02,2.542104199528694153e-02,1.062020473182201385e-02,-3.348799422383308411e-02,2.099039964377880096e-02,-1.947264373302459717e-02,8.065331727266311646e-03,-2.819900400936603546e-02,-6.457162089645862579e-03,-4.615485959220677614e-04,3.424886986613273621e-02,1.813663914799690247e-02,1.819897443056106567e-02,1.242465339601039886e-02,-2.360036410391330719e-02,1.063766609877347946e-02,3.233876451849937439e-02,1.648249849677085876e-02,-6.108518689870834351e-03,-9.525461122393608093e-03,3.362163901329040527e-02,2.442392148077487946e-02,-3.488335292786359787e-03,3.788695484399795532e-02,-3.455113619565963745e-03,-2.495081163942813873e-03,-2.111268788576126099e-02,1.511318702250719070e-02,-7.098949979990720749e-03,1.283634454011917114e-02,-9.887283667922019958e-03,2.153752744197845459e-02,1.621475629508495331e-02,-3.832501918077468872e-02,-8.928417228162288666e-03,-2.337165549397468567e-02,-1.273983251303434372e-02,9.884241968393325806e-03,-6.730554625391960144e-03,-7.761592976748943329e-03,1.144765410572290421e-02,-2.772425673902034760e-02,-2.912198938429355621e-02,4.015219584107398987e-02,2.603747323155403137e-02,1.097847707569599152e-02,4.120212048292160034e-03,-1.665942370891571045e-02,1.013906113803386688e-02,-2.729901112616062164e-03,1.788529008626937866e-02,-1.326395384967327118e-02,3.093613311648368835e-02,1.884470693767070770e-02,1.349676866084337234e-02,-7.619846146553754807e-03,-1.248340494930744171e-02,-3.816615790128707886e-02,2.209798432886600494e-02,-3.717193752527236938e-02,2.663487568497657776e-03,3.231968730688095093e-03,-3.524694964289665222e-02,4.912221338599920273e-03,-2.460162341594696045e-02,-2.454724162817001343e-02,-4.047951661050319672e-03,2.362457104027271271e-02,2.367709390819072723e-02,7.869832217693328857e-03,1.643444597721099854e-02,-2.757032588124275208e-02,1.794878020882606506e-02,3.155825287103652954e-02,1.334705110639333725e-02,2.780654467642307281e-02,2.000442892313003540e-02,-7.869173772633075714e-03,-1.506477408111095428e-02,1.839330070652067661e-03,4.400044679641723633e-03,2.983878552913665771e-02,-1.060905680060386658e-02,1.067911041900515556e-03,-2.115766517817974091e-02,2.462738193571567535e-02,8.471289649605751038e-03,-1.876972056925296783e-02,-9.497094433754682541e-04,-2.307815477252006531e-03,-3.207492083311080933e-02,4.172751214355230331e-04,-7.974248379468917847e-03,1.297049410641193390e-02,3.630158305168151855e-02,2.330804243683815002e-02,-1.520530879497528076e-02,3.893150389194488525e-02,1.835593953728675842e-02,3.049021586775779724e-02,-2.735401317477226257e-02,2.495597582310438156e-03,1.829247921705245972e-02,1.595514640212059021e-02,-5.441119894385337830e-03,2.062378823757171631e-02,-9.553138166666030884e-03,2.169955335557460785e-02,-2.466403134167194366e-02,-3.093618899583816528e-02,-2.937405742704868317e-02,-5.903094541281461716e-03,6.146827712655067444e-03,-8.958156220614910126e-03,-2.096632495522499084e-02,2.933090738952159882e-02,2.681737393140792847e-02,-1.830706931650638580e-02,-3.833195194602012634e-02,-7.873466238379478455e-03,-1.417362689971923828e-02,-4.441146738827228546e-03,2.110384963452816010e-02,1.772952824831008911e-02,-1.599697209894657135e-02,2.920156903564929962e-02,-2.995235845446586609e-03,-1.469139847904443741e-02,2.937345020473003387e-02,-4.253257066011428833e-03,3.493453562259674072e-02,-3.172867698594927788e-03,-2.118982560932636261e-02,-2.968218363821506500e-02,2.080849930644035339e-02,3.398740896955132484e-03,-1.986969448626041412e-02,-2.911809086799621582e-02,-1.480786036700010300e-02,-1.594877801835536957e-02,1.571220159530639648e-02,-1.216808101162314415e-03,1.039272919297218323e-02,3.942058235406875610e-02,4.002343863248825073e-03,3.104198910295963287e-02,2.933142893016338348e-02,5.040416959673166275e-03,-3.897206485271453857e-02,1.457167603075504303e-02,-2.100668102502822876e-02,-2.484553866088390350e-02,3.213547542691230774e-02,8.052822202444076538e-03,1.899819937534630299e-03,3.376505523920059204e-02,1.659797504544258118e-02,1.459503173828125000e-02,-1.750959642231464386e-02,-2.654192503541707993e-04,-3.987114876508712769e-03,3.497650846838951111e-02,-3.330057114362716675e-02,7.349089253693819046e-03,-3.520034253597259521e-02,-6.164027843624353409e-03,-2.916171215474605560e-03,-1.235013455152511597e-02,8.540369570255279541e-03,1.788262650370597839e-02,1.952781528234481812e-02,1.081004738807678223e-02,1.312428619712591171e-02,-2.467965334653854370e-02,-4.049028456211090088e-02,1.497930102050304413e-02,-3.928997088223695755e-03,-2.049407339654862881e-04,2.685651928186416626e-02,3.715452179312705994e-02,-1.950540207326412201e-02,1.619744859635829926e-02,-2.927760966122150421e-02,-2.229039184749126434e-02,-2.038324996829032898e-02,1.817955076694488525e-02,1.334437355399131775e-02,1.011319272220134735e-02,-1.366761419922113419e-02,-2.271010540425777435e-02,-5.763752851635217667e-03,-2.788964193314313889e-03,1.866818405687808990e-02,-2.406943775713443756e-02,-3.510633856058120728e-02,-3.022200427949428558e-03,1.222692336887121201e-02,1.259365119040012360e-02,-2.702172473073005676e-02,3.317033406347036362e-03,-1.220964547246694565e-02,3.662414848804473877e-02,-1.211296883411705494e-03,2.728031761944293976e-02,3.003339655697345734e-02,1.099150534719228745e-02,5.329038482159376144e-03,1.751827821135520935e-02,-1.402646582573652267e-02,-7.082886993885040283e-03,2.418150566518306732e-02,3.629885241389274597e-02,2.843815460801124573e-02,1.232311315834522247e-02,-2.137147076427936554e-02,3.965401276946067810e-02,-2.654420398175716400e-02,-2.403445914387702942e-02,-9.162470698356628418e-03,2.821695432066917419e-02,8.352832868695259094e-03,2.988770417869091034e-02,-1.865401491522789001e-02,3.813193738460540771e-02,-6.497298367321491241e-03,3.417284786701202393e-02,3.869527950882911682e-02,2.328637614846229553e-02,5.557590629905462265e-03,-2.952892892062664032e-02,-7.380816387012600899e-04,6.855616811662912369e-03,1.450817659497261047e-02,2.615227550268173218e-02,-2.790273167192935944e-02,-9.230161085724830627e-03,3.635192289948463440e-02,-3.308216808363795280e-03,2.026344463229179382e-02,3.917413577437400818e-02,-6.489206571131944656e-04,-2.107473090291023254e-02,-1.495782379060983658e-02,-2.822687290608882904e-02,-2.169015631079673767e-02,-7.632724475115537643e-03,-1.678131707012653351e-02,-1.033387798815965652e-02,6.526623619720339775e-04,2.981328405439853668e-02,1.124498620629310608e-02,-1.914114691317081451e-02,2.978234179317951202e-02,1.633668690919876099e-02,-2.692463435232639313e-02,-8.389025926589965820e-03,2.287825010716915131e-02,3.226004913449287415e-02,3.911158069968223572e-02,2.127002691850066185e-03,-3.159647062420845032e-02,-3.845489770174026489e-02,3.150559216737747192e-02,8.245444856584072113e-03,2.079823985695838928e-03,-2.182022435590624809e-03,3.793983906507492065e-02,2.725808322429656982e-02,2.382316626608371735e-02,1.190964598208665848e-02,1.382773742079734802e-03,7.246711291372776031e-03,-3.504751250147819519e-02,-2.474256791174411774e-02,5.766330286860466003e-03,-8.803851902484893799e-03,-2.394430711865425110e-02,-1.398096513003110886e-02,-6.122460123151540756e-03,9.303504601120948792e-03,-2.710634842514991760e-02,2.131002210080623627e-02,4.311034921556711197e-03,9.828760288655757904e-03,2.775638364255428314e-02,1.042502745985984802e-02,1.238407567143440247e-02,1.329663675278425217e-02,-3.981329500675201416e-02,-2.070426195859909058e-02,-1.521585625596344471e-03,2.709840424358844757e-03,1.797918044030666351e-02,5.970747675746679306e-03,-8.632749319076538086e-03,-2.379976212978363037e-02,7.584147155284881592e-03,-2.675522863864898682e-02,-2.546414360404014587e-02,1.788356900215148926e-02,-3.947757929563522339e-02,2.630896680057048798e-02,-3.122221492230892181e-02,1.240569353103637695e-02,-5.417024251073598862e-03,-1.112670451402664185e-02,2.927187271416187286e-02,3.087220154702663422e-02,-2.135843411087989807e-02,-1.808840595185756683e-02,6.255723536014556885e-03,-2.805286832153797150e-02,9.883586317300796509e-03,-1.243152562528848648e-02,2.643596008419990540e-02,-3.550451248884201050e-02,7.898089475929737091e-03,-2.929059229791164398e-02,-1.017484348267316818e-02,-2.091841399669647217e-02,-1.209459267556667328e-02,2.690464630722999573e-02,-1.784745976328849792e-02,3.945974260568618774e-02,-8.857149630784988403e-03,1.714667864143848419e-02,3.863621130585670471e-02,3.518611937761306763e-02,2.797164255753159523e-03,-3.837442491203546524e-03,-3.183181956410408020e-02,1.945139095187187195e-02,-3.241802565753459930e-03,-1.611152105033397675e-02,3.464637324213981628e-02,1.682490110397338867e-03,1.207087188959121704e-05,-7.126511074602603912e-03,-2.657955978065729141e-03,2.821148000657558441e-02,-1.809110492467880249e-02,2.018951624631881714e-02,-1.618611253798007965e-02,2.620765566825866699e-02,2.902059815824031830e-02,1.247432082891464233e-02,-2.417051978409290314e-02,-8.880310691893100739e-03,3.381256759166717529e-02,-2.636897563934326172e-02,1.391583867371082306e-02,1.131187379360198975e-02,5.703024100512266159e-03,2.451044879853725433e-02,1.575534977018833160e-02,1.789295114576816559e-02,2.409839630126953125e-02,1.528159901499748230e-02,6.289614830166101456e-04,1.163930539041757584e-02,1.048919372260570526e-02,1.605023629963397980e-02,1.276371721178293228e-02,2.250049263238906860e-02,-1.457311771810054779e-02,1.372955460101366043e-02,-2.891161246225237846e-03,3.740357933565974236e-03,1.225267909467220306e-02,1.004765974357724190e-03,-1.866312325000762939e-02,-2.290821447968482971e-02,-2.037664642557501793e-03,-2.399794571101665497e-02,-3.005914390087127686e-02,-2.387533150613307953e-02,4.027068987488746643e-02,7.655208464711904526e-03,2.949819155037403107e-02,1.359001267701387405e-02,-2.446706406772136688e-02,-3.006090223789215088e-02,1.012859679758548737e-02,3.280871361494064331e-02,2.172066457569599152e-02,-1.378435827791690826e-02,1.710119843482971191e-02,5.183528177440166473e-03,1.297964714467525482e-02,8.542355149984359741e-03,2.460587024688720703e-02,3.450170159339904785e-02,1.083021750673651695e-03,-1.770104654133319855e-02,2.227889560163021088e-02,1.381847541779279709e-02,-3.846003115177154541e-02,-2.055434510111808777e-02,1.929509919136762619e-03,2.307518199086189270e-02,2.664150670170783997e-02,9.792221710085868835e-03,-2.723493985831737518e-02,-4.523178562521934509e-03,6.529124919325113297e-03,4.019366949796676636e-02,1.157138496637344360e-02,2.553047612309455872e-02,-7.897982373833656311e-03,-7.745755836367607117e-03,5.459597334265708923e-03,2.568599022924900055e-02,-1.721436157822608948e-02,-1.739852502942085266e-02,3.139477968215942383e-02,-3.991113509982824326e-03,4.062924906611442566e-02,9.748692391440272331e-04,8.672186173498630524e-03,-1.881772419437766075e-03,1.901724375784397125e-02,-2.261764183640480042e-02,3.645412996411323547e-02,1.232843287289142609e-02,-1.125090010464191437e-02,-3.324439749121665955e-02,-2.039706893265247345e-02,2.206850238144397736e-02,-3.384586796164512634e-02,-3.728639334440231323e-02,3.501749783754348755e-02,-1.425287686288356781e-02,2.024438977241516113e-02,-2.664545364677906036e-02,3.596330527216196060e-03,2.602011337876319885e-02,-2.423807606101036072e-02,2.660968713462352753e-02,3.471341729164123535e-02,3.063940908759832382e-03,3.738174587488174438e-02,7.380649447441101074e-03,-1.610727980732917786e-02,5.603853613138198853e-03,-2.600192278623580933e-02,-1.603403687477111816e-02,3.561599552631378174e-02,7.811114657670259476e-03,3.487404435873031616e-02,3.686649724841117859e-02,-2.150906063616275787e-02,-1.269871275871992111e-02,1.797810429707169533e-03,2.268788404762744904e-02,-7.259369362145662308e-03,-1.522814203053712845e-02,-6.272470112890005112e-03,-2.895301766693592072e-02,2.376246824860572815e-02,3.295928612351417542e-02,-3.050913847982883453e-02,1.989074051380157471e-02,1.276502758264541626e-02,2.112809941172599792e-02,-1.941751688718795776e-02,1.107755117118358612e-02,3.037412837147712708e-02,3.088260069489479065e-02,6.591681856662034988e-03,1.689243596047163010e-03,8.983697742223739624e-03,-3.106944076716899872e-02,2.556262537837028503e-02,-6.321206688880920410e-03,-1.751959882676601410e-02,4.947491455823183060e-03,2.257525734603404999e-02,5.214916542172431946e-03,-1.998933404684066772e-02,-3.762085363268852234e-02,-1.944071962498128414e-03,-2.154243178665637970e-02,-4.328322596848011017e-03,1.994656771421432495e-02,1.255143247544765472e-02,1.287729013711214066e-02,-2.206547372043132782e-02,-1.018731668591499329e-02,-3.482446307316422462e-03,2.226499840617179871e-02,-2.501798421144485474e-02,1.511031948029994965e-02,2.288998104631900787e-02,2.026378922164440155e-02,-2.959171682596206665e-02,1.701655099168419838e-03,1.232814695686101913e-02,2.702499739825725555e-02,5.491013289429247379e-04,2.704204060137271881e-02,-1.641704584471881390e-04,3.055941686034202576e-02,-2.181558497250080109e-02,-3.061819076538085938e-02,-1.888179336674511433e-03,2.076328545808792114e-02,-4.482016898691654205e-03,1.987988688051700592e-02,-2.557852119207382202e-02,1.965701952576637268e-02,1.058018580079078674e-02,-3.977000340819358826e-02,-1.181396935135126114e-02,1.146782375872135162e-02,7.378216832876205444e-03,5.203542532399296761e-04,-3.096497152000665665e-03,-1.341579365544021130e-03,4.154054448008537292e-03,3.214609995484352112e-02,5.275079980492591858e-03,3.726175054907798767e-04,-2.357931109145283699e-03,-7.425707299262285233e-03,-1.949702948331832886e-02,-1.590259559452533722e-02,-9.848740883171558380e-03,-1.425346732139587402e-02,-2.661166153848171234e-02,2.648108080029487610e-02,3.556970506906509399e-02,2.210051752626895905e-02,-1.208586990833282471e-02,-1.915936917066574097e-02,1.614660769701004028e-02,1.355159748345613480e-02,2.626718021929264069e-02,2.075709216296672821e-02,-3.173904959112405777e-03,2.253643982112407684e-02,-2.930730208754539490e-02,-3.298471495509147644e-02,3.235127369407564402e-04,-1.930213347077369690e-02,-2.984938770532608032e-02,1.104797609150409698e-02,-2.391406148672103882e-02,-4.177399445325136185e-03,3.010324202477931976e-02,2.325319126248359680e-02,-2.880280651152133942e-02,2.614874206483364105e-02,3.368949145078659058e-02,-1.253009121865034103e-02,6.457347888499498367e-03,-1.335932686924934387e-02,-1.253664609976112843e-03,2.246938459575176239e-02,8.519870229065418243e-03,1.334699150174856186e-02,-2.413411810994148254e-02,-3.017163369804620743e-03,2.635803818702697754e-02,2.329370565712451935e-02,-3.049318119883537292e-02,2.835396211594343185e-03,2.969259954988956451e-02,3.639282891526818275e-03,1.656536594964563847e-03,-1.706150732934474945e-02,1.610915176570415497e-02,2.849474735558032990e-02,-2.037739753723144531e-02,-2.481267973780632019e-02,-2.632986754179000854e-02,-5.441504530608654022e-03,-2.969731390476226807e-02,2.658973261713981628e-02,1.845549605786800385e-02,1.858530938625335693e-02,-2.523940615355968475e-02,-1.656896620988845825e-02,7.379292976111173630e-03,1.748095825314521790e-02,-2.982816286385059357e-02,4.381914623081684113e-03,-4.887614632025361061e-04,-5.505269858986139297e-03,3.364488482475280762e-02,4.715723916888237000e-03,1.200968516059219837e-03,3.265696018934249878e-02,1.757701393216848373e-03,-3.613597946241497993e-03,2.370527759194374084e-02,1.039977185428142548e-02,2.748139202594757080e-02,-5.268684588372707367e-03,-3.036937676370143890e-02,-1.103466376662254333e-02,4.512323066592216492e-03,-1.239016652107238770e-03,-2.388106472790241241e-02,3.399354964494705200e-02,-2.273190207779407501e-02,2.259446121752262115e-02,3.335290029644966125e-02,1.944439113140106201e-02,-2.480548107996582985e-03,3.080706857144832611e-02,1.977442950010299683e-02,3.546673804521560669e-02,-8.489938452839851379e-03,-2.491616830229759216e-02,3.460154868662357330e-03,2.535734325647354126e-02,-1.753845624625682831e-02,3.667565295472741127e-03,3.940274193882942200e-02,3.154487907886505127e-02,-6.184910889714956284e-04,3.289652988314628601e-02,1.248078327625989914e-02,2.068879827857017517e-02,1.585815660655498505e-02
