-4.490205645561218262e-02,3.955264762043952942e-02,6.824475526809692383e-02,-9.131522849202156067e-03,5.920547246932983398e-02,2.977566048502922058e-02,4.484653845429420471e-02,-2.149258926510810852e-02,4.372142627835273743e-02,-8.306249976158142090e-02,-4.657321423292160034e-02,-1.184090040624141693e-02,6.522531807422637939e-02,4.426316916942596436e-02,-7.890273630619049072e-02,-8.433569967746734619e-02,6.230466812849044800e-02,5.895565450191497803e-02,7.807510346174240112e-02,8.147729933261871338e-02,-5.955761298537254333e-03,6.548455357551574707e-02,-6.873365491628646851e-02,6.421595811843872070e-02,-4.205090925097465515e-02,-5.782581493258476257e-02,-5.040457844734191895e-02,-3.306862711906433105e-02,-6.531533598899841309e-02,4.102631472051143646e-03,3.383134678006172180e-02,-7.258635759353637695e-02,-8.024816215038299561e-02,-7.241181284189224243e-02,-4.735881462693214417e-02,-2.286141971126198769e-03,-3.457356244325637817e-02,7.561293244361877441e-02,-8.535613864660263062e-02,-1.721679046750068665e-02,2.567198313772678375e-02,-5.324381962418556213e-02,-5.161038786172866821e-02,7.102677971124649048e-02,-6.815807521343231201e-02,4.800698161125183105e-02,-5.734683945775032043e-02,5.355396121740341187e-02,7.419676985591650009e-03,2.837531827390193939e-02,-6.539826840162277222e-02,-4.161688685417175293e-02,-8.382798731327056885e-02,-5.962463840842247009e-02,2.277973107993602753e-02,7.214303128421306610e-03,-7.817356288433074951e-02,7.360448688268661499e-02,2.958100521937012672e-03,3.276043012738227844e-02,-7.193811237812042236e-02,-1.128066517412662506e-02,3.035250864923000336e-02,-2.233752282336354256e-03,-3.748994693160057068e-02,6.857763230800628662e-02,-5.199950933456420898e-02,-5.964402854442596436e-02,8.879824727773666382e-02,-5.406992509961128235e-02,3.345210105180740356e-02,5.824098363518714905e-02,-7.116791326552629471e-03,-3.204655647277832031e-02,-7.075370848178863525e-02,6.215084716677665710e-02,3.722127154469490051e-02,4.840390756726264954e-02,7.121023535728454590e-02,-1.484603434801101685e-02,-2.957776933908462524e-02,-5.143246799707412720e-02,-7.077887654304504395e-02,9.297729283571243286e-02,4.988702386617660522e-02,1.723817922174930573e-02,-5.051458999514579773e-02,8.687047287821769714e-03,-1.669313013553619385e-02,-5.394823104143142700e-02,-4.530685767531394958e-02,-3.219773247838020325e-02,4.527517780661582947e-02,-3.502354025840759277e-03,6.733039021492004395e-02,-5.681792739778757095e-03,-5.883643776178359985e-02,-8.219672739505767822e-02,-6.148875504732131958e-02,3.773290291428565979e-02,7.034661713987588882e-03,-5.434695631265640259e-02,5.040243268013000488e-02,-9.315010160207748413e-02,1.288231182843446732e-02,9.156557917594909668e-02,5.386359989643096924e-02,-7.546729594469070435e-02,7.930655963718891144e-03,-7.278329133987426758e-02,-4.214700311422348022e-02,8.642013184726238251e-03,-6.409107893705368042e-02,3.675138205289840698e-02,-8.073203265666961670e-02,7.228658348321914673e-02,-2.629133500158786774e-02,-1.302223745733499527e-02,4.197625815868377686e-02,-2.114011347293853760e-02,3.061619400978088379e-02,5.397082865238189697e-02,5.821012705564498901e-02,-2.947965264320373535e-02,-8.490046858787536621e-02,-7.039294391870498657e-02,7.799954712390899658e-02,-1.112215593457221985e-02
4.015944153070449829e-02,-8.076291531324386597e-02,-7.007064670324325562e-02,9.345869533717632294e-03,-8.382853865623474121e-02,-4.927950445562601089e-03,4.910178110003471375e-02,6.203703582286834717e-02,2.633125707507133484e-02,-3.610600903630256653e-02,5.179298669099807739e-02,3.932343050837516785e-02,-1.195004489272832870e-02,-8.792251348495483398e-02,3.467290475964546204e-02,5.275958031415939331e-02,-8.304943144321441650e-02,7.964385300874710083e-02,-7.573606818914413452e-02,-7.305602729320526123e-02,-5.022637173533439636e-02,-2.550211548805236816e-02,-5.467806011438369751e-02,7.201597094535827637e-02,5.587100237607955933e-02,1.837094128131866455e-02,6.078565493226051331e-02,-7.176251709461212158e-02,-7.140903919935226440e-02,7.534265518188476562e-02,-1.719943806529045105e-02,2.879932522773742676e-02,6.633479148149490356e-02,7.543293386697769165e-02,1.191962417215108871e-02,2.444574795663356781e-02,-4.016582854092121124e-03,-2.196962386369705200e-02,-3.022249042987823486e-02,-1.107643824070692062e-02,8.261591941118240356e-02,7.774969190359115601e-02,-7.084476202726364136e-02,7.830046117305755615e-03,-8.954567462205886841e-02,-1.539943553507328033e-02,-2.563529275357723236e-02,4.335307329893112183e-02,-6.468457728624343872e-02,-6.562525033950805664e-02,6.699902936816215515e-03,1.777286268770694733e-02,-6.279156357049942017e-02,4.337976500391960144e-02,-4.211390763521194458e-02,4.188378155231475830e-02,2.177383564412593842e-02,2.701737545430660248e-02,5.954689532518386841e-02,-7.767085731029510498e-02,-5.019043013453483582e-02,1.936578378081321716e-02,5.517691746354103088e-02,-1.622219011187553406e-02,-6.688012182712554932e-02,2.260322496294975281e-02,-3.732110932469367981e-02,-6.135731935501098633e-02,9.618364274501800537e-03,3.706552460789680481e-02,-8.048881590366363525e-02,-8.316960185766220093e-03,-1.549842581152915955e-02,-7.060620188713073730e-02,7.388468086719512939e-02,7.226171344518661499e-02,-9.844152256846427917e-03,-2.894721366465091705e-02,7.044737040996551514e-02,4.192349314689636230e-02,-6.330530345439910889e-02,2.297746017575263977e-03,5.759964510798454285e-02,-8.393435925245285034e-02,4.616481810808181763e-02,-9.076399728655815125e-03,-2.926424518227577209e-02,9.297223296016454697e-04,6.221174821257591248e-02,4.278683289885520935e-02,-9.077844209969043732e-03,-4.212105274200439453e-02,6.809017807245254517e-02,-4.062474519014358521e-02,-1.363214943557977676e-02,6.079477071762084961e-02,7.015318423509597778e-02,5.101310834288597107e-02,-2.786805666983127594e-02,-3.548766300082206726e-02,-3.836975619196891785e-02,-3.418269753456115723e-02,-8.344248682260513306e-02,-6.374966353178024292e-02,-5.845632404088973999e-02,3.693155571818351746e-02,-2.743463730439543724e-03,1.235926896333694458e-02,4.108284600079059601e-03,-5.801460146903991699e-02,-9.139747172594070435e-02,8.621819317340850830e-02,6.757040321826934814e-02,4.165793210268020630e-02,-7.167851179838180542e-02,-3.305283375084400177e-03,5.230654403567314148e-02,-6.905674189329147339e-02,-4.020992666482925415e-02,-4.372883122414350510e-03,-8.425095677375793457e-02,2.345407195389270782e-02,-8.974863588809967041e-02,4.418791458010673523e-02,4.191147908568382263e-02,2.888441272079944611e-02,-7.177939638495445251e-03,-2.369123743847012520e-03
-3.228075429797172546e-02,4.694454744458198547e-02,-5.385196954011917114e-02,-5.276828538626432419e-03,-2.606643922626972198e-02,-4.404772073030471802e-02,-4.387774690985679626e-02,7.921461947262287140e-03,-6.935791671276092529e-02,-7.715003937482833862e-02,-3.979010507464408875e-03,2.743402123451232910e-02,3.850981593132019043e-02,8.361174166202545166e-02,4.154711216688156128e-02,2.344198897480964661e-02,1.333033107221126556e-02,-8.218645304441452026e-02,4.862937703728675842e-02,8.739004284143447876e-02,-5.141568183898925781e-02,3.837391966953873634e-03,4.301971569657325745e-02,7.085660099983215332e-02,-3.465741500258445740e-02,-2.070702798664569855e-02,4.427445237524807453e-04,-3.238110616803169250e-02,-5.852669477462768555e-02,-1.335508655756711960e-03,-5.360801890492439270e-02,2.201358601450920105e-02,-2.272449433803558350e-02,5.131500214338302612e-02,-3.611933067440986633e-02,-5.177607759833335876e-02,4.411955550312995911e-02,5.777185037732124329e-02,1.790968142449855804e-02,-5.939386412501335144e-02,-8.758679777383804321e-02,-6.016530469059944153e-02,2.118418551981449127e-02,5.315840989351272583e-02,4.373412579298019409e-02,1.733935438096523285e-02,4.121164977550506592e-02,1.843672618269920349e-02,8.712664246559143066e-02,-7.606936991214752197e-02,3.277255967259407043e-02,4.197633638978004456e-02,3.925780206918716431e-02,-4.412196204066276550e-02,2.471073530614376068e-02,-7.710784673690795898e-02,-3.924196213483810425e-02,-2.104607596993446350e-02,4.887970536947250366e-02,3.561793267726898193e-02,9.222365915775299072e-02,-8.352976292371749878e-02,-1.269414741545915604e-02,-6.635366380214691162e-02,5.484044179320335388e-02,7.057069987058639526e-02,-5.097234621644020081e-02,8.272416144609451294e-02,2.113981731235980988e-02,4.774471372365951538e-02,7.120783627033233643e-02,3.886878117918968201e-02,-7.783084362745285034e-02,-4.846880212426185608e-02,-6.528913509100675583e-04,4.560201615095138550e-02,-2.872683107852935791e-02,-3.527317894622683525e-03,3.571785055100917816e-04,-3.858830407261848450e-02,6.045239046216011047e-02,-5.479235947132110596e-02,5.817232653498649597e-02,-7.317658513784408569e-02,-3.767542541027069092e-02,-4.336380399763584137e-03,6.031927093863487244e-02,-2.999131754040718079e-02,7.125315815210342407e-02,-5.169915035367012024e-02,7.511190138757228851e-03,3.283245116472244263e-02,-1.076871529221534729e-02,-7.674664258956909180e-03,4.541172832250595093e-02,5.221068114042282104e-02,-1.980096846818923950e-02,3.970490023493766785e-02,-4.606368765234947205e-02,1.092204917222261429e-02,3.013909421861171722e-02,8.134856075048446655e-02,2.465094067156314850e-02,6.816489994525909424e-02,-6.596107780933380127e-02,8.285838365554809570e-02,1.224082196131348610e-03,2.735135518014431000e-02,-4.761333763599395752e-02,-1.279867067933082581e-02,4.139607399702072144e-02,-7.020239531993865967e-02,-4.933105036616325378e-02,3.136605024337768555e-02,-4.243108257651329041e-02,1.341066323220729828e-02,-1.071485783904790878e-02,-3.889666870236396790e-02,2.359039336442947388e-02,-9.551423601806163788e-03,-1.224553119391202927e-02,1.932297088205814362e-02,1.292166765779256821e-02,7.788557559251785278e-03,3.853744128718972206e-03,2.604888193309307098e-02,-2.837100811302661896e-02,8.472573943436145782e-03
1.750624552369117737e-02,-7.744632661342620850e-02,-4.309188225306570530e-04,9.097229689359664917e-02,2.270508371293544769e-02,-4.747893661260604858e-02,-4.950807988643646240e-02,-7.714797556400299072e-02,6.762902438640594482e-02,-6.831447826698422432e-04,-3.641217574477195740e-02,-5.306480824947357178e-02,3.991435840725898743e-02,-6.432227790355682373e-02,4.453613236546516418e-02,4.249311517924070358e-03,-5.718739703297615051e-02,6.250126659870147705e-02,-5.248047783970832825e-02,4.285057261586189270e-02,-8.592715114355087280e-02,-1.995293796062469482e-02,6.830096244812011719e-02,-6.647048145532608032e-02,-3.460419364273548126e-03,6.346224248409271240e-02,7.643240690231323242e-02,6.098859012126922607e-02,9.435679763555526733e-03,8.812378346920013428e-02,-5.838312953710556030e-02,6.227800250053405762e-02,5.535903573036193848e-02,3.281451016664505005e-02,-3.721058741211891174e-02,5.963082984089851379e-02,-6.627707928419113159e-02,-3.226602822542190552e-02,-2.972145099192857742e-03,2.150567620992660522e-02,-7.673997431993484497e-02,8.706078678369522095e-02,-5.586037412285804749e-02,6.479255855083465576e-02,-4.750264808535575867e-02,-7.498207688331604004e-02,-1.398881245404481888e-02,-6.717880070209503174e-02,-2.802979387342929840e-02,-6.967162340879440308e-02,-8.777612447738647461e-02,-8.454788476228713989e-02,1.845832355320453644e-02,3.777387365698814392e-02,4.215733334422111511e-02,3.803923726081848145e-02,8.182303607463836670e-02,-6.630254536867141724e-02,-3.928365558385848999e-02,-1.026644930243492126e-02,-8.613917231559753418e-02,3.331398218870162964e-02,8.748066425323486328e-02,-7.067210972309112549e-02,7.721710950136184692e-02,3.032851032912731171e-02,-2.307582646608352661e-03,-2.627303078770637512e-02,5.023626238107681274e-02,6.691385060548782349e-03,3.006990998983383179e-02,-2.568899188190698624e-03,7.205189205706119537e-03,1.763564068824052811e-03,-5.487070605158805847e-02,-3.709923475980758667e-02,5.450043082237243652e-02,-2.214654721319675446e-02,-1.269089244306087494e-02,8.097364753484725952e-02,8.466727286577224731e-02,5.727755278348922729e-02,-3.432664647698402405e-02,7.632860541343688965e-02,5.060512199997901917e-02,7.812164723873138428e-02,4.809653013944625854e-02,-6.621075421571731567e-02,6.481786072254180908e-02,4.662628844380378723e-02,2.776521444320678711e-02,-1.046233251690864563e-02,-4.356385767459869385e-02,3.411079524084925652e-03,-8.626770973205566406e-02,6.242818757891654968e-02,8.771461248397827148e-02,4.183872789144515991e-02,-2.630904503166675568e-02,-1.947901095263659954e-03,-6.954829394817352295e-02,-1.367878820747137070e-02,8.287148922681808472e-02,7.421191781759262085e-02,-8.493602275848388672e-02,-1.237423904240131378e-02,4.109910875558853149e-02,3.872933611273765564e-02,1.916906237602233887e-02,7.410242408514022827e-02,5.785606056451797485e-02,1.433206815272569656e-02,3.691921383142471313e-02,4.904728010296821594e-02,-2.288377098739147186e-02,-5.013433471322059631e-02,2.311591804027557373e-02,1.422954443842172623e-02,-7.490745931863784790e-02,-7.509022206068038940e-02,-4.486503824591636658e-02,-8.368376642465591431e-03,-7.717981189489364624e-02,-7.259286195039749146e-02,4.854499921202659607e-02,2.893412858247756958e-02,3.853402286767959595e-02,8.347902446985244751e-02
1.356840971857309341e-02,2.613764256238937378e-02,1.329507026821374893e-02,-1.926924847066402435e-02,-8.545361459255218506e-02,8.277980238199234009e-02,5.807781219482421875e-02,8.419148623943328857e-02,-5.306284874677658081e-02,1.267856825143098831e-02,-7.139855623245239258e-02,4.208875074982643127e-02,-8.330488204956054688e-02,-2.142048068344593048e-02,-5.695736408233642578e-02,3.740509599447250366e-02,6.400370039045810699e-03,5.075984075665473938e-02,6.447736918926239014e-02,6.183708086609840393e-02,5.944001302123069763e-02,-3.537041321396827698e-02,-4.042349755764007568e-02,-4.142940416932106018e-02,4.558450356125831604e-02,-2.807204425334930420e-02,-6.470610946416854858e-02,8.133174479007720947e-02,-3.509335592389106750e-02,-2.135732956230640411e-02,3.723246231675148010e-02,-2.616692893207073212e-02,-3.629304468631744385e-03,5.120449140667915344e-02,2.261638268828392029e-02,7.109740376472473145e-02,6.398023664951324463e-02,-2.569390088319778442e-02,8.718885481357574463e-02,5.179377272725105286e-03,-2.492662705481052399e-02,-6.990554183721542358e-02,-5.605159699916839600e-02,8.521143347024917603e-02,6.669262051582336426e-02,-1.449218392372131348e-02,-3.481720387935638428e-02,-6.864624470472335815e-02,3.673823922872543335e-02,-8.990712463855743408e-02,-3.522016108036041260e-02,9.821701794862747192e-03,-1.313433889299631119e-02,6.868947297334671021e-02,-8.508096635341644287e-02,-8.689508587121963501e-02,2.450697682797908783e-02,1.131442282348871231e-02,-3.451470658183097839e-02,3.990185633301734924e-02,1.432328601367771626e-03,-4.901474714279174805e-02,8.187459409236907959e-02,3.491090610623359680e-04,8.171700686216354370e-02,3.612625971436500549e-02,5.301117151975631714e-02,5.825592204928398132e-02,5.243054777383804321e-02,1.903925463557243347e-02,5.969183053821325302e-03,-1.712636835873126984e-02,-1.276494655758142471e-02,-9.460245491936802864e-04,-8.271420001983642578e-02,-1.156868506222963333e-02,1.090335287153720856e-02,8.126088976860046387e-02,-1.001238171011209488e-02,8.267959952354431152e-02,2.198359742760658264e-02,-4.777874052524566650e-02,-6.511398404836654663e-02,-2.325649186968803406e-02,-8.143065124750137329e-02,3.937581554055213928e-02,-7.857200503349304199e-02,-7.587067782878875732e-02,-2.177735045552253723e-02,5.590896308422088623e-02,1.884821802377700806e-02,-7.160402089357376099e-02,-4.604700580239295959e-02,-6.360640376806259155e-02,1.310004200786352158e-02,-8.615520596504211426e-02,-9.288474172353744507e-02,-3.674225509166717529e-02,3.389812260866165161e-02,-6.919099390506744385e-02,-4.041408747434616089e-02,4.873677343130111694e-02,-2.295903861522674561e-02,-4.671216011047363281e-02,4.527770355343818665e-02,-8.063232153654098511e-02,-4.631164669990539551e-02,2.324635908007621765e-02,6.064209342002868652e-02,-2.800090983510017395e-02,-4.733318462967872620e-02,2.474189363420009613e-02,1.213551778346300125e-02,-5.107660591602325439e-02,2.463284879922866821e-02,-6.623578816652297974e-02,-1.791554503142833710e-02,3.546248376369476318e-02,6.741642951965332031e-02,-4.305544123053550720e-02,-4.426762089133262634e-02,-7.274108380079269409e-02,3.046332485973834991e-02,-4.408864676952362061e-02,-9.311433136463165283e-02,-6.054574996232986450e-02,6.457436084747314453e-02,-2.519611455500125885e-02
-8.941431343555450439e-02,-5.503677297383546829e-03,7.309119403362274170e-02,8.354495465755462646e-02,-3.907205909490585327e-02,1.776384748518466949e-02,-2.385503612458705902e-02,7.563981413841247559e-02,2.213396318256855011e-02,-1.277699321508407593e-02,3.407024219632148743e-02,5.733015015721321106e-02,-1.397623866796493530e-02,5.329886451363563538e-02,5.220326129347085953e-03,2.451371029019355774e-02,6.231572106480598450e-02,6.533695757389068604e-02,4.405538365244865417e-02,-3.591894358396530151e-02,3.710089623928070068e-02,4.889289289712905884e-02,-2.411345206201076508e-02,5.719684436917304993e-02,-7.926883548498153687e-02,8.395866304636001587e-02,2.341485396027565002e-02,2.655537426471710205e-02,-8.555693179368972778e-02,3.389352187514305115e-02,4.087873920798301697e-02,-8.332978934049606323e-02,-8.238011598587036133e-02,7.187673449516296387e-02,-8.580181002616882324e-02,-1.404848601669073105e-02,-7.297366112470626831e-02,4.159706458449363708e-02,2.907633222639560699e-02,2.429192885756492615e-02,2.451879717409610748e-02,-6.756705045700073242e-02,-3.736121952533721924e-02,-6.412432342767715454e-02,-3.635347262024879456e-02,-5.107764899730682373e-02,-4.739175364375114441e-02,-4.380644485354423523e-02,4.481347650289535522e-02,3.477510437369346619e-02,-6.607529520988464355e-02,1.718565821647644043e-02,8.283161371946334839e-02,-2.515229955315589905e-02,1.507984660565853119e-02,-3.718195017427206039e-03,-4.414896667003631592e-02,-3.060602396726608276e-02,5.748743191361427307e-02,6.531569361686706543e-02,-1.381015125662088394e-02,-8.969083428382873535e-02,8.312156796455383301e-02,-1.065000146627426147e-02,1.709929294884204865e-02,9.683312848210334778e-03,-1.109411660581827164e-02,-1.862342655658721924e-02,-5.466908216476440430e-02,-5.587046220898628235e-02,-6.103213131427764893e-02,-3.071036562323570251e-02,3.019094467163085938e-02,7.270032912492752075e-02,5.672928690910339355e-02,-6.168005988001823425e-02,5.175789073109626770e-02,6.353766471147537231e-02,-4.848052747547626495e-03,7.912454009056091309e-02,2.658698894083499908e-02,-5.194553732872009277e-02,-8.758991956710815430e-03,2.278335951268672943e-02,-6.570552289485931396e-02,4.689782485365867615e-02,-5.268535390496253967e-02,-6.034000962972640991e-02,4.817069694399833679e-02,-4.414873570203781128e-02,1.513436902314424515e-02,1.215646741911768913e-03,-3.469718620181083679e-02,-3.070615418255329132e-02,7.016823440790176392e-02,-2.833171561360359192e-02,-4.324392601847648621e-02,-5.802136845886707306e-03,8.057129569351673126e-03,4.593117535114288330e-02,-3.585593774914741516e-02,-3.829260542988777161e-02,7.850704342126846313e-02,1.711277989670634270e-03,-8.637686260044574738e-03,-9.303040057420730591e-02,-9.996300563216209412e-03,4.336667060852050781e-02,2.635706774890422821e-02,-5.201110616326332092e-02,4.820271860808134079e-03,7.218424230813980103e-02,7.874736934900283813e-02,6.110540032386779785e-02,2.574347332119941711e-02,-6.509781628847122192e-02,6.545798853039741516e-03,-6.947561353445053101e-02,1.201287843286991119e-02,4.446763917803764343e-02,6.370624899864196777e-02,-3.013334795832633972e-02,7.231447845697402954e-02,9.153936989605426788e-03,-4.158969223499298096e-02,7.202875614166259766e-02,5.976811051368713379e-02,8.782145380973815918e-02
-3.584199398756027222e-02,-4.653863608837127686e-02,-1.386173348873853683e-02,4.383772145956754684e-03,5.939255654811859131e-02,-7.846692949533462524e-02,-3.751318156719207764e-02,-7.125952094793319702e-02,-4.541514441370964050e-02,-8.084098249673843384e-02,4.966895654797554016e-02,-2.476941794157028198e-02,-7.152224332094192505e-02,-1.425683684647083282e-02,-4.981819167733192444e-02,-1.428819075226783752e-02,-8.690906106494367123e-04,6.405810266733169556e-02,-8.861837536096572876e-02,-4.001083597540855408e-02,1.132355444133281708e-02,7.587575167417526245e-02,-2.977564744651317596e-02,2.565068751573562622e-02,-4.462929442524909973e-02,-7.642421126365661621e-02,-8.758927136659622192e-02,-6.008199229836463928e-02,-4.439369216561317444e-02,6.671890616416931152e-02,9.488165378570556641e-03,-5.986520275473594666e-02,1.117957290261983871e-03,5.522990971803665161e-02,-5.663079023361206055e-02,-6.375971436500549316e-02,-2.266542054712772369e-02,4.583653062582015991e-02,2.391288802027702332e-02,-1.735334843397140503e-02,7.169108092784881592e-02,3.042355924844741821e-02,-5.046052113175392151e-02,-3.606387972831726074e-02,-9.981410577893257141e-03,-2.729630842804908752e-02,6.781479716300964355e-02,-2.021403796970844269e-02,6.615121848881244659e-03,4.542527347803115845e-02,3.370933607220649719e-02,1.958346739411354065e-02,4.576846584677696228e-02,-9.724464267492294312e-03,2.035082876682281494e-02,-2.948503382503986359e-02,3.295037895441055298e-02,-8.518815785646438599e-02,-2.327830716967582703e-02,5.079081654548645020e-02,-3.361742245033383369e-03,2.338438853621482849e-02,-3.257991047576069832e-04,1.796269230544567108e-02,-4.050210118293762207e-02,2.630751207470893860e-02,-4.516648501157760620e-02,-6.660243868827819824e-02,-5.915194377303123474e-02,5.680968612432479858e-02,2.325329557061195374e-02,-7.871759682893753052e-02,4.322895407676696777e-02,2.663088776171207428e-02,6.253122817724943161e-03,-4.170101881027221680e-02,2.226509340107440948e-02,3.144199028611183167e-02,6.165100634098052979e-02,-3.966063261032104492e-02,-6.829407811164855957e-02,-5.645643547177314758e-02,-6.953971832990646362e-02,5.557771772146224976e-02,1.560100167989730835e-02,7.445804029703140259e-02,-1.022501615807414055e-03,-6.557302922010421753e-02,-2.579456381499767303e-02,3.416651859879493713e-02,1.120918802917003632e-02,-2.635709755122661591e-02,-8.208335191011428833e-02,-1.251437235623598099e-02,5.562392622232437134e-02,-8.944458328187465668e-03,9.139956533908843994e-02,-8.054351806640625000e-02,2.135149575769901276e-02,3.282978013157844543e-02,-3.207237273454666138e-02,1.058427058160305023e-02,7.245028764009475708e-02,-6.848914176225662231e-02,-7.156939804553985596e-02,-6.840887665748596191e-02,3.240152820944786072e-02,9.231385588645935059e-02,1.989931985735893250e-02,2.635758556425571442e-02,5.296854674816131592e-02,-7.070422917604446411e-02,5.562890321016311646e-02,-6.053688004612922668e-02,-3.443453088402748108e-02,-4.269168898463249207e-02,3.837607800960540771e-02,-7.655641436576843262e-02,1.290989108383655548e-02,2.488960698246955872e-02,-3.268956393003463745e-02,-7.968112826347351074e-02,1.602365262806415558e-02,-3.494556620717048645e-02,-5.329401046037673950e-02,-3.848802670836448669e-02,-4.430450499057769775e-02,-5.515288212336599827e-04
-9.039799124002456665e-02,-2.188306301832199097e-02,-6.050261855125427246e-02,-4.443912580609321594e-02,3.183327987790107727e-02,7.037522643804550171e-02,1.789074949920177460e-02,-7.810100167989730835e-02,3.554258495569229126e-02,9.069249033927917480e-02,4.536012653261423111e-03,5.218989029526710510e-02,9.377622976899147034e-03,-5.030163004994392395e-02,-5.319680646061897278e-02,8.138314634561538696e-02,8.849878795444965363e-03,6.896413862705230713e-03,7.062149792909622192e-02,-6.127514317631721497e-02,-3.962279856204986572e-02,-4.089238494634628296e-02,-8.704991638660430908e-02,4.929739609360694885e-02,7.321097701787948608e-02,-5.644774809479713440e-02,5.185099318623542786e-02,-8.744736015796661377e-02,3.309269994497299194e-02,-5.812506750226020813e-02,-2.983422204852104187e-02,6.647669523954391479e-02,5.050992127507925034e-03,-1.452318392693996429e-03,-5.155863612890243530e-02,-9.253906458616256714e-02,1.562232058495283127e-02,4.552761092782020569e-02,1.748331822454929352e-02,-4.286020249128341675e-02,2.444491162896156311e-02,6.621849257498979568e-03,-4.033429920673370361e-02,1.464699115604162216e-02,9.054091572761535645e-02,-6.009542196989059448e-02,-3.754504397511482239e-02,5.570641532540321350e-02,-2.176411449909210205e-02,-2.835715375840663910e-02,8.478002995252609253e-02,-1.687411218881607056e-02,6.851459294557571411e-02,5.301403813064098358e-03,8.924788981676101685e-02,-8.176607638597488403e-02,-5.115904286503791809e-02,7.564589381217956543e-02,2.666558139026165009e-02,7.594614475965499878e-02,7.393353153020143509e-03,-4.795665387064218521e-03,-8.001928776502609253e-02,-6.120983883738517761e-02,6.166555732488632202e-02,-4.836070910096168518e-02,-7.306732982397079468e-02,1.369104441255331039e-02,5.184388253837823868e-03,4.280924424529075623e-02,5.249414825811982155e-04,-1.999829895794391632e-02,-7.391494512557983398e-02,-4.139313008636236191e-03,7.630018983036279678e-03,3.332182765007019043e-02,-7.145892083644866943e-02,7.974509149789810181e-02,2.309830859303474426e-02,-7.283552736043930054e-02,3.545514494180679321e-02,8.220537751913070679e-02,-3.929784148931503296e-02,-7.793084532022476196e-02,6.399031262844800949e-03,-4.542092233896255493e-02,-5.648008361458778381e-02,7.011713832616806030e-02,-7.694081962108612061e-02,8.881689049303531647e-03,-4.833921417593955994e-02,-3.166217729449272156e-02,-7.962486147880554199e-02,8.468170464038848877e-02,1.489724125713109970e-02,-7.821865379810333252e-02,-1.226864941418170929e-02,8.185829222202301025e-02,5.458163842558860779e-02,-3.176892921328544617e-02,-6.150961667299270630e-02,4.705141112208366394e-02,4.658991470932960510e-02,-1.234550122171640396e-02,-4.073017463088035583e-02,3.613697737455368042e-02,1.882701367139816284e-02,1.759976148605346680e-02,-9.179080277681350708e-02,-3.678514435887336731e-02,9.655365720391273499e-03,-3.479347005486488342e-02,7.872017472982406616e-02,6.817710399627685547e-02,2.678156085312366486e-02,-5.619892850518226624e-02,-8.600815385580062866e-02,3.679741173982620239e-02,6.894927471876144409e-02,6.581841409206390381e-02,1.787974685430526733e-02,5.279324483126401901e-03,-5.056963488459587097e-02,2.000980637967586517e-02,-3.527263551950454712e-02,1.515120733529329300e-02,-9.736698120832443237e-03,-3.026192774996161461e-03
2.026311680674552917e-02,-6.378225982189178467e-02,-2.247841097414493561e-03,-1.052756421267986298e-02,-6.235652416944503784e-02,7.207588106393814087e-02,6.253467500209808350e-02,-7.761233486235141754e-03,-2.663689665496349335e-02,-7.228308916091918945e-02,-6.239512935280799866e-02,6.858026236295700073e-02,-3.324276208877563477e-02,-3.600484132766723633e-02,-5.022474750876426697e-02,9.484946727752685547e-03,2.919011376798152924e-02,-8.552414923906326294e-02,5.123708024621009827e-02,-2.524333074688911438e-02,5.774024128913879395e-02,-3.217811137437820435e-02,2.416481450200080872e-02,3.772548958659172058e-02,1.774267479777336121e-02,-4.819648340344429016e-02,5.704542621970176697e-02,1.459176884964108467e-03,5.118506774306297302e-02,8.031951263546943665e-03,-8.718768507242202759e-02,7.389648817479610443e-04,5.222197249531745911e-02,1.246049348264932632e-02,-2.164757996797561646e-02,-1.783349923789501190e-02,-3.634576871991157532e-02,-5.786456167697906494e-02,-7.455843687057495117e-02,6.436104886233806610e-03,3.144952654838562012e-02,1.412230264395475388e-02,8.839221298694610596e-02,-3.587276861071586609e-02,-7.716552168130874634e-02,-2.192118018865585327e-02,1.608300022780895233e-02,-7.844518870115280151e-02,-8.017676323652267456e-02,-4.821825027465820312e-02,-1.570999622344970703e-02,-2.030030637979507446e-02,-1.193298399448394775e-02,7.487405091524124146e-02,-6.530814617872238159e-02,-7.435736805200576782e-02,7.336196303367614746e-02,-5.498144403100013733e-02,9.059175103902816772e-02,6.474653631448745728e-02,-5.925137549638748169e-02,2.349185757339000702e-03,-5.366149917244911194e-02,1.909628324210643768e-02,-3.736460581421852112e-02,-6.512872874736785889e-02,-3.127234522253274918e-03,2.736527845263481140e-02,-5.726728960871696472e-02,2.008185163140296936e-02,-1.032533869147300720e-02,-1.370083913207054138e-02,4.111587628722190857e-02,1.562006399035453796e-02,2.478111721575260162e-02,-5.444189906120300293e-02,-5.229272320866584778e-02,1.171987783163785934e-02,-6.711883842945098877e-02,6.689397990703582764e-02,4.056596383452415466e-02,5.588805675506591797e-02,-5.977901071310043335e-02,-8.456665277481079102e-02,7.879362255334854126e-02,-6.084301695227622986e-02,-8.028454333543777466e-02,-8.596156537532806396e-02,6.858956068754196167e-02,-7.051907479763031006e-02,7.235608249902725220e-02,-7.514232397079467773e-02,-8.391703478991985321e-03,1.742464490234851837e-02,5.644562095403671265e-02,6.878943648189306259e-03,6.208895519375801086e-02,-6.594356894493103027e-02,-6.411792337894439697e-02,7.017612457275390625e-02,-7.811397314071655273e-02,1.550199929624795914e-02,3.324555978178977966e-02,7.141634076833724976e-02,-2.153977006673812866e-02,3.877897188067436218e-02,-7.193773984909057617e-02,-1.251084357500076294e-02,-6.281512230634689331e-02,2.778603136539459229e-02,3.005358204245567322e-02,-4.010912030935287476e-02,-6.075714528560638428e-02,7.631027605384588242e-03,-4.543151706457138062e-02,8.001125603914260864e-02,6.279390305280685425e-02,1.808804087340831757e-02,2.181953191757202148e-02,-7.091135717928409576e-03,3.862841427326202393e-02,-8.722460269927978516e-02,-1.832054927945137024e-02,-2.494044788181781769e-02,-5.375420209020376205e-03,9.213874116539955139e-03,3.142362460494041443e-02,-1.378453243523836136e-02
-8.920340240001678467e-02,6.098911166191101074e-02,-3.973360732197761536e-02,1.356617547571659088e-02,4.815774783492088318e-02,-8.197612315416336060e-02,5.633993819355964661e-02,7.564152777194976807e-02,1.648147404193878174e-02,-6.605435162782669067e-03,6.974883377552032471e-02,4.752928391098976135e-02,2.836859598755836487e-02,-1.274922979064285755e-04,-4.093837738037109375e-02,-5.385266849771142006e-04,2.750130556523799896e-02,6.685949116945266724e-02,4.501202143728733063e-03,1.646934542804956436e-03,6.682992726564407349e-02,-3.291255235671997070e-02,-8.063538372516632080e-02,-7.929693907499313354e-02,7.481885701417922974e-02,-6.062990427017211914e-02,6.306948512792587280e-02,-3.051303327083587646e-02,-1.952636800706386566e-02,-7.368648052215576172e-02,-4.244676604866981506e-02,3.854295238852500916e-02,-6.185809522867202759e-02,8.699421584606170654e-02,-2.992258034646511078e-02,4.028926417231559753e-02,-4.371393471956253052e-02,7.568575907498598099e-03,-9.156262129545211792e-02,8.073127269744873047e-02,8.333984762430191040e-02,-3.083617985248565674e-02,2.799377404153347015e-02,1.364713907241821289e-02,4.626275226473808289e-02,-8.329139649868011475e-02,8.582902699708938599e-02,-2.445903979241847992e-02,-4.652854427695274353e-02,4.029358923435211182e-02,-7.924596965312957764e-02,8.831277489662170410e-02,-6.465346366167068481e-02,1.217183470726013184e-02,-3.809457644820213318e-02,-5.045559629797935486e-02,6.314382702112197876e-02,4.239052906632423401e-02,6.826480478048324585e-02,3.902978822588920593e-02,-3.624709323048591614e-02,4.380956664681434631e-02,6.598523259162902832e-02,-2.111929468810558319e-02,8.506944030523300171e-02,-5.009868741035461426e-02,-6.856304127722978592e-03,-1.266805361956357956e-02,-2.009747922420501709e-02,-8.211325854063034058e-03,-7.522288709878921509e-02,4.305424541234970093e-02,6.209518760442733765e-02,-2.930800255853682756e-04,2.166423946619033813e-02,2.985563315451145172e-02,3.912148997187614441e-02,-6.899695843458175659e-02,4.382169991731643677e-02,-1.612764410674571991e-02,-7.765676826238632202e-02,-7.978111505508422852e-02,2.943446300923824310e-02,-7.669145613908767700e-02,-8.509816834703087807e-04,7.885835319757461548e-02,-8.840230852365493774e-02,-4.245940595865249634e-02,-9.290112555027008057e-02,-4.927448183298110962e-02,-8.511779457330703735e-02,1.084118895232677460e-02,4.157676175236701965e-02,3.459211066365242004e-02,-2.297552861273288727e-02,2.748288586735725403e-02,6.788775324821472168e-02,-4.940389841794967651e-02,-4.947927221655845642e-02,-7.327120751142501831e-02,6.529068946838378906e-02,6.249477341771125793e-02,-1.140347495675086975e-02,-3.319616988301277161e-02,5.449104309082031250e-02,6.140339188277721405e-03,5.440661683678627014e-02,2.069022506475448608e-02,4.375298693776130676e-02,3.000493347644805908e-02,-9.067301452159881592e-02,9.228659421205520630e-02,7.331593334674835205e-02,7.583452761173248291e-02,-8.771445602178573608e-02,8.412951603531837463e-03,7.532855123281478882e-02,2.105151861906051636e-02,3.473702073097229004e-02,5.160610377788543701e-02,3.065421804785728455e-02,1.814030110836029053e-02,-3.404611023142933846e-03,-8.159019052982330322e-02,-8.030918240547180176e-02,6.438206136226654053e-02,7.018139213323593140e-02,7.354609668254852295e-02
