-2.412545122206211090e-02,-7.118164747953414917e-02,-1.708183251321315765e-02,-6.833418272435665131e-03,5.250699818134307861e-02,8.211218565702438354e-02,4.623070359230041504e-02,-8.114144951105117798e-02,-4.537257552146911621e-02,1.104051992297172546e-02,-3.016594424843788147e-02,4.180344194173812866e-02,-5.022191908210515976e-05,9.352248162031173706e-03,-1.623801514506340027e-02,3.702285140752792358e-02,7.573913037776947021e-02,5.423748865723609924e-02,5.844038724899291992e-02,2.796164713799953461e-02,-2.898391522467136383e-02,-4.291858524084091187e-02,2.844640612602233887e-02,5.063026398420333862e-02,7.677163183689117432e-02,6.685864925384521484e-02,2.407753653824329376e-02,-3.306766599416732788e-02,-8.300836384296417236e-02,-3.941399604082107544e-02,-5.516896024346351624e-02,-5.623394250869750977e-02,-5.026229843497276306e-02,-6.377585232257843018e-02,6.579896062612533569e-02,3.045847639441490173e-02,-5.209705606102943420e-02,-7.358599454164505005e-02,7.680939137935638428e-02,-4.399279877543449402e-02,-3.260058118030428886e-03,5.598004534840583801e-02,-3.367630392313003540e-02,-4.710124060511589050e-02,4.946872591972351074e-02,-5.354754626750946045e-02,2.452600374817848206e-02,6.705866660922765732e-03,-1.371232047677040100e-02,4.708052799105644226e-02,1.497838273644447327e-02,-3.323969244956970215e-02,5.011660233139991760e-02,6.770186871290206909e-02,-2.482482977211475372e-02,-6.379928439855575562e-02,3.634236380457878113e-02,-7.747198641300201416e-02,-7.671858370304107666e-02,3.512007370591163635e-02,5.379633232951164246e-02,-6.174862012267112732e-02,2.751698717474937439e-02,-6.555385887622833252e-02,5.466241389513015747e-02,7.398079335689544678e-02,-5.158613622188568115e-02,-3.333085775375366211e-02,6.757384538650512695e-02,4.819911345839500427e-02,8.484486490488052368e-02,-2.551414538174867630e-03,2.636294066905975342e-02,1.985253300517797470e-03,4.715840518474578857e-02,-1.596887782216072083e-02,-5.850454419851303101e-02,-8.802177757024765015e-02,-4.674016684293746948e-02,2.272635512053966522e-02,-8.550342172384262085e-02,-3.712220489978790283e-02,1.376642193645238876e-02,7.985075004398822784e-03,4.428838938474655151e-02,3.347679506987333298e-03,-9.784694761037826538e-03,-2.342943102121353149e-02,-3.418212756514549255e-02,8.589203655719757080e-02,7.575170695781707764e-02,2.162271365523338318e-02,4.638924077153205872e-02,5.193896219134330750e-02,2.932148426771163940e-02,6.050921231508255005e-02,-4.455780982971191406e-02,-6.014285981655120850e-02,5.517310649156570435e-02,-9.171107667498290539e-04,6.919667124748229980e-02,-6.831922382116317749e-02,6.637873500585556030e-02,1.797437481582164764e-02,5.649922043085098267e-02,-3.443990275263786316e-02,-6.894318759441375732e-02,-1.987476274371147156e-02,4.258785024285316467e-02,-2.564934082329273224e-02,-2.383735496550798416e-03,8.359105885028839111e-02,6.480387528426945210e-04,-7.760844193398952484e-03,-8.083993941545486450e-02,2.695480361580848694e-03,1.476645469665527344e-02,6.596648693084716797e-02,5.833253636956214905e-02,7.989811152219772339e-02,5.003594607114791870e-02,-1.377833168953657150e-02,2.338875643908977509e-02,-2.849950082600116730e-02,7.419297844171524048e-02,-3.063048422336578369e-02,5.247106030583381653e-02,1.727439090609550476e-02
-3.673618286848068237e-02,-6.621855497360229492e-02,6.441052258014678955e-02,2.927136374637484550e-03,-8.581624180078506470e-02,-4.301275685429573059e-02,-9.930146858096122742e-03,-2.785222604870796204e-02,-8.557745255529880524e-03,-5.694297701120376587e-02,6.583287566900253296e-02,-4.054726287722587585e-02,5.063578858971595764e-02,-5.682913213968276978e-02,-7.339020818471908569e-02,-1.200632564723491669e-02,-9.002243727445602417e-02,6.951312720775604248e-02,-6.108580902218818665e-02,-5.882101505994796753e-02,-8.108837902545928955e-02,-5.935900285840034485e-02,7.616695482283830643e-03,4.112201929092407227e-02,2.622553519904613495e-02,7.846260070800781250e-02,4.634616151452064514e-02,-2.246254868805408478e-02,-7.276569958776235580e-03,-8.213862031698226929e-02,6.825188547372817993e-02,6.515004485845565796e-02,-5.644378066062927246e-02,3.126417053863406181e-03,-5.350295454263687134e-02,-7.456674426794052124e-02,-4.784787446260452271e-02,3.285808861255645752e-02,2.474191831424832344e-03,-8.291240781545639038e-02,5.843915045261383057e-02,-5.765690281987190247e-02,-7.540880143642425537e-02,-8.719880133867263794e-02,9.846124798059463501e-03,-8.862280845642089844e-02,3.496736753731966019e-03,7.471552491188049316e-02,6.242305412888526917e-02,1.568322069942951202e-02,1.498744543641805649e-02,-2.132585272192955017e-02,-2.523638866841793060e-02,-1.103293150663375854e-02,7.169730216264724731e-02,-6.898984313011169434e-02,-6.254887580871582031e-02,-1.777215674519538879e-02,-6.228131800889968872e-02,4.175317659974098206e-02,-5.559941288083791733e-03,5.086472257971763611e-02,-7.163848727941513062e-02,7.744231820106506348e-02,-3.993748873472213745e-02,8.217459172010421753e-02,4.907885193824768066e-02,2.975814789533615112e-02,-7.553660869598388672e-02,6.672615557909011841e-02,1.597020402550697327e-02,-6.223235279321670532e-02,4.914152622222900391e-02,-2.898162044584751129e-02,-4.500714316964149475e-02,-3.700750693678855896e-02,-1.724049635231494904e-02,-6.088981777429580688e-02,4.072512313723564148e-02,6.328074634075164795e-02,6.240656599402427673e-02,-3.440980240702629089e-02,-1.101793628185987473e-02,8.487880229949951172e-02,5.690482258796691895e-02,2.513416297733783722e-02,5.132543668150901794e-02,-2.780548483133316040e-02,1.665944978594779968e-02,5.731266364455223083e-02,-3.431798145174980164e-02,-4.317541047930717468e-02,-7.814753800630569458e-02,-8.903243578970432281e-03,2.013972843997180462e-04,2.646158821880817413e-02,-8.055051416158676147e-02,-1.844927668571472168e-02,-7.941350340843200684e-02,-9.244295209646224976e-02,4.142864421010017395e-02,8.315683156251907349e-02,6.260602176189422607e-02,-2.987290546298027039e-02,4.248413443565368652e-02,1.837203651666641235e-02,-5.027261748909950256e-02,1.862537302076816559e-02,-7.347286492586135864e-02,9.658296592533588409e-03,-3.302519023418426514e-02,4.920094087719917297e-02,2.885558269917964935e-02,-2.419243566691875458e-02,3.249630331993103027e-02,3.274264186620712280e-02,-5.421031266450881958e-02,-1.657808944582939148e-02,-6.919901072978973389e-02,-6.461339443922042847e-02,-6.130118668079376221e-02,4.893228411674499512e-02,4.876833781599998474e-02,4.777251929044723511e-02,-8.438512682914733887e-02,6.920975446701049805e-02,3.339044749736785889e-02,-5.279171094298362732e-02
-5.729388445615768433e-02,8.696766197681427002e-02,-3.044362412765622139e-03,2.813803590834140778e-02,1.665528281591832638e-03,-6.488835066556930542e-02,5.991624295711517334e-02,-8.821966499090194702e-02,-6.167632713913917542e-02,6.454533338546752930e-02,4.774867370724678040e-02,4.058224335312843323e-02,6.702831480652093887e-03,-3.266801685094833374e-02,3.119466640055179596e-02,-8.765307813882827759e-02,-7.174646854400634766e-02,8.234132826328277588e-02,3.994994238018989563e-02,-5.634007975459098816e-02,-7.184346020221710205e-02,2.230632118880748749e-02,-7.300520688295364380e-02,7.692118734121322632e-02,-7.596756517887115479e-02,-5.661211907863616943e-02,-1.190494000911712646e-02,-1.617778278887271881e-02,7.467882335186004639e-02,3.864667937159538269e-02,5.556070059537887573e-02,-6.888130307197570801e-02,8.946508169174194336e-02,-8.792916685342788696e-02,8.598183840513229370e-02,4.837666451930999756e-02,-7.664746791124343872e-02,-5.857960879802703857e-02,-7.113276422023773193e-02,-4.347560182213783264e-02,-4.322323203086853027e-02,-1.305762305855751038e-02,-6.836805492639541626e-02,-5.792746320366859436e-02,5.823754891753196716e-02,3.603196935728192329e-03,-7.285599131137132645e-04,1.551758870482444763e-02,-2.209171419963240623e-03,3.532814234495162964e-02,3.882571682333946228e-02,7.781777530908584595e-02,5.976520851254463196e-02,-4.158004303462803364e-04,8.094455301761627197e-02,6.086440384387969971e-02,4.311400651931762695e-02,1.309914235025644302e-02,2.600760385394096375e-02,5.335953831672668457e-02,7.182697206735610962e-02,-8.357157558202743530e-02,3.215664625167846680e-02,-6.917598843574523926e-02,7.432600855827331543e-02,-6.282887607812881470e-02,7.131863385438919067e-02,7.167968899011611938e-02,7.538480311632156372e-02,-7.231286168098449707e-02,-2.533891238272190094e-02,-3.199360147118568420e-02,5.127025023102760315e-02,-5.406714975833892822e-02,-5.930572375655174255e-02,-3.525867313146591187e-02,-2.930098772048950195e-02,-6.700773537158966064e-02,3.442629799246788025e-02,8.576778694987297058e-03,6.523329764604568481e-02,4.137209057807922363e-02,6.968418508768081665e-02,-4.926633089780807495e-02,-8.466241508722305298e-02,-8.700439333915710449e-02,-1.248830743134021759e-02,7.334683835506439209e-02,-7.494036853313446045e-02,4.419789463281631470e-02,2.223463729023933411e-02,-7.493558526039123535e-02,-4.809107631444931030e-02,-1.474437769502401352e-02,2.199579728767275810e-03,-3.268641605973243713e-02,-6.363879074342548847e-04,3.981568291783332825e-02,-4.297500103712081909e-02,2.688482170924544334e-03,7.533786352723836899e-03,7.669171690940856934e-02,-7.391016930341720581e-02,-5.956060066819190979e-02,5.753241945058107376e-03,2.593361400067806244e-02,3.303081914782524109e-02,-4.288616031408309937e-02,-3.738957270979881287e-02,-2.400810830295085907e-02,-8.933567255735397339e-02,-4.170736297965049744e-02,-7.809296250343322754e-02,-8.094139397144317627e-02,8.350677043199539185e-02,4.633036628365516663e-02,-3.847793117165565491e-02,-7.052009552717208862e-02,3.034363687038421631e-02,-4.096579551696777344e-02,-6.339870393276214600e-02,7.725556194782257080e-02,-7.282930612564086914e-02,-3.242057282477617264e-03,-2.031743759289383888e-03,5.578875169157981873e-02,-2.549923956394195557e-02,-1.910517551004886627e-02
-1.175182312726974487e-02,-4.324418958276510239e-03,-5.652502179145812988e-02,-3.733988106250762939e-02,4.931024089455604553e-02,7.631468772888183594e-02,-7.216185331344604492e-02,4.735540971159934998e-02,-9.679232724010944366e-03,1.476131659001111984e-02,3.804086148738861084e-02,-4.801084473729133606e-02,-1.909619010984897614e-02,3.704167902469635010e-02,2.495202468708157539e-03,4.826755449175834656e-02,-2.287866082042455673e-04,7.602958939969539642e-04,3.296194598078727722e-02,6.789050996303558350e-02,8.484779857099056244e-03,1.572775654494762421e-02,-2.092768810689449310e-02,-4.517034441232681274e-02,3.105286741629242897e-03,-6.938950717449188232e-02,3.294015675783157349e-02,-4.562562331557273865e-02,-2.867272682487964630e-02,-6.168016791343688965e-02,-1.470472756773233414e-02,1.272801216691732407e-02,6.459797173738479614e-02,-5.424481630325317383e-02,2.770688012242317200e-02,8.255444467067718506e-02,-5.668450146913528442e-03,-5.511179193854331970e-02,-6.797678768634796143e-02,7.091020047664642334e-02,6.988304201513528824e-03,2.888105623424053192e-02,-6.390133500099182129e-02,-5.228121206164360046e-02,8.701702579855918884e-03,-9.245920926332473755e-02,-2.732939086854457855e-02,5.923796817660331726e-02,-5.368125811219215393e-02,-5.780861526727676392e-02,-2.171196788549423218e-02,-5.828133970499038696e-02,-8.287435770034790039e-02,2.812755294144153595e-02,2.198535762727260590e-02,3.915051743388175964e-02,1.596748642623424530e-02,-1.764178508892655373e-03,1.479182019829750061e-02,4.873817786574363708e-02,8.286175876855850220e-02,-4.727583751082420349e-02,5.577867105603218079e-02,6.128097698092460632e-02,2.921734005212783813e-02,-4.810619726777076721e-02,5.197486653923988342e-02,5.073982104659080505e-02,2.732862532138824463e-02,-5.055853724479675293e-02,1.146624796092510223e-02,1.676578447222709656e-02,-6.462616473436355591e-02,-8.848822675645351410e-03,-1.255295518785715103e-02,-5.338403210043907166e-02,-7.488838583230972290e-02,7.121063768863677979e-02,4.968549311161041260e-02,-4.481483995914459229e-02,1.823870651423931122e-02,7.943496853113174438e-02,4.992835968732833862e-02,7.525408267974853516e-02,1.444196980446577072e-02,-2.029668912291526794e-02,-5.838264524936676025e-02,6.101885437965393066e-02,6.082360446453094482e-02,-9.525856003165245056e-03,2.719432115554809570e-02,4.003244638442993164e-02,2.830908633768558502e-02,7.446188479661941528e-02,3.642098978161811829e-02,4.265233874320983887e-02,-7.307921350002288818e-02,-2.097584307193756104e-02,3.795037511736154556e-03,2.357716439291834831e-04,-3.258500248193740845e-02,-8.753497153520584106e-02,-4.890082031488418579e-02,1.761387800797820091e-03,9.154492057859897614e-03,4.028509929776191711e-02,1.520788669586181641e-02,4.694503918290138245e-02,8.471238613128662109e-02,9.128472208976745605e-02,-8.138463646173477173e-02,-6.609421223402023315e-02,9.006320498883724213e-03,-3.854978829622268677e-02,7.585029304027557373e-02,-1.604507304728031158e-02,2.839845046401023865e-02,-7.550219446420669556e-02,-4.494977369904518127e-02,-6.022656336426734924e-02,2.812476456165313721e-02,-1.909637823700904846e-02,-5.228433385491371155e-02,1.925394870340824127e-03,-2.484857104718685150e-02,-9.491077624261379242e-03,-7.482303678989410400e-02,7.973967492580413818e-02
-7.137074321508407593e-02,-8.853756636381149292e-02,-5.595209077000617981e-02,-2.305101417005062103e-02,-8.138278871774673462e-02,3.268145397305488586e-02,-6.235855445265769958e-02,2.839465625584125519e-03,8.736339956521987915e-02,6.174699217081069946e-02,6.521765142679214478e-02,-4.033014923334121704e-02,2.436458133161067963e-02,7.301601767539978027e-02,7.263910025358200073e-02,3.802182525396347046e-02,5.313049256801605225e-02,-6.655255705118179321e-02,5.404334142804145813e-02,4.905605316162109375e-02,-5.254568159580230713e-02,6.241814419627189636e-02,-6.521468609571456909e-02,-1.329942513257265091e-02,2.313901670277118683e-02,5.967445299029350281e-02,-4.643540084362030029e-02,-2.820541709661483765e-02,1.884958520531654358e-02,4.157772287726402283e-02,-8.246007561683654785e-02,-1.054726541042327881e-02,4.543911293148994446e-02,1.441266108304262161e-02,-7.094257324934005737e-02,3.377550095319747925e-02,-3.411330282688140869e-02,1.335943350568413734e-03,6.410201545804738998e-03,-2.691697329282760620e-02,8.585693687200546265e-02,1.439578644931316376e-02,6.323570013046264648e-02,5.971502047032117844e-03,1.397095248103141785e-02,5.841568857431411743e-02,-6.163617968559265137e-02,-8.660679310560226440e-02,7.846090942621231079e-03,7.780790328979492188e-02,-6.318756192922592163e-02,-4.758938774466514587e-02,3.153879940509796143e-02,-8.222664706408977509e-03,2.782052382826805115e-02,-4.986952617764472961e-02,4.128042235970497131e-02,-3.848574683070182800e-02,3.487581387162208557e-02,-2.999738790094852448e-02,6.250245124101638794e-02,-3.328385949134826660e-02,8.140726387500762939e-02,3.604894876480102539e-02,-5.388492718338966370e-02,-6.368406116962432861e-02,-7.263313978910446167e-02,-5.802619829773902893e-02,-5.758355557918548584e-02,6.446203589439392090e-02,1.236595306545495987e-02,-2.852780371904373169e-02,-5.679129064083099365e-02,5.948520451784133911e-02,-5.533705279231071472e-02,8.217371255159378052e-02,1.029027905315160751e-02,-7.654148340225219727e-02,4.956553503870964050e-02,4.449781775474548340e-02,1.903445459902286530e-02,7.462273351848125458e-03,-8.320014923810958862e-02,6.396427005529403687e-02,-9.232857078313827515e-02,-1.476191729307174683e-02,9.023699164390563965e-02,-3.299134224653244019e-02,5.247468873858451843e-02,2.329877577722072601e-02,4.642226547002792358e-02,-2.938248217105865479e-02,-7.992148399353027344e-02,-6.648355722427368164e-02,-8.707165718078613281e-02,-1.786426268517971039e-02,-2.927491627633571625e-02,7.742654532194137573e-02,6.362366490066051483e-03,-8.219557255506515503e-02,-8.361577242612838745e-02,3.914728760719299316e-02,-4.806487634778022766e-02,3.035350888967514038e-02,7.980766147375106812e-02,-8.642686530947685242e-03,-5.449335649609565735e-02,-6.379359215497970581e-02,7.955040037631988525e-02,9.290844202041625977e-03,3.680017963051795959e-02,-2.025331370532512665e-02,5.950942635536193848e-02,1.701851189136505127e-02,-1.825105212628841400e-02,-7.040441781282424927e-02,4.546408355236053467e-02,2.106735948473215103e-03,4.920049756765365601e-02,2.882488071918487549e-02,-2.004140056669712067e-02,-5.191621556878089905e-02,-4.884024709463119507e-02,-8.273453568108379841e-05,-4.570027068257331848e-02,7.576464116573333740e-02,3.832902386784553528e-02,2.771977335214614868e-02
-7.069380581378936768e-02,7.823169976472854614e-02,8.165168762207031250e-02,-2.092677168548107147e-03,6.427937000989913940e-02,-6.629385054111480713e-02,6.104912608861923218e-02,-7.709966599941253662e-02,-6.598758697509765625e-02,8.926109969615936279e-02,6.119304522871971130e-02,-4.485828801989555359e-02,8.557405322790145874e-02,-8.145837485790252686e-02,-2.600241824984550476e-02,8.573073148727416992e-02,-3.086464107036590576e-02,2.243806608021259308e-02,-1.802705973386764526e-02,-3.490223735570907593e-02,8.272307366132736206e-02,-1.167664676904678345e-02,2.581063844263553619e-02,-5.165500566363334656e-02,5.539555102586746216e-03,-4.772873967885971069e-02,-1.138953305780887604e-02,7.238464802503585815e-02,-3.653107210993766785e-03,-6.314403563737869263e-02,-6.743477284908294678e-02,-6.530711054801940918e-02,-3.157735243439674377e-02,3.415555134415626526e-02,7.133233547210693359e-02,-4.521933197975158691e-02,-6.784136593341827393e-02,2.821938879787921906e-02,2.576705254614353180e-02,2.150084450840950012e-02,1.933308690786361694e-02,4.958821088075637817e-02,6.802967935800552368e-02,-7.849383354187011719e-02,-8.911772072315216064e-02,-2.378108724951744080e-02,-3.674917388707399368e-04,-6.001264974474906921e-02,-8.821386843919754028e-02,-5.760665237903594971e-02,-9.077905118465423584e-02,5.859645456075668335e-02,-5.188145115971565247e-02,3.603360801935195923e-02,7.402979582548141479e-02,-4.122436791658401489e-02,7.196450978517532349e-02,6.531529873609542847e-02,-7.720103021711111069e-03,-7.884620875120162964e-02,1.081912592053413391e-02,3.676608577370643616e-02,-1.221373560838401318e-03,6.525161117315292358e-02,-7.708145678043365479e-02,8.338914066553115845e-02,-7.752452045679092407e-02,4.973601922392845154e-02,-4.699424281716346741e-02,-2.055938355624675751e-02,-1.485330145806074142e-02,-4.995601996779441833e-02,3.516646474599838257e-02,8.736282587051391602e-03,-5.139469355344772339e-02,3.666285425424575806e-02,1.588406600058078766e-02,4.030417278409004211e-02,3.092123195528984070e-02,2.339109778404235840e-05,3.330624476075172424e-02,-6.616331636905670166e-02,1.467749197036027908e-02,2.187491953372955322e-02,-6.080151535570621490e-03,-8.103360235691070557e-02,-8.624841272830963135e-02,4.528485238552093506e-02,-7.347971200942993164e-02,4.315715283155441284e-02,-1.831455505453050137e-03,2.675687707960605621e-02,5.680279433727264404e-02,4.139723628759384155e-02,3.272515162825584412e-02,-6.093889847397804260e-02,8.702275902032852173e-02,3.196405991911888123e-02,9.309932589530944824e-02,-8.730022609233856201e-02,-1.896096765995025635e-02,-1.554668042808771133e-02,-2.721682190895080566e-02,-1.486673601903021336e-03,7.935614325106143951e-03,1.418604701757431030e-02,8.120716363191604614e-02,5.821050144731998444e-03,5.649324879050254822e-02,1.249296241439878941e-03,4.422742500901222229e-02,-8.362134546041488647e-02,8.793609589338302612e-02,-8.892078697681427002e-02,6.832683086395263672e-02,5.730496253818273544e-03,8.782650344073772430e-03,4.196105524897575378e-02,3.895463794469833374e-02,-7.843704521656036377e-02,7.648327946662902832e-02,-8.004733920097351074e-02,3.121328912675380707e-02,5.059460923075675964e-02,-5.517204478383064270e-02,4.213511012494564056e-03,-5.287368595600128174e-02,2.984797395765781403e-02
-3.797774435952305794e-03,6.216845288872718811e-02,7.484167814254760742e-02,-3.870949847623705864e-03,2.708771824836730957e-02,2.632849104702472687e-02,-3.604635596275329590e-02,4.252552613615989685e-02,-6.948183290660381317e-03,-6.741383671760559082e-02,-1.516601722687482834e-02,-1.147031877189874649e-02,4.174639470875263214e-03,8.835834264755249023e-02,7.042089849710464478e-02,1.551212649792432785e-02,-7.173571735620498657e-02,1.285466644912958145e-02,6.312891095876693726e-02,6.644993275403976440e-02,-6.708000600337982178e-02,1.429920457303524017e-02,3.659736737608909607e-02,-7.665393501520156860e-02,8.135311305522918701e-02,-1.072447467595338821e-02,6.632643193006515503e-02,-7.337965816259384155e-02,-2.682895958423614502e-02,1.445240341126918793e-03,6.579245626926422119e-02,7.897134125232696533e-02,1.392464060336351395e-02,-5.585493147373199463e-02,-1.621227152645587921e-02,7.393691688776016235e-02,7.586970180273056030e-02,3.699211776256561279e-02,-4.511737823486328125e-02,-7.294561713933944702e-02,-9.272211045026779175e-02,-4.764554649591445923e-02,1.673002541065216064e-02,-3.951818868517875671e-02,-1.572031900286674500e-02,8.424086123704910278e-02,5.833521112799644470e-02,-1.290246192365884781e-02,-4.728819057345390320e-02,-8.759668096899986267e-03,-8.239670097827911377e-02,6.381675601005554199e-02,4.421364888548851013e-02,5.738233402371406555e-02,7.968252897262573242e-02,9.687551297247409821e-03,-7.374719530344009399e-02,6.354570388793945312e-02,-1.164321321994066238e-02,7.929406315088272095e-02,-2.279507927596569061e-02,3.820309787988662720e-02,-1.861410215497016907e-02,-7.235719263553619385e-02,4.368651658296585083e-02,7.328599691390991211e-02,-4.296625033020973206e-02,-5.097049102187156677e-02,8.232901990413665771e-02,-5.510886013507843018e-02,6.896596401929855347e-02,-7.804203778505325317e-02,-5.821954458951950073e-02,3.103732131421566010e-02,-2.602599933743476868e-02,6.054051965475082397e-02,-6.641552597284317017e-02,-6.244945153594017029e-02,3.868699446320533752e-02,3.320813179016113281e-02,7.899650931358337402e-02,-8.232798427343368530e-02,3.021720424294471741e-02,-2.345241978764533997e-02,7.436658442020416260e-02,8.712187409400939941e-02,1.693273079581558704e-03,-8.648963412269949913e-04,-1.465388573706150055e-03,-2.703221328556537628e-02,-1.944408565759658813e-02,-4.463065415620803833e-03,-8.370599709451198578e-03,-7.280814647674560547e-02,-2.213485166430473328e-02,5.151731520891189575e-02,5.720320716500282288e-02,4.277270659804344177e-02,-1.831416599452495575e-02,3.878080984577536583e-03,5.847447365522384644e-02,-5.919116735458374023e-02,-2.855095453560352325e-02,7.170986384153366089e-02,3.486111760139465332e-03,7.909513264894485474e-02,-1.850569993257522583e-02,-4.207406193017959595e-02,1.317637879401445389e-02,6.954182684421539307e-02,-2.835777588188648224e-02,8.635628968477249146e-02,5.356364697217941284e-02,-1.168817095458507538e-02,-4.540791362524032593e-02,-2.008375339210033417e-02,5.382297933101654053e-02,5.769532546401023865e-02,5.327605456113815308e-02,4.298807308077812195e-02,-5.199173837900161743e-02,-2.987646684050559998e-02,-3.953485190868377686e-02,5.607470124959945679e-02,6.513293087482452393e-02,9.279135614633560181e-02,4.675450176000595093e-02,3.561574593186378479e-02
-9.373491629958152771e-03,-2.218707837164402008e-02,8.038074523210525513e-02,5.296430736780166626e-02,-8.271913975477218628e-02,3.825704753398895264e-02,5.941272899508476257e-02,5.152941122651100159e-02,-7.193182595074176788e-03,-5.232406780123710632e-02,1.084040105342864990e-02,-4.485122486948966980e-02,-8.030654489994049072e-02,1.156560424715280533e-02,3.774128481745719910e-02,1.074903458356857300e-02,1.167317479848861694e-02,-1.523657981306314468e-02,-4.517228156328201294e-02,-5.121474340558052063e-02,3.226451203227043152e-02,2.054200693964958191e-02,1.965096779167652130e-02,-2.732647769153118134e-02,-4.189113900065422058e-02,4.995172098278999329e-02,-1.303769834339618683e-02,9.273523464798927307e-03,-1.814621966332197189e-03,-7.936223410069942474e-03,2.363832481205463409e-02,-2.548593655228614807e-02,4.136784933507442474e-03,5.368556454777717590e-02,5.269036069512367249e-02,-2.236068621277809143e-02,5.222862958908081055e-02,6.665926426649093628e-02,-8.366995304822921753e-02,-7.817220687866210938e-02,3.948862105607986450e-02,1.587571576237678528e-02,8.167542517185211182e-02,4.845444578677415848e-03,7.411970198154449463e-02,5.556532740592956543e-02,-3.974697366356849670e-02,7.457885891199111938e-02,-5.348317325115203857e-02,-2.568400651216506958e-02,-4.958496615290641785e-02,-8.734761923551559448e-02,-2.654578303918242455e-03,-7.565114647150039673e-02,-7.641942799091339111e-02,-2.004916220903396606e-02,-7.690559327602386475e-02,3.594685345888137817e-02,4.596381634473800659e-02,3.100121207535266876e-02,-3.635872527956962585e-02,8.658888190984725952e-02,-5.946835130453109741e-02,6.962502747774124146e-02,-1.709265261888504028e-02,2.995444089174270630e-02,-5.559147894382476807e-02,3.117490932345390320e-02,6.036836653947830200e-02,7.292994111776351929e-02,-2.354383468627929688e-02,4.084392637014389038e-02,-1.601932686753571033e-03,-3.189205005764961243e-02,5.479666218161582947e-02,7.848612032830715179e-03,-5.889299884438514709e-02,-7.993204891681671143e-02,-1.168971229344606400e-02,-7.962878793478012085e-02,-5.595654249191284180e-02,-4.776819795370101929e-02,6.971921771764755249e-02,8.427231013774871826e-02,6.814714521169662476e-02,1.728920638561248779e-02,-3.150507807731628418e-02,-1.332863792777061462e-02,1.040579844266176224e-02,2.406727522611618042e-02,7.421354949474334717e-02,-4.596422612667083740e-02,-6.826293468475341797e-02,-1.689928397536277771e-02,3.638515993952751160e-02,2.874603308737277985e-02,-7.050172984600067139e-02,-3.310161456465721130e-02,3.066452033817768097e-02,-3.002269752323627472e-02,8.347149938344955444e-02,-6.927611678838729858e-02,-6.617451459169387817e-02,6.002402678132057190e-02,-6.665806472301483154e-02,6.315904855728149414e-02,-4.075084626674652100e-02,-1.497777644544839859e-02,-1.776091195642948151e-02,3.456592932343482971e-02,-4.504563752561807632e-03,-8.503763936460018158e-03,-2.207737416028976440e-02,-4.550542682409286499e-03,-2.182300016283988953e-02,6.438044458627700806e-02,6.272628158330917358e-02,5.906092375516891479e-02,4.157331585884094238e-02,-5.815050005912780762e-02,-4.511114582419395447e-02,7.292462140321731567e-02,8.788507431745529175e-03,7.074248045682907104e-02,-3.609287738800048828e-02,-1.955052837729454041e-03,-7.972631603479385376e-02,5.276502296328544617e-02
-8.472868800163269043e-02,9.184567630290985107e-02,8.291867375373840332e-02,6.883548200130462646e-02,4.957702755928039551e-02,-2.094577252864837646e-02,5.717226862907409668e-02,8.028846979141235352e-02,6.068095564842224121e-03,-4.972445219755172729e-02,-4.836125299334526062e-02,7.191628962755203247e-02,4.129364155232906342e-03,-2.650008536875247955e-02,-1.819339767098426819e-02,-3.636608645319938660e-02,1.696931431069970131e-03,-8.761742711067199707e-02,3.788715228438377380e-02,-1.794843934476375580e-02,-2.520289458334445953e-02,-1.029921602457761765e-02,1.952480152249336243e-02,-6.562216579914093018e-02,3.241737186908721924e-02,-2.750514075160026550e-02,-7.326852530241012573e-02,6.835310906171798706e-02,3.425607085227966309e-02,5.112884193658828735e-02,-7.687411457300186157e-02,8.235593140125274658e-02,4.538300633430480957e-02,2.753463946282863617e-02,-4.227250814437866211e-02,1.321055274456739426e-02,5.805841088294982910e-02,-6.759976595640182495e-02,-4.979425668716430664e-02,1.536928862333297729e-02,2.187983691692352295e-02,6.786064803600311279e-02,-1.582565717399120331e-02,-4.756905883550643921e-02,3.445517271757125854e-02,-6.990847736597061157e-02,-5.635160580277442932e-02,-7.284659892320632935e-02,-8.082835376262664795e-02,7.441820204257965088e-02,6.668929010629653931e-02,3.654846176505088806e-02,6.100048311054706573e-03,-1.544515602290630341e-02,-3.078272007405757904e-02,4.634822532534599304e-02,-8.388265967369079590e-02,-2.179194428026676178e-02,-8.439862728118896484e-02,-5.546494573354721069e-02,5.713006854057312012e-02,5.345186591148376465e-02,-3.116608969867229462e-02,-4.362811520695686340e-02,-4.202500358223915100e-02,3.659057244658470154e-02,-1.392363011837005615e-02,9.167215228080749512e-02,9.458736516535282135e-03,-8.193852752447128296e-02,-8.004414290189743042e-02,-1.457113586366176605e-02,-4.356332123279571533e-02,-1.784633845090866089e-03,-1.887591928243637085e-02,6.716946512460708618e-02,-6.889262050390243530e-02,7.698092609643936157e-02,8.103635162115097046e-02,-1.785203441977500916e-02,-5.800769105553627014e-02,6.352188438177108765e-02,5.695523321628570557e-02,3.802569583058357239e-02,2.426023595035076141e-02,8.149923384189605713e-02,-7.981806993484497070e-03,-3.846463561058044434e-02,-4.504458047449588776e-03,4.459476843476295471e-02,5.803697556257247925e-02,-7.071171700954437256e-02,2.918985206633806229e-03,-7.926321774721145630e-02,-4.415511339902877808e-02,3.322228044271469116e-02,5.392280220985412598e-02,5.553824827075004578e-02,-8.833104372024536133e-02,-4.234043881297111511e-03,-2.312652999535202980e-03,-9.228119626641273499e-03,6.773475557565689087e-02,8.378528803586959839e-02,2.567222714424133301e-02,-3.204611316323280334e-02,-1.964326947927474976e-02,3.312206268310546875e-02,9.223359823226928711e-02,-4.197101225145161152e-04,9.217977523803710938e-02,-5.204863101243972778e-02,5.827903747558593750e-02,-2.579204179346561432e-02,6.963558495044708252e-02,-3.396354988217353821e-02,4.531450197100639343e-02,1.281568966805934906e-02,7.240157574415206909e-02,1.830779388546943665e-02,-3.811400616541504860e-03,3.067795373499393463e-02,8.192712813615798950e-02,-5.089420080184936523e-02,-6.395914405584335327e-02,-4.003070667386054993e-02,3.683242946863174438e-02,8.020019531250000000e-02
-6.618136167526245117e-02,-7.913354039192199707e-02,8.327183872461318970e-02,-4.135007504373788834e-03,-6.635183840990066528e-02,-5.346283689141273499e-02,7.085377722978591919e-02,3.260543942451477051e-02,-2.909660572186112404e-03,-3.950598184019327164e-03,8.525361865758895874e-02,6.985729187726974487e-02,-8.307054638862609863e-02,1.384111866354942322e-02,3.435538336634635925e-02,-2.495776116847991943e-02,-6.518880277872085571e-02,3.881584107875823975e-02,2.472008019685745239e-02,-6.938159465789794922e-02,-1.292517781257629395e-02,-3.488888218998908997e-02,1.892220973968505859e-02,-5.413029342889785767e-02,1.877629384398460388e-02,5.634776875376701355e-02,-7.539188861846923828e-02,6.797576695680618286e-02,6.027955189347267151e-02,5.536381155252456665e-03,2.948201633989810944e-02,-1.096665766090154648e-02,7.893920689821243286e-02,4.831714183092117310e-02,-3.171893209218978882e-02,-1.636163145303726196e-02,4.263857379555702209e-02,-4.343014955520629883e-02,-7.422792911529541016e-02,-2.873213775455951691e-02,-3.800009191036224365e-02,-7.119909673929214478e-02,4.437352716922760010e-02,-1.546524744480848312e-02,-4.392160475254058838e-02,8.153603971004486084e-02,-1.641953014768660069e-03,-8.133579976856708527e-04,7.538788765668869019e-02,4.485455527901649475e-02,2.285169996321201324e-02,-1.296531315892934799e-02,-7.815451920032501221e-02,-5.186752229928970337e-02,3.325089812278747559e-02,-1.022639032453298569e-02,-1.095861848443746567e-02,6.978234648704528809e-02,5.912458524107933044e-02,2.278380468487739563e-02,-7.350845634937286377e-02,-2.735976316034793854e-02,8.219298720359802246e-02,-3.108240105211734772e-02,3.919476643204689026e-02,-5.040998384356498718e-02,3.588790073990821838e-02,-6.448576599359512329e-02,2.114885859191417694e-02,6.921746581792831421e-02,2.307141572237014771e-02,-4.174447059631347656e-02,-4.446912556886672974e-02,-2.582103759050369263e-02,-1.164129655808210373e-02,-6.885181367397308350e-02,4.032660275697708130e-02,-4.665138944983482361e-02,-2.499679476022720337e-02,1.263572601601481438e-03,5.636527389287948608e-02,-1.312695792876183987e-03,-4.581144824624061584e-02,3.125783056020736694e-02,-6.469259038567543030e-03,9.155906736850738525e-02,-5.163800716400146484e-02,3.554182592779397964e-03,4.642245918512344360e-02,7.771336287260055542e-02,-7.990635931491851807e-02,2.411844674497842789e-03,-8.905942738056182861e-02,2.671924233436584473e-02,-3.194534219801425934e-03,4.819373041391372681e-02,6.576422601938247681e-02,-1.413736119866371155e-02,5.280110239982604980e-02,2.370421029627323151e-02,-4.205028340220451355e-02,-7.370926439762115479e-02,-7.572282850742340088e-02,-5.994390230625867844e-03,1.237632054835557938e-02,-5.141958594322204590e-02,7.646394893527030945e-03,-4.293834045529365540e-02,-1.208884268999099731e-02,4.341273009777069092e-02,-7.365755736827850342e-02,6.784800440073013306e-02,-2.481768839061260223e-02,-1.322888024151325226e-02,8.565871044993400574e-03,-7.448947429656982422e-02,-4.411781206727027893e-02,-7.832120358943939209e-02,6.167210638523101807e-02,-2.748328261077404022e-02,5.132770910859107971e-02,6.755252927541732788e-02,-1.092496793717145920e-03,-2.733958885073661804e-02,-4.689440503716468811e-02,-3.577580302953720093e-02,-1.255989074707031250e-02,-5.909823253750801086e-02
